{"fc1.weight": [[0.024537134915590286, 0.0585271418094635, 0.0680491179227829, 0.07661277055740356, -0.071016825735569, -0.0848161056637764, -0.004193227272480726, -0.06361309438943863, -0.05786895006895065, 0.01793747954070568, -0.08236212283372879, -0.09023291617631912, -0.05984995514154434, 0.012710202485322952, -0.08122561126947403, 0.09652352333068848, 0.05745542421936989, -0.03228362649679184, -0.081462562084198, 0.042433008551597595, 0.0005012304754927754, -0.08440765738487244, -0.027794186025857925, 0.07660365104675293, -0.05928290635347366, 0.005319435615092516, 0.05180898308753967, 0.025602638721466064, 0.021639253944158554, -0.08346917480230331, 0.025099551305174828, 0.09860965609550476, -0.012098927050828934, -0.06441091001033783, -0.06894174963235855, -0.072103351354599, 0.006594987120479345, 0.09897768497467041, 0.03068467788398266, 0.09862552583217621, 0.051584720611572266, -0.01775488257408142, 0.03454044088721275, 0.09027597308158875, 0.06301828473806381, -0.019136250019073486, 0.01907665655016899, 0.09874879568815231, 0.0178348571062088, -0.016306927427649498, 0.08662329614162445, 0.040782708674669266, 0.024968501180410385, -0.004877440165728331, -0.06083689257502556, 0.07418862730264664, -0.05759476125240326, 0.06510462611913681, -0.08100401610136032, 0.018801074475049973, -0.013981619849801064, 0.05620385706424713, 0.036585185676813126, 0.05580251291394234, -0.08987946808338165, 0.04069671034812927, -0.07975723594427109, 0.02890714444220066, 0.08486125618219376, 0.014549744315445423, 0.07380376011133194, 0.01376329455524683, 0.027631836012005806, 0.07289409637451172, -0.07058852165937424, 0.03460074961185455, 0.02970561571419239, -0.07671358436346054, 0.013103177770972252, 0.07053913921117783, 0.04071757197380066, -0.06374455243349075, -0.02450084686279297, 0.04266005754470825, -0.03943295031785965, 0.012643171474337578, 0.07827574759721756, -0.04178541153669357, 0.03669462725520134, -0.022034762427210808, -0.09796562790870667, 0.0509897880256176, -0.03803211450576782, -0.07833188027143478, 0.06836710125207901, -0.015417274087667465, 0.07077749818563461, 0.013075580820441246, 0.04046099632978439, -0.08077207207679749, 0.002524396637454629, 0.009981939569115639, -0.04889746010303497, -0.018310490995645523, -0.0691966786980629, 0.0062987422570586205, 0.002346728928387165, -0.03728632628917694, 0.03374479338526726, 0.015127069316804409, -0.007579021155834198, 0.018993545323610306, -0.05981409549713135, -0.05100390687584877, 0.014210264198482037, -0.0606720857322216, -0.050746187567710876, -0.08647336065769196, 0.07274199277162552, 0.02952689677476883], [-0.0732845738530159, -0.07547161728143692, -0.08656427264213562, 0.044054269790649414, -0.08706120401620865, -0.0632142648100853, -0.01788868010044098, -0.09092487394809723, -0.0907793864607811, 0.04182294011116028, -0.037658900022506714, 0.053717195987701416, -0.08851362764835358, -0.07699334621429443, 0.06971998512744904, 0.03516794741153717, 0.08389613032341003, -0.06771308183670044, -0.04457088187336922, 0.035964369773864746, -0.06889060139656067, 0.04859460890293121, -0.08965066820383072, -0.08148161321878433, -0.07221449911594391, 0.03064938634634018, -0.08935322612524033, 0.025193892419338226, -0.08234276622533798, 0.08603979647159576, 0.0744553804397583, 0.0742381364107132, -0.08299405872821808, 0.011232800781726837, -0.018706530332565308, -0.08152317255735397, -0.03469613566994667, -0.04335041344165802, -0.042067818343639374, -0.07638277858495712, -0.013737708330154419, 0.00918000191450119, -0.02651236206293106, -0.03484299033880234, -0.040757350623607635, 0.00866178423166275, -0.02454180270433426, -0.08590228110551834, -0.03673042356967926, 0.04410329461097717, -0.059234607964754105, 0.03223051875829697, -0.09082367271184921, 0.062405914068222046, -0.06437580287456512, 0.013438515365123749, -0.053654745221138, 0.03440389037132263, -0.002205103635787964, -0.06743098795413971, -0.03691214695572853, -0.00016482174396514893, -0.06724860519170761, -0.026104651391506195, -0.050435956567525864, -0.07375092804431915, -0.04177698865532875, 0.017303645610809326, -0.01207657903432846, 0.08714567124843597, 0.04082341492176056, -0.048906486481428146, 0.08187906444072723, -0.03520844876766205, 0.015488997101783752, -0.060333654284477234, -0.06952045112848282, -0.041984014213085175, -0.056453946977853775, 0.05007575452327728, -0.041835036128759384, -0.0863371416926384, 0.033132463693618774, 0.001409091055393219, 0.015592172741889954, -0.09103547036647797, 0.03561466932296753, 0.07123807072639465, 0.07835088670253754, -0.060016293078660965, -0.04944774881005287, 0.016031011939048767, 0.06617632508277893, -0.01922101527452469, 0.052848756313323975, -0.03755500540137291, 0.029496118426322937, 0.02015446126461029, 0.0497467964887619, 0.07736006379127502, 0.006947338581085205, -0.07190509140491486, -0.048382069915533066, 0.04003414511680603, -0.0664002001285553, 0.06142184138298035, -0.06587310880422592, 0.07709243893623352, 0.032371364533901215, 0.0009702444076538086, -0.06446662545204163, -0.00791621208190918, 0.031800560653209686, 0.06563198566436768, 0.07402525842189789, -0.059347838163375854, -0.07662522792816162, 0.08590060472488403, -0.023218408226966858, -0.05900657922029495], [0.00376841239631176, -0.030421243980526924, -0.03938949480652809, -0.023078493773937225, -0.0840657651424408, -0.0017091644695028663, -0.04342539608478546, 0.06517976522445679, 0.0642240047454834, -0.07524427026510239, -0.08358438313007355, 0.07036813348531723, -0.061674099415540695, -0.05192706361413002, 0.022953758016228676, -0.048166755586862564, -0.1137775108218193, 0.02120726928114891, 0.04902642220258713, 0.05725746229290962, 0.0400896891951561, 0.0660102367401123, -0.10472926497459412, 0.016871491447091103, -0.007808889728039503, -0.019157083705067635, -0.08987590670585632, 0.034890465438365936, 0.043722689151763916, 0.07916060090065002, -0.02424582466483116, -0.05446972697973251, -0.019146062433719635, 0.12192496657371521, -0.04427905008196831, -0.06159312278032303, -0.035338375717401505, 0.07516790926456451, -0.11061689257621765, -0.024435073137283325, 0.0022279280237853527, 0.1132267639040947, -0.01075864490121603, -0.020251186564564705, -0.07100871205329895, 0.05013022944331169, 0.03528090566396713, -0.019573701545596123, -0.03940211609005928, -0.030636565759778023, -0.020317254588007927, -0.10484867542982101, 0.04539816454052925, -0.046839434653520584, -0.03703763335943222, -0.05364789068698883, 0.054666344076395035, 0.04860683158040047, -0.010240890085697174, 0.09349577128887177, 0.028744710609316826, -0.035951584577560425, 0.007570463232696056, -0.058458007872104645, -0.11483065038919449, -0.072603240609169, 0.0040391539223492146, 0.0009116611327044666, -0.0393940731883049, 0.09762626886367798, 0.01662066951394081, -0.06857440620660782, 0.04604159668087959, 0.028704198077321053, -0.08995814621448517, -0.052308909595012665, 0.010336765088140965, -0.010428504087030888, 0.023665254935622215, -0.032744795083999634, -0.05914892256259918, -0.07423209398984909, -0.04486594349145889, -0.0042425901629030704, 0.019417820498347282, 0.04898509010672569, 0.050121184438467026, 0.0144498897716403, 0.06328096240758896, 0.11891099065542221, 0.024045925587415695, -0.010787621140480042, -0.014701850712299347, -0.1149768978357315, -0.024967210367321968, -0.055069535970687866, 0.07863453775644302, 0.05710659548640251, -0.07119091600179672, -0.08470461517572403, 0.03345659375190735, -0.016573118045926094, -0.01968974806368351, -0.045688360929489136, -0.05042963847517967, -0.047222722321748734, -0.09322770684957504, 4.549279765342362e-05, -0.0020439031068235636, -0.05276770517230034, -0.01356525905430317, -0.09653268754482269, -0.006602677050977945, -0.009588108398020267, 0.06990692019462585, 0.040334027260541916, 0.0438094362616539, -0.019448043778538704, 0.06424470990896225, 0.019216109067201614], [0.08668962866067886, -0.020383033901453018, -0.07852794975042343, 0.03803279995918274, 0.053759947419166565, -0.011498850770294666, -0.03681526705622673, 0.061223387718200684, -0.009440534748136997, -0.017419934272766113, -0.07126185297966003, -0.012930458411574364, 0.0947551354765892, 0.11694610118865967, -0.103038489818573, -0.010508970357477665, -0.0824413150548935, 0.05133435130119324, -0.02379751019179821, 0.06764616072177887, -0.09750039130449295, -0.10460316389799118, -0.007274582050740719, -0.08535389602184296, 0.01719455048441887, 0.11001084744930267, -0.02206825092434883, 0.020847637206315994, 0.0351993627846241, -0.10989759862422943, 0.027078671380877495, -0.042446430772542953, -0.05370531231164932, -0.06544321030378342, 0.08057767897844315, -0.03839445114135742, 0.005986075848340988, -0.06061817705631256, 0.05794438347220421, -0.015200706198811531, 0.041961926966905594, 0.09140229225158691, 0.06046099588274956, -0.006560731213539839, -0.04391200840473175, 0.03362660855054855, 0.06930093467235565, 0.12188378721475601, 0.06903360784053802, -0.08073357492685318, -0.07978221029043198, -0.09699391573667526, 0.14895129203796387, 0.06481068581342697, 0.00400923565030098, -0.08760401606559753, -0.05559414625167847, -0.07611805945634842, 0.06723518669605255, 0.06024349853396416, 0.001362136099487543, -0.007671957835555077, 0.1136089414358139, 0.05798542872071266, -0.12313791364431381, -0.15107998251914978, 0.12033705413341522, -0.11099086701869965, -0.0193785447627306, 0.07718925923109055, 0.005497741512954235, -0.11795602738857269, 0.09034360200166702, -0.04654068127274513, -0.0364997461438179, 0.07169000059366226, -0.11481077969074249, -0.012738548219203949, -0.08218397200107574, 0.028414787724614143, -0.0671248510479927, 0.08765917271375656, -0.07071042060852051, -0.0679001584649086, 0.05606335401535034, 0.08826551586389542, 0.03320101276040077, -0.013281251303851604, 0.014409560710191727, -0.1118922084569931, 0.008259388618171215, 0.03833550959825516, 0.01039440929889679, 0.0050131226889789104, 0.006517746485769749, -0.10178806632757187, -0.02381320856511593, 0.15137629210948944, 0.008255347609519958, 0.005497656296938658, 0.022551728412508965, -0.04371855780482292, 0.09746868163347244, 0.07597154378890991, -0.01359519176185131, -0.05596863105893135, 0.09196808934211731, 0.04634088650345802, 0.030657408758997917, 0.09515778720378876, -0.12157577276229858, 0.059985797852277756, 0.09433592855930328, 0.09146580100059509, -0.046844057738780975, -0.002856089733541012, -0.016290225088596344, 0.00024875448434613645, -0.04268971085548401, 0.01810772903263569], [0.12582048773765564, -0.1235211193561554, -0.03567696362733841, 0.027323482558131218, 0.10952959209680557, -0.15320026874542236, 0.08503064513206482, 0.012024921365082264, -0.03529410436749458, -0.09996432811021805, 0.08361969888210297, 0.013439536094665527, 0.08652226626873016, 0.0716632828116417, -0.0013368934160098433, -0.10655586421489716, 0.0032185842283070087, 0.07623634487390518, -0.04131311923265457, -0.0214039646089077, -0.09739208221435547, -0.12843535840511322, 0.10299801081418991, 0.06773389130830765, 0.032444462180137634, -0.06569122523069382, -0.09213472902774811, -0.06638311594724655, 0.14465251564979553, 0.05592956021428108, 0.13101963698863983, -0.11993452906608582, -0.025397609919309616, -0.020192360505461693, 0.00757621880620718, -0.07819292694330215, -0.009557181037962437, -0.09017769247293472, 0.09389335662126541, -0.149100199341774, -0.07897680997848511, -0.17824245989322662, -0.01815207116305828, 0.028698591515421867, 0.030468076467514038, -0.09752022475004196, -0.13334445655345917, -0.15343615412712097, 0.021716173738241196, 0.013530534692108631, 0.11533232778310776, -0.004713846370577812, -0.002780348528176546, -0.08729688078165054, 0.0034236209467053413, -0.11465872079133987, 0.08396011590957642, 0.01910179667174816, -0.0050288476049900055, 0.033065468072891235, -0.03719446435570717, 0.0413711816072464, -0.015441170893609524, 0.09446809440851212, 0.025937587022781372, 0.12410222738981247, 0.062432628124952316, 0.0436316579580307, -0.07506196945905685, 0.0014736329903826118, 0.1695699393749237, 0.1727914661169052, 0.07537581026554108, 0.07595057785511017, -0.012792623601853848, -0.07605250179767609, 0.1722736954689026, -0.01566121354699135, -0.011515923775732517, 0.12147187441587448, -0.018486320972442627, 0.02863144315779209, 0.10868871212005615, -0.12842640280723572, 0.06997313350439072, -0.020172718912363052, -0.000982222962193191, -0.030882610008120537, -0.04541284963488579, -0.0740937739610672, -0.008138980716466904, 0.03578634932637215, 0.12057724595069885, 0.04931526631116867, -0.0976003035902977, -0.1602369248867035, -0.013965859077870846, 0.1353733092546463, -0.035300008952617645, -0.12233314663171768, 0.03927384689450264, -0.10227099806070328, 0.08003836870193481, 0.15816381573677063, -0.039858005940914154, -0.10130465775728226, 0.05333654209971428, -0.09719936549663544, 0.007820861414074898, 0.17383311688899994, -0.06297501176595688, -0.08511216938495636, 0.13927651941776276, 0.07224910706281662, 0.12850122153759003, 0.14343394339084625, 0.09031229466199875, -0.10065887868404388, 0.057865943759679794, 0.10296125710010529], [0.07442230731248856, -0.03554341569542885, 0.01823434606194496, -0.01821926236152649, -0.010949088260531425, 0.0073626236990094185, 0.0006897117709740996, 0.10607311129570007, 0.0007485514506697655, -0.10602610558271408, -0.07214711606502533, -0.11089276522397995, 0.08035686612129211, 0.07242617011070251, 0.1408742219209671, 0.09258309006690979, -0.018473269417881966, -0.10136845707893372, -0.03449428826570511, -0.02243190072476864, 0.09440488368272781, -0.007426837924867868, -0.011364585720002651, -0.04874863103032112, -0.00822252407670021, -0.026548957452178, 0.07040907442569733, -0.013625523075461388, 0.007260721176862717, -0.144293412566185, -0.020780004560947418, 0.06796599924564362, -0.08206650614738464, 0.022863350808620453, 0.021731501445174217, -0.09945127367973328, -0.06498799473047256, -0.008769023232161999, -0.03934629634022713, 0.02826579660177231, -0.11633986234664917, -0.17054486274719238, -0.059657830744981766, 0.11471441388130188, -0.10758382081985474, 0.009395938366651535, -0.10755244642496109, -0.1276705414056778, -0.05011303722858429, 0.05364366993308067, 0.031154068186879158, 0.03196975961327553, -0.1418100744485855, -0.0037555149756371975, -0.12084369361400604, 0.03280118107795715, 0.013851595111191273, -0.01672465354204178, -0.030884504318237305, 0.15247845649719238, -0.1190367341041565, 0.02934342250227928, 0.024263205006718636, -0.03671658784151077, 0.011300760321319103, 0.11480516195297241, -0.020241282880306244, 0.05894852802157402, 0.044861264526844025, 0.015272743999958038, 0.03594507649540901, 0.06056380644440651, 0.039053723216056824, 0.03999149054288864, 0.1333467662334442, 0.1354755163192749, 0.01371418684720993, 0.04629262164235115, -0.0007754810503683984, -0.046546272933483124, 0.06542333960533142, -0.007800099439918995, 0.04155420511960983, 0.17396318912506104, 0.04836557060480118, -0.02914455533027649, -0.07292398065328598, 0.05386054515838623, -0.0009826855966821313, 0.1653454303741455, 0.10614485293626785, 0.03834192827343941, 0.02709808759391308, 0.047942448407411575, -0.005424983333796263, 0.14977289736270905, -0.035383399575948715, -0.11499127000570297, -0.01659439504146576, 0.11933060735464096, 0.015087985433638096, 0.049793634563684464, 0.10752192884683609, -0.016853874549269676, -0.08151872456073761, 0.10717839747667313, -0.06528046727180481, 0.02903950959444046, -0.01310060266405344, -0.018725460395216942, 0.047348346561193466, -0.09638229757547379, -0.017531009390950203, 0.05917802080512047, 0.09647957235574722, -0.09458493441343307, -0.0619058758020401, -0.029683396220207214, 0.007679774425923824, 0.0467255525290966], [-0.04021551460027695, 0.0031967146787792444, 0.03376888111233711, -0.03009086474776268, 0.11559421569108963, 0.024773016571998596, 0.044477444142103195, 0.006161657627671957, 0.09736713767051697, 0.024575941264629364, 0.02133067697286606, 0.00976756401360035, -0.015557336620986462, -0.09492844343185425, -0.030048886314034462, -0.040661316365003586, -0.009078549221158028, -0.08983629196882248, 0.1283062845468521, -0.034429777413606644, 0.0732654556632042, 0.02179058827459812, 0.004769074730575085, -0.11044157296419144, 0.06270261853933334, -0.1018889844417572, 0.018310073763132095, -0.05460897088050842, 0.04913431406021118, -0.029678335413336754, 0.12178584188222885, -0.06645576655864716, -0.06795945018529892, 0.055114034563302994, -0.09267040342092514, -0.09515056014060974, 0.02550976164638996, 0.02668376825749874, 0.0006189302075654268, -0.00796593353152275, 0.03157615289092064, 0.024805931374430656, 0.04484952241182327, -0.0005975273088552058, 0.025064578279852867, 0.004826264921575785, -0.1063774898648262, -0.04511582851409912, 0.020781079307198524, 0.05133835971355438, 0.0003891176311299205, -0.03133173659443855, -0.13749119639396667, -0.11743636429309845, -0.03489087149500847, 0.10894328355789185, 0.08504606783390045, 0.0058550904504954815, -0.1427578330039978, 0.058201972395181656, -0.07748804241418839, 0.10193786770105362, -0.09140336513519287, 0.11189776659011841, 0.028587596490979195, -0.03510863333940506, 0.0071102650836110115, 0.028134461492300034, 0.032929677516222, 0.07231706380844116, 0.0775023028254509, -0.01624477654695511, 0.07253775000572205, -0.020335759967565536, 0.010724044404923916, -0.04914765805006027, 0.07921023666858673, 0.057588640600442886, 0.08026459813117981, -0.06591258943080902, 0.08936712890863419, 0.04530572146177292, 0.020578661933541298, 0.12106125056743622, 0.09822192043066025, 0.06770136952400208, 0.10255059599876404, 0.02899794466793537, -0.04121551662683487, 0.05282724276185036, 0.046927276998758316, 0.011303415521979332, 0.032458867877721786, -0.03742140904068947, 0.10101988911628723, 0.0024304387625306845, -0.026812586933374405, -0.003997544292360544, 0.030598066747188568, 0.02422906830906868, 0.01591065153479576, 0.119776651263237, 0.08844926953315735, -0.1458815485239029, 0.0997089296579361, -0.0162372887134552, -0.08348947763442993, 0.0418802946805954, 0.02687383070588112, -0.06277226656675339, -0.005366183817386627, 0.04294992610812187, -0.005687625613063574, 0.0561409629881382, 0.09817865490913391, -0.10173984616994858, 0.1364455223083496, 0.07564020901918411, 0.021790258586406708, -0.015557585284113884], [-0.006284460425376892, 0.05427226051688194, 0.08727675676345825, 0.08664653450250626, -0.015105072408914566, -0.052287615835666656, -0.01634223572909832, 0.007501240819692612, 0.021328916773200035, 0.06874001771211624, -0.08096587657928467, 0.13315974175930023, -0.11147131770849228, 0.054911039769649506, -0.012714898213744164, 0.1705009639263153, 0.02603253163397312, 0.07892071455717087, -0.0741238221526146, 0.06277631223201752, -0.0651388093829155, -0.01811641827225685, 0.09713327139616013, 0.006379717495292425, -0.060800183564424515, -0.03803635388612747, 0.025724193081259727, 0.08187583833932877, 0.037756845355033875, 0.1617986112833023, 0.1185518279671669, 0.03001764975488186, -0.05482249706983566, 0.05502750352025032, 0.05896550789475441, 0.1317244917154312, 0.12777386605739594, -0.04791954159736633, -0.020061073824763298, -0.014761215075850487, 0.12771356105804443, -0.031310971826314926, 0.09325571358203888, -0.08867919445037842, 0.06368094682693481, 0.04414941370487213, 0.1406204104423523, 0.05917365849018097, -0.014245167374610901, -0.011576061137020588, -0.003394507570192218, -0.12529824674129486, 0.07369383424520493, 0.022370554506778717, 0.0370720699429512, -0.13053074479103088, 0.054844923317432404, -0.09136954694986343, 0.011051936075091362, -0.08624551445245743, 0.1233658716082573, -0.09732770919799805, -0.024659721180796623, -0.007573474198579788, -0.001692388323135674, -0.03878631442785263, 0.04791392385959625, -0.055502135306596756, -0.020489146932959557, -0.09605347365140915, 0.07085444778203964, -0.06932365149259567, 0.033152516931295395, -0.03790828213095665, 0.007477060426026583, -0.10776396095752716, 0.02646310068666935, -0.1015930250287056, 0.006260785739868879, -0.1480567753314972, 0.09554584324359894, -0.06734117865562439, -0.10605832934379578, -0.026530131697654724, 0.11786272376775742, -0.1291460245847702, 0.02761806547641754, 0.033338651061058044, -0.09543552994728088, -0.03427349776029587, 0.012380499392747879, 0.0744774267077446, -0.01889164373278618, -0.07430185377597809, -0.15154515206813812, -0.06688158214092255, -0.06924895197153091, 0.07471872866153717, -0.010025992058217525, 0.014420718885958195, 0.009161838330328465, -0.0887046679854393, 0.014975936152040958, 0.033727336674928665, -0.035088904201984406, -0.033756155520677567, 0.010225247591733932, -0.0889948233962059, 0.06341864913702011, 0.06660905480384827, 0.06042221561074257, 0.004596564918756485, -0.052195657044649124, 0.07664597779512405, 0.07172675430774689, 0.05043886974453926, 0.0190602894872427, -0.10768762230873108, 0.0503438375890255, -0.003088167868554592], [-0.07940147817134857, 0.0330255851149559, -0.044405803084373474, -0.011146889999508858, 0.0004661857965402305, 0.06631515175104141, 0.028096547350287437, 0.03805554658174515, -0.1103942021727562, 0.10491128265857697, 0.03515498712658882, 0.045857060700654984, 0.07944478839635849, -0.0941038727760315, -0.03805917128920555, 0.06286897510290146, 0.07029470801353455, 0.04287462309002876, 0.01924218237400055, -0.08766724914312363, 0.07462109625339508, 0.05827953293919563, -0.07023876160383224, 0.012260843068361282, 0.014270756393671036, -0.04445686936378479, 0.11368321627378464, -0.06666522473096848, -0.007545006461441517, 0.0006217838963493705, 0.053642407059669495, -0.10516186058521271, 0.11115068942308426, -0.04516410827636719, -0.09296725690364838, -0.0007596240611746907, -0.05724688991904259, 0.01465734001249075, 0.025123558938503265, 0.05580495297908783, -0.02926788292825222, -0.03886393830180168, 0.0718599334359169, 0.054377857595682144, -0.08040186017751694, 0.0949527695775032, 0.123720683157444, 0.04267202690243721, 0.1030956581234932, -0.053540024906396866, -0.011258318088948727, 0.03891780599951744, 0.0673425942659378, -0.06069926545023918, 0.04158133640885353, 0.028471563011407852, -0.0913362130522728, 0.00743824290111661, 0.0009601013734936714, -0.09457060694694519, -0.088736392557621, 0.012897026725113392, -0.023062273859977722, 0.014197121374309063, 0.04980790615081787, 0.01004214957356453, -0.12527848780155182, 0.03241691365838051, -0.11593572795391083, 0.05535345524549484, 0.01798817701637745, 0.02143675647675991, -0.018867049366235733, -0.011035162955522537, 0.036778803914785385, -0.14013919234275818, 0.04867001995444298, -0.0040332176722586155, -0.09128858149051666, -0.0829518735408783, 0.05815809592604637, -0.004062797874212265, 0.00935270544141531, 0.05778919532895088, 0.03447898104786873, 0.046966537833213806, 0.004414346069097519, 0.0003356332890689373, 0.12275317311286926, 0.06437532603740692, -0.05074572563171387, -0.04254117235541344, 0.036703672260046005, -0.08428949862718582, 0.05166396126151085, 3.185524110449478e-05, 0.008131055161356926, -0.029089275747537613, -0.011230621486902237, -0.14150051772594452, -0.04504185914993286, 0.02495630830526352, -0.0010897397296503186, -0.05771193280816078, 0.11413194239139557, -0.02312387526035309, -0.12703612446784973, 0.0006780177936889231, 0.09954193979501724, -0.02469615824520588, -0.05007592588663101, 0.06613413244485855, -0.04192635044455528, -0.11095481365919113, -0.012059509754180908, -0.08130934089422226, -0.08321504294872284, 0.1525670439004898, -0.1574237048625946, -0.013891841284930706], [0.08577698469161987, 0.0034451812971383333, 0.13695400953292847, -0.04050901159644127, -0.05842598155140877, -0.03822636231780052, 0.07013900578022003, 0.038307588547468185, -0.012302890419960022, 0.04596109688282013, -0.10969189554452896, -0.06338391453027725, -0.007663533557206392, -0.05025429651141167, 0.11146388947963715, 0.04287165775895119, -0.0010190849425271153, -0.04154791310429573, 0.011465615592896938, -0.11995742470026016, 0.08455631881952286, -0.00801139883697033, -0.06781091541051865, 0.008549317717552185, 0.014434599317610264, -0.010464195162057877, -0.005853942129760981, 0.0938008651137352, 0.04221290349960327, -0.12573806941509247, 0.050948143005371094, -0.0625728890299797, -0.003841536119580269, -0.022299613803625107, -0.04639813303947449, 0.054076213389635086, 0.051141999661922455, -0.002510049846023321, 0.09611381590366364, -0.023512905463576317, -0.0388060063123703, 0.05249427258968353, -0.03317468985915184, 0.04186183959245682, 0.027709053829312325, 0.030054569244384766, 0.09067545086145401, -0.03726252540946007, -0.0932907909154892, -0.06571163237094879, -0.052865996956825256, 0.07331930845975876, 0.059882018715143204, 0.04685644432902336, -0.030576713383197784, 0.08791321516036987, -0.09548302739858627, -0.004538662265986204, 0.11249794065952301, 0.04681041091680527, 0.05430172011256218, -0.06036711856722832, -0.09306418895721436, -0.024957019835710526, -0.057396695017814636, -0.02805863693356514, 0.04429180920124054, -0.08098182827234268, 0.09195473045110703, -0.0491003654897213, -0.08155679702758789, 0.050710439682006836, -0.010239735245704651, 0.07181201130151749, 0.11518160998821259, -0.00607953779399395, -0.010207862593233585, -0.015195363201200962, 0.005066980142146349, 0.010299463756382465, 0.08758485317230225, 0.06070100888609886, -0.007559336256235838, -0.055713288486003876, 0.04033025726675987, 0.08361820876598358, -0.07488447427749634, 0.05019674450159073, 0.03719347342848778, 0.07063760608434677, 0.035105928778648376, -0.03987443447113037, -0.02091861516237259, -0.07332204282283783, 0.013379252515733242, -0.04647967591881752, 0.01174216903746128, 0.017438221722841263, 0.00319306761957705, 0.016039429232478142, 0.02810894139111042, -0.008738524280488491, -0.05682167410850525, -0.0280741136521101, 0.04897972196340561, -0.02684515155851841, -0.06605196744203568, 0.09335523098707199, 0.06571251899003983, 0.03645950183272362, -0.0679142028093338, -0.045804690569639206, 0.02815570868551731, -0.1033015176653862, -0.005357947200536728, 0.10563656687736511, 0.07428395003080368, 0.07746761292219162, 0.022476801648736, 0.05230170860886574], [-0.03289592266082764, -0.06075363606214523, 0.013936763629317284, -0.018205629661679268, -0.025177549570798874, -0.10588900744915009, -0.004682983737438917, 0.08216741681098938, 0.021855155006051064, 0.045939140021800995, -0.08307645469903946, -0.1240164265036583, -0.07264085114002228, 0.010673861019313335, -0.038276467472314835, 0.0996403694152832, -0.0507010892033577, 0.09749463945627213, 0.052314624190330505, -0.03881530836224556, 0.000551378121599555, 0.04408503696322441, 0.058487728238105774, 0.0025368635542690754, -0.0623229555785656, -0.029050447046756744, -0.09007684141397476, 0.09000343084335327, -0.005555160343647003, -0.0021347159054130316, 0.06580504775047302, -0.02456093579530716, -0.007250271737575531, -0.04158720001578331, 0.0280986987054348, -0.030001970008015633, 0.06954526156187057, 0.11200691759586334, -0.025081783533096313, -0.12726478278636932, -0.041707586497068405, -0.10614048689603806, -0.005153104662895203, -0.06702390313148499, 0.14186295866966248, 0.0315980538725853, -0.09058526158332825, -0.13024508953094482, 0.0374334417283535, -0.03240709379315376, 0.05638515576720238, 0.030095214024186134, -0.12177728116512299, -0.03983350470662117, 0.0640915259718895, -0.002339278580620885, -0.04138677939772606, 0.1566590666770935, 0.05877166613936424, -0.013274419121444225, 0.0694480910897255, 0.12760069966316223, 0.014892489649355412, 0.07131019979715347, -0.04355406388640404, 0.06131626293063164, 0.039838217198848724, 0.0070521775633096695, -0.09529057145118713, -0.012784000486135483, 0.07318118214607239, 0.11823428422212601, -0.06455293297767639, 0.005862997844815254, -0.14555524289608002, 0.046763718128204346, -0.03059997782111168, -0.004468424245715141, -0.07657947391271591, 0.003911948762834072, -0.019450122490525246, -0.04282671958208084, -0.038857877254486084, 0.06790780276060104, 0.008740958757698536, -0.027425657957792282, -0.11353830993175507, 0.09301895648241043, 0.036545708775520325, -0.07901362329721451, 0.04758436605334282, -0.028552791103720665, 0.0483316034078598, -0.03304336592555046, -0.11145345866680145, -0.013308325782418251, 0.010410310700535774, -0.12928016483783722, -0.06981292366981506, 0.019918296486139297, -0.06952669471502304, 0.016348719596862793, -0.03973519429564476, -0.004981770180165768, 0.02336975373327732, 0.051103148609399796, 0.04863970726728439, 0.11644753813743591, 0.033047523349523544, -0.05918515473604202, 0.07462335377931595, -0.0795910432934761, 0.07628348469734192, -0.04335829243063927, 0.06757419556379318, -0.012631782330572605, -0.07558020204305649, -0.10919585824012756, 0.04764629155397415, 0.05782267078757286], [0.014848249964416027, 0.02625247649848461, -0.058349039405584335, -0.03939522057771683, -0.022322041913866997, -0.043432559818029404, 0.04447254538536072, 0.09693557769060135, 0.021398834884166718, 0.019947366788983345, -0.09559730440378189, 0.011152217164635658, -0.08631616830825806, -0.07087570428848267, 0.02597918175160885, 0.05140029266476631, -0.04811542108654976, 0.08006587624549866, -0.041399382054805756, 0.057648610323667526, 0.10607605427503586, 0.05094580724835396, -0.03848806396126747, 0.028552936390042305, 0.0026387269608676434, -0.05335602909326553, 0.012198222801089287, 0.07168963551521301, 0.05963628366589546, 0.009162714704871178, 0.052304457873106, 0.006120615638792515, 0.020357972010970116, 0.13231325149536133, 0.0904608741402626, -0.012324322015047073, 0.010891097597777843, -0.02922310121357441, 0.010222605429589748, -0.037773679941892624, 0.13053347170352936, 0.003095832420513034, 0.011360745877027512, 0.06738779693841934, -0.005352997686713934, 0.08692588657140732, 0.017542580142617226, -0.020561059936881065, -0.01575287990272045, 0.09395302832126617, -0.11491002887487411, 0.04294450581073761, -0.03444795310497284, -0.022968824952840805, 0.041571348905563354, -0.06125747039914131, -0.08521595597267151, 0.08341415226459503, -0.022615939378738403, 0.04829416051506996, 0.08584988862276077, -0.03589087352156639, 0.013627159409224987, 0.0009064821060746908, -0.08849596232175827, 0.052401795983314514, 0.06327491998672485, 0.01091181393712759, 0.06484994292259216, -0.06408673524856567, 0.053249191492795944, 0.015699345618486404, 0.005608634557574987, -0.028595320880413055, -0.12284494936466217, -0.10721008479595184, -0.07962797582149506, -0.034274160861968994, 0.06956303864717484, 0.05217890068888664, -0.06536810100078583, -0.10005167126655579, -0.06379076093435287, 0.01415790244936943, 0.048800401389598846, 0.023973198607563972, -0.014696610160171986, -0.020899351686239243, -0.004038759041577578, 0.09959094226360321, -0.03694279119372368, -0.09995770454406738, 0.1109866350889206, 0.004403101745992899, -0.06750930845737457, 0.06255904585123062, -0.015088614076375961, -0.06452909111976624, -0.052718207240104675, 0.08442885428667068, -0.027843955904245377, 0.04467024281620979, 0.008459598757326603, -0.13561128079891205, 0.03894975781440735, 0.10579127818346024, 0.03391743823885918, 0.11188507080078125, 0.01249666791409254, 0.017394552007317543, 0.047766029834747314, -0.07668089121580124, -0.04303250461816788, 0.047937098890542984, 0.015284983441233635, -0.029714958742260933, 0.021065397188067436, -0.006449131760746241, -0.037097010761499405, 0.05300634354352951], [0.021657977253198624, -0.023989303037524223, 0.16941824555397034, -0.06837368756532669, 0.12924112379550934, 0.10809788852930069, 0.11904846876859665, -0.010342508554458618, 0.058696236461400986, 0.01383178774267435, 0.10645340383052826, -0.058067794889211655, 0.1283399909734726, -0.08843984454870224, 0.13027240335941315, 0.0073800296522676945, -0.06714624911546707, -0.03362027183175087, 0.07149013876914978, -0.057343047112226486, -0.018888069316744804, 0.010315370745956898, -0.15483714640140533, -0.06744233518838882, 0.08980966359376907, -0.08105716854333878, 0.05397441238164902, 0.07433658093214035, -0.0604969821870327, -0.014542363584041595, -0.0701659545302391, -0.03702791407704353, 0.09782090038061142, 0.08583482354879379, -0.0994170531630516, -0.11524010449647903, -0.0820174440741539, -0.10047982633113861, 0.1457502543926239, 0.07146035879850388, -0.026327475905418396, -0.0012956111459061503, 0.028534743934869766, 0.043031957000494, 0.07645178586244583, 0.1811412125825882, 0.0911392942070961, 0.15371717512607574, 0.16178996860980988, 0.10940500348806381, -0.15574105083942413, 0.07952915877103806, 0.0890459269285202, 0.08962997794151306, 0.02354707568883896, 0.050974633544683456, -0.14856554567813873, -0.010411198250949383, -0.07846968621015549, 0.046220697462558746, 0.0208272747695446, 0.02493651770055294, 0.011071172542870045, -0.08154384046792984, -0.0484006442129612, -0.044772323220968246, 0.014264028519392014, 0.044267475605010986, -0.10520119220018387, -0.020896095782518387, 0.06680811941623688, -0.040920376777648926, 0.010458700358867645, 0.05055570602416992, -0.05731472373008728, -0.044924113899469376, 0.03277726098895073, -0.035761717706918716, -0.08440496027469635, 0.03162646293640137, 0.07362087815999985, 0.0038176297675818205, 0.1654561161994934, 0.00959350448101759, -0.004195657093077898, 0.010776964947581291, 0.13017460703849792, -0.053036581724882126, 0.007785281632095575, 0.0010775149567052722, 0.005054011475294828, 0.055845800787210464, 0.024290207773447037, -0.049354054033756256, 0.16377371549606323, 0.007491850294172764, 0.08424373716115952, 0.022170817479491234, 0.05172041058540344, -0.15209919214248657, -0.05892184376716614, 0.14806829392910004, 0.025618094950914383, 0.013412495143711567, 0.057091835886240005, 0.040462493896484375, 0.06031261384487152, 0.13775081932544708, 0.045831046998500824, -0.05375417694449425, 0.03096294216811657, 0.001698362291790545, 0.0062304092571139336, -0.06953441351652145, 0.13268771767616272, -0.03874753415584564, -0.052879929542541504, 0.09372223168611526, -0.07333753257989883, -0.14315910637378693], [0.0005639159353449941, 0.10806884616613388, -0.0853499248623848, 0.004165764432400465, -0.03042435087263584, 0.1384562849998474, 0.013101986609399319, 0.10842736065387726, -0.03193173184990883, -0.05196288600564003, -0.12196341156959534, -0.022135406732559204, -0.01902889646589756, -0.007196942809969187, 0.011209779419004917, -0.1423107087612152, 0.12189555168151855, 0.09840364754199982, 0.07268429547548294, 0.09713554382324219, 0.1009749248623848, 0.13242296874523163, -0.06446566432714462, 0.0027766383718699217, -0.07791300863027573, -0.02924187108874321, 0.16678225994110107, 0.11981236189603806, -0.04723196476697922, 0.0041559305973351, -0.058125317096710205, -0.021914871409535408, 0.10926415771245956, 0.09410834312438965, -0.15101291239261627, 0.06898873299360275, -0.0528787262737751, -0.06814216077327728, -0.08894031494855881, 0.06377217918634415, -0.028214113786816597, 0.11027368903160095, 0.04396461322903633, 0.02419711835682392, -0.056505512446165085, 0.1406821459531784, 0.003061016323044896, 0.14785660803318024, -0.019373172894120216, 0.04524419456720352, -0.11420104652643204, -0.06465904414653778, 0.12295838445425034, 0.06238450109958649, -0.01793825440108776, 0.023290591314435005, -0.13370177149772644, 0.000842925684992224, 0.09814774990081787, -0.03862692043185234, 0.010865895077586174, 0.010295466519892216, -0.08537445217370987, -0.0554971769452095, -0.019630132243037224, 0.014403312467038631, -0.00011514268408063799, -0.0607876293361187, -0.09790430963039398, -0.13978399336338043, -0.12292810529470444, 0.007955161854624748, -0.009340492077171803, -0.06389693915843964, 0.0017421187367290258, -0.14010915160179138, -0.16907250881195068, -0.0196150541305542, -0.004280621185898781, -0.13841548562049866, 0.0051315100863575935, 0.04327835887670517, -0.05470752343535423, 0.02945454604923725, -0.02960178628563881, -0.03326660767197609, 0.0775204673409462, -0.04561753571033478, -0.050710950046777725, 0.08811651170253754, 0.08595719188451767, -0.02787669003009796, -0.07396754622459412, 0.03263445198535919, -0.037203285843133926, 0.019257672131061554, 0.013075720518827438, -0.00458215456455946, -0.08236049860715866, -0.009367083199322224, -0.013942417688667774, 0.08794157952070236, 0.04766671732068062, -0.013643871992826462, -0.14513786137104034, -0.046631842851638794, 0.060483064502477646, 0.00577235221862793, 0.046590838581323624, -0.00824215728789568, -0.026623889803886414, -0.11243487894535065, 0.06578706204891205, 0.007007406558841467, -0.0314880795776844, -0.14613282680511475, -0.01584244892001152, -0.10008670389652252, 0.050856880843639374, 0.07783525437116623], [0.028762899339199066, -0.11591930687427521, -0.08330780267715454, -0.003892347915098071, 0.0490032434463501, 0.05676436051726341, 0.09374497085809708, -0.018597664311528206, -0.027721136808395386, -0.06294507533311844, 0.042692992836236954, 0.06061125546693802, 0.06618199497461319, -0.14475055038928986, -0.019918963313102722, -0.1739247441291809, 0.030063873156905174, -0.1348036229610443, 0.1459837704896927, -0.13978852331638336, -0.08190540224313736, 0.01466348860412836, -0.003457834245637059, -0.07730883359909058, -0.023795567452907562, -0.037961043417453766, -0.0442197285592556, -0.06584617495536804, -0.10833004117012024, -0.16514766216278076, 0.08443037420511246, -0.020695513114333153, -0.08204419910907745, -0.07710865139961243, -0.16559870541095734, -0.13040681183338165, 0.013123979791998863, -0.003222117433324456, -0.058180101215839386, -0.017983758822083473, -0.06385243684053421, -0.10302285104990005, -0.05237280949950218, 0.017294403165578842, 0.08241192996501923, -0.002749559236690402, -0.026832208037376404, -0.03615988418459892, 0.031210312619805336, -0.02961287647485733, 0.06090708076953888, -0.09243595600128174, 0.04077146574854851, 0.12178730964660645, 0.004537559580057859, -0.05391837656497955, 0.1428452879190445, 0.1365688443183899, -0.00967307947576046, 0.050659049302339554, 0.022428052499890327, 0.12190071493387222, -0.03494304418563843, 0.0203258004039526, 0.06383313238620758, -0.05177193880081177, -0.03712642192840576, 0.009227591566741467, -0.04276236146688461, 0.01154235377907753, 0.052894167602062225, -0.014490531757473946, -0.08253355324268341, 0.10866221785545349, -0.07038848847150803, 0.06130529195070267, 0.0604044646024704, 0.13774575293064117, -0.02038819156587124, 0.09281414747238159, -0.03505473956465721, -0.006341719999909401, 0.13094303011894226, 0.0064344690181314945, -0.026173163205385208, 0.048054713755846024, 0.061323024332523346, -0.018591104075312614, 0.059922222048044205, 0.13584201037883759, -0.0019246019655838609, -0.018860023468732834, 0.07263512164354324, -0.10240371525287628, -0.0029894006438553333, 0.07543085515499115, 0.09669150412082672, -0.0029236942064017057, 0.10343810170888901, -0.10565919429063797, -0.053986839950084686, 0.13434399664402008, -0.03632782772183418, -0.10720741748809814, 0.10542773455381393, -0.018698394298553467, -0.03727250546216965, -0.021974924951791763, 0.0706394761800766, -0.07272342592477798, 0.11085044592618942, 0.04011297971010208, 0.009701660834252834, 0.030518390238285065, -0.021079568192362785, -0.03351835161447525, 0.015587760135531425, 0.11862478405237198, -0.14549024403095245, -0.0014065396972000599], [0.05229669064283371, -0.05621572956442833, 0.03994167223572731, 0.11986839771270752, -0.12339360266923904, -0.006878287065774202, -0.06507845222949982, 0.0063519589602947235, 0.03899965435266495, 0.11569200456142426, 0.020900819450616837, -0.08998624235391617, 0.003244022373110056, -0.02344638854265213, -0.09891851246356964, 0.07754043489694595, 0.0759572759270668, 0.015482574701309204, 0.02284722775220871, 0.14753593504428864, -0.08483874797821045, -0.08253899216651917, 0.015360753983259201, 0.07977386564016342, 0.03854416683316231, 0.11147180944681168, 0.019985493272542953, -0.12074512988328934, 0.011445445939898491, 0.04134687781333923, 0.0002378888166276738, -0.07375030964612961, -0.0745033398270607, 0.029034215956926346, 0.0654393881559372, 0.030925681814551353, -0.022880587726831436, -0.0032896781340241432, 0.0005724513321183622, -0.04574115574359894, 0.004145077429711819, -0.05232897773385048, 0.004967901855707169, -0.02821754850447178, 0.016850082203745842, -0.08470986038446426, 0.043999768793582916, 0.05372830852866173, 0.08497897535562515, -0.10350716859102249, 0.10641388595104218, 0.041509754955768585, 0.029276011511683464, 0.028851322829723358, -0.08081268519163132, -0.10852114856243134, -0.04521707072854042, 0.09265989065170288, -0.10936038196086884, -0.04816725477576256, -0.027185987681150436, -0.05266082286834717, 0.11396580189466476, 0.08342491090297699, 0.004058187827467918, -0.06529410928487778, 0.016158215701580048, -0.0584859773516655, -0.060047999024391174, -0.04532289505004883, 0.03571571782231331, -0.0793851986527443, 0.06205308437347412, -0.10067836940288544, 0.03268419951200485, -0.03812035918235779, 0.0069802445359528065, -0.019152211025357246, -0.04068039357662201, -0.048869356513023376, 0.003021337790414691, 0.05860856920480728, -0.11770283430814743, -0.08340838551521301, 0.042183734476566315, -0.0015637746546417475, 0.07157137989997864, -0.012968427501618862, -0.046306904405355453, -0.12855297327041626, -0.02825039066374302, 0.0868297666311264, 0.021003248170018196, -0.04919704049825668, -0.032699957489967346, -0.007212939206510782, 0.0579124353826046, 0.07915028184652328, -0.020386718213558197, 0.04476790875196457, -0.04517090693116188, -0.05567615479230881, 0.025812450796365738, 0.04875320568680763, 0.04313471540808678, 0.036886729300022125, 0.08627038449048996, -0.023332756012678146, 0.02155659720301628, 0.0016113916644826531, 0.107404924929142, -0.09702279418706894, 0.03858346492052078, 0.07758863270282745, -0.02467406541109085, -0.05192072317004204, -0.06738512217998505, -0.05360908433794975, 0.01734095811843872, 0.12427570670843124], [-0.004695682320743799, 0.025568509474396706, -0.0044859629124403, -0.15579776465892792, 0.09739506244659424, 0.04691871255636215, -0.07845521718263626, 0.020025933161377907, -0.0430028922855854, -0.15316084027290344, 0.10088017582893372, -0.027842776849865913, 0.04009629040956497, -0.012930266559123993, 0.017958229407668114, -0.02127494476735592, 0.0345630906522274, -0.06464780122041702, 0.009308907203376293, 0.09254179149866104, -0.029080355539917946, -0.08979267627000809, 0.07729603350162506, -0.011447872035205364, -0.09186241030693054, 0.06211835518479347, -0.00904626864939928, -0.10688466578722, 0.07045958936214447, -0.025993958115577698, -0.03870188817381859, 0.014379523694515228, -0.13809075951576233, -0.179428830742836, 0.06274057179689407, -0.019055472686886787, -0.008904529735445976, -0.0008589146891608834, -0.05806118994951248, 0.009989170357584953, 0.005887853913009167, -0.07574288547039032, 0.021711135283112526, -0.11205320060253143, 0.020777273923158646, -0.12868671119213104, -0.04709732159972191, 0.018229201436042786, -0.08297006040811539, -0.1059039831161499, 0.02047460339963436, 0.07766994833946228, 0.011179222725331783, 0.03809204697608948, -0.08810392022132874, -0.12413305789232254, 0.11705253273248672, 0.06220145896077156, 0.047056421637535095, 0.061670344322919846, -0.04784417152404785, -0.043918676674366, -0.023310353979468346, 0.12717841565608978, -0.00271364813670516, -0.06405270099639893, 0.0702596977353096, -0.0733659490942955, -0.011015093885362148, 0.13795191049575806, 0.040157075971364975, 0.03635276108980179, 0.02987268939614296, 0.05840228125452995, -0.056358929723501205, 0.17966964840888977, -0.04166397824883461, 0.10421852022409439, 0.08019926398992538, 0.1373268961906433, -0.08966099470853806, 0.1212959811091423, 0.09629256278276443, -0.03087681718170643, 0.005018836818635464, 0.011691517196595669, -0.036896392703056335, 0.18116463720798492, -0.012713366188108921, -0.006888088770210743, -0.08832427114248276, -0.002500431379303336, -0.10576068609952927, 0.050369370728731155, 0.02989426627755165, 0.00723171466961503, -0.05857732146978378, 0.04189269617199898, -0.0559876523911953, 0.0811823382973671, 0.02075176313519478, 0.08149229735136032, 0.0679684579372406, -0.04721040278673172, -0.07490985095500946, 0.03972812369465828, 0.10239630192518234, -0.04656853526830673, 0.008435582742094994, -0.044562406837940216, -0.1087818294763565, -0.07798539102077484, 0.11499150097370148, 0.10568531602621078, 0.03806552290916443, 0.00040001719025895, -0.09362190216779709, 0.02963491529226303, 0.046214353293180466, 0.04247007146477699], [0.04602419212460518, 0.012267551384866238, 0.07990264147520065, 0.04671405255794525, -0.036518290638923645, 0.017178168520331383, -0.046216804534196854, 0.05764948949217796, 0.14045201241970062, 0.17237862944602966, 0.004945701919496059, 0.0022539636120200157, 0.055089883506298065, -0.02230302430689335, 0.08932450413703918, 0.13068437576293945, -0.07180971652269363, 0.1157439649105072, 0.06766842305660248, -0.035307954996824265, -0.009575184434652328, 0.08877327293157578, 0.12320198118686676, 0.07856293022632599, -0.027667025104165077, 0.023926490917801857, 0.022875327616930008, 0.046052273362874985, 0.107148677110672, 0.08107323944568634, 0.0897689163684845, -0.03756385296583176, -0.07241389900445938, 0.036633700132369995, 0.152853325009346, 0.03280916064977646, -0.02416604943573475, -0.014217142947018147, -0.091706283390522, 0.06394127011299133, 0.03846348822116852, -0.008381841704249382, 0.04187275469303131, -0.0687415599822998, -0.057150572538375854, -0.07812183350324631, -0.027654165402054787, -0.022488845512270927, 0.0766894668340683, -0.05683204531669617, -0.06798815727233887, 0.08072592318058014, -0.003132781945168972, -0.09899906069040298, -0.05971785634756088, -0.02537352219223976, -0.061944328248500824, 0.028582045808434486, 0.07525374740362167, -0.0010227583115920424, -0.0010928312549367547, -0.02326716110110283, -0.04992977902293205, 0.05254322290420532, 0.130940780043602, 0.0221874862909317, -0.03564029186964035, 0.04307211935520172, -0.06551435589790344, -0.08488961309194565, 0.025223098695278168, -0.009876132011413574, -0.07099834829568863, 0.01641586795449257, 0.043830208480358124, -0.04178428649902344, 0.009684370830655098, -0.01771029643714428, 0.031163401901721954, -0.06759031862020493, -0.08446704596281052, -0.04371534660458565, 0.00567204924300313, 0.07249008864164352, 0.0009349256870336831, -0.061393313109874725, 0.04919789358973503, -0.04528529942035675, -0.09817422926425934, -0.039136625826358795, 0.04207867011427879, -0.05045289918780327, 0.005621660966426134, 0.031059592962265015, -0.11580511927604675, -0.003446258371695876, 0.015437259338796139, -0.06088683381676674, 0.05606040731072426, -0.003098453860729933, 0.033445682376623154, 0.09882824867963791, -0.06535789370536804, -0.00710064684972167, 0.048504360020160675, -0.0883014053106308, -0.003696354338899255, 0.11138512939214706, 0.09747457504272461, -0.14886848628520966, 0.03795439749956131, -0.031133603304624557, -0.005996918771415949, 0.019236844033002853, -0.07431971281766891, -0.15502876043319702, -0.042162828147411346, -0.04227793961763382, -0.07188268005847931, -0.017503678798675537], [-0.0725996121764183, -0.01320203859359026, -0.1373724639415741, -0.005042984616011381, 0.045716311782598495, 0.03013163059949875, -0.02778911590576172, 0.051738440990448, -0.08668193221092224, -0.009273359552025795, -0.14086855947971344, -0.06453371047973633, -0.014420440420508385, 0.06667739152908325, -0.11488042026758194, 0.03498784452676773, -0.10237085074186325, 0.07294907420873642, -0.10922624915838242, 0.06650744378566742, -0.06856740266084671, 0.0056030950509011745, 0.09989132732152939, 0.17587529122829437, -0.010881495662033558, -0.049303505569696426, 0.002767548430711031, 0.09471572190523148, -0.03472151979804039, 0.09981445223093033, 0.07136733084917068, -0.025883542373776436, -0.018947089090943336, 0.04439065605401993, 0.027145693078637123, 0.14713361859321594, 0.11307208985090256, 0.07490113377571106, -0.07075558602809906, 0.07519274950027466, 0.05720851942896843, 0.08724795281887054, -0.01732794940471649, 0.023946531116962433, -0.05415838584303856, 0.0576850101351738, 0.11640031635761261, 0.1437709927558899, 0.12432672828435898, -0.018727228045463562, 0.0033104990143328905, 0.044548794627189636, 0.146768718957901, 0.031879302114248276, -0.03453917056322098, 0.014871281571686268, 0.029058381915092468, -0.09113826602697372, 0.13784299790859222, -0.032789211720228195, 0.0584302693605423, -0.025640113279223442, 0.05135256052017212, 0.045813046395778656, -0.04311686009168625, -0.0648789256811142, -0.020875072106719017, -0.06473144143819809, 0.07368006557226181, -0.015259919688105583, -0.026775803416967392, -0.11014968901872635, 0.06516330689191818, -0.11183691024780273, 0.04784531518816948, -0.09487267583608627, 0.007020501885563135, -0.12690237164497375, 0.011066380888223648, 0.017263848334550858, -0.06277311593294144, 0.054831426590681076, -0.09381679445505142, 0.00840005837380886, 0.02460515685379505, -0.10859081149101257, -0.016240647062659264, -0.07231996953487396, -0.10033102333545685, -0.010137440636754036, -0.050623562186956406, -0.055259477347135544, -0.0028671922627836466, 0.07330843061208725, -0.002031298354268074, -0.04222593829035759, 0.08814652264118195, 0.05781583860516548, -0.040602512657642365, 0.10886315256357193, 0.04362255334854126, -0.12210670858621597, 0.08877454698085785, 0.05301811918616295, -0.03705457225441933, -0.034239619970321655, 0.047293853014707565, -0.022824635729193687, 0.017656806856393814, -0.029416533187031746, 0.021559832617640495, 0.028654539957642555, -0.004518919624388218, -0.05071590095758438, 0.027483521029353142, 0.06829552352428436, -0.09505267441272736, -0.05408462882041931, 0.12017837166786194, -0.010352794080972672], [0.003202671417966485, 0.027050070464611053, 0.09276918321847916, 0.02489694021642208, -0.1043587177991867, -0.10745514184236526, 0.050618160516023636, -0.006369790993630886, 0.06790024042129517, 0.14130286872386932, -0.06315907835960388, 0.01204195898026228, -0.06375624239444733, 0.13302889466285706, -0.019239339977502823, 0.022819198668003082, -0.09699101746082306, -0.022733913734555244, -0.044366803020238876, 0.15758588910102844, -0.027475910261273384, 0.0864342600107193, -0.040284883230924606, 0.030453864485025406, 0.06583426147699356, 0.11995165795087814, 0.03012002445757389, 0.054250191897153854, 0.021957844495773315, 0.04064972326159477, 0.03277313709259033, -0.0015928498469293118, -0.103231281042099, 0.0034976268652826548, 0.10717550665140152, -0.060553811490535736, 0.07090340554714203, 0.06024584174156189, -0.07786711305379868, -0.0032670351210981607, -0.03402874991297722, 0.0937267616391182, 0.004971731454133987, -0.037425920367240906, -0.07354461401700974, -0.07980658859014511, 0.06947260349988937, -0.0801602452993393, -0.04076323285698891, -0.05061639845371246, 0.0699639543890953, -0.11854904890060425, -0.1299317628145218, -0.0002474204229656607, 0.011295579373836517, -0.040237557142972946, 0.1253798007965088, 0.05344526469707489, 0.024203132838010788, -0.059218600392341614, 0.018176734447479248, -0.08457744121551514, 0.02928936667740345, 0.09740731120109558, -0.1184634417295456, -0.06821427494287491, -0.10833492130041122, -0.0034651400055736303, 0.025659611448645592, 0.10365848988294601, 0.042036984115839005, 0.06597678363323212, -0.0025142242666333914, -0.033433083444833755, 0.13774307072162628, -0.0008464530692435801, -0.06556034833192825, 0.15325835347175598, -0.06730850785970688, -0.09285084903240204, -0.06085014343261719, 0.138600155711174, -0.09594106674194336, 0.005420024506747723, 0.03556644544005394, -0.04874041676521301, -0.029309386387467384, 0.1391017585992813, 0.013437129557132721, 0.02652888558804989, 0.019032787531614304, 0.07001366466283798, -0.025044796988368034, 0.10161595046520233, 0.03788308426737785, 0.09931007772684097, 0.07953853905200958, -0.01900138147175312, -0.10744480788707733, 0.019199125468730927, 0.11719969660043716, 0.13972331583499908, 0.045764192938804626, -0.10412245988845825, 0.016613302752375603, 0.0568050742149353, 0.11393848806619644, 0.05710252374410629, 0.007982193492352962, -0.11204956471920013, -0.09029959887266159, -0.10025803744792938, 0.0721527636051178, -0.002308595459908247, 0.09023455530405045, -0.051365066319704056, -0.09623371809720993, -0.08195173740386963, -0.14871011674404144, -0.10481465607881546], [-0.07917775958776474, -0.007186688482761383, -0.03342493996024132, -0.03990160673856735, 0.06889305263757706, 0.054262418299913406, -0.06591690331697464, 0.01810983009636402, -0.10702740401029587, -0.08342603594064713, 0.07320674508810043, 0.03950676694512367, 0.02010970748960972, 0.02034531906247139, 0.06653958559036255, -0.032595664262771606, -0.04172719269990921, -0.047718968242406845, 0.030146608129143715, 0.056590840220451355, -0.007957424968481064, -0.061628181487321854, -0.014915111474692822, 0.013871638104319572, 0.046514999121427536, -0.07013542950153351, -0.04929117113351822, -0.03897134214639664, -0.004173917695879936, 0.0852421373128891, -0.09420233219861984, -0.006988569628447294, 0.026626694947481155, -0.07208579778671265, -0.024721339344978333, -0.04748939722776413, 0.0570000521838665, -0.022754084318876266, 0.07717012614011765, 0.03541802987456322, -0.06639893352985382, -0.046912822872400284, -0.05861908569931984, 0.07399893552064896, 0.047072697430849075, -0.024161426350474358, -0.08609917014837265, -0.05926012247800827, 0.049332696944475174, 0.08451487869024277, 0.03448180481791496, 0.049012184143066406, 0.023271452635526657, 0.04224269092082977, -0.015464366413652897, 0.0711718499660492, 0.03444468230009079, -0.06053668260574341, 0.07210207730531693, -0.02675541862845421, 0.04263199865818024, 0.0729118138551712, -0.04689757525920868, -0.006200450472533703, -0.03755507245659828, -0.05340078845620155, -0.010075249709188938, -0.04536345601081848, 0.01610424369573593, 0.06821208447217941, 0.044503603130578995, -0.04001042619347572, 0.0866900384426117, 0.04498111456632614, 0.0067102364264428616, -0.048180874437093735, -0.038667913526296616, -0.04545259848237038, -0.09247902780771255, 0.05347966030240059, 0.0367131307721138, -0.03080543875694275, -0.05532487481832504, 0.04016838222742081, -0.009091110900044441, 0.040296051651239395, -0.003115036990493536, -0.09141356498003006, 0.020650235936045647, 0.029800811782479286, 0.01879202574491501, 0.024338649585843086, -0.11080285161733627, -0.04147523641586304, -0.08238949626684189, -0.10418780148029327, 0.07123097777366638, 0.07987631112337112, 0.06161372363567352, -0.021060330793261528, -0.07057463377714157, 0.015086237341165543, 0.04867039620876312, -0.018705951049923897, -0.05763547122478485, 0.007844045758247375, -0.04744793102145195, -0.016048099845647812, -0.038434095680713654, 0.11288783699274063, -0.027256237342953682, -0.04500356316566467, -0.04021214693784714, 0.059973638504743576, -0.0007921847281977534, 0.1013442650437355, -0.09274580329656601, -0.058618418872356415, -0.004929938819259405, -0.07057983428239822], [-0.05523817241191864, 0.007307559717446566, -0.012448148801922798, 0.07345075160264969, 0.05202043056488037, 0.015329747460782528, -0.006968975067138672, 0.1279802769422531, -0.03882516920566559, 0.022539010271430016, 0.01853133924305439, 0.08289238810539246, 0.08022180199623108, -0.03937400504946709, -0.15411895513534546, -0.05315715819597244, 0.11653824895620346, 0.016113117337226868, -0.08533219993114471, 0.04128892719745636, -0.10367313772439957, -0.04233421012759209, 0.01579311490058899, 0.13002735376358032, 0.05728518217802048, -0.13179612159729004, -0.08022093027830124, -0.07195059210062027, 0.04134765639901161, 0.08286912739276886, 0.11857873946428299, -0.14263711869716644, 0.033812474459409714, 0.012457670643925667, -0.1319679319858551, 0.0815204605460167, 0.15869347751140594, 0.04640417546033859, -0.035985317081213, -0.012747831642627716, -0.09984458982944489, 0.022198794409632683, 0.040010932832956314, 0.036461446434259415, -0.031184932217001915, -0.03108104132115841, 0.00556413596495986, -0.003940912429243326, 0.08168286830186844, -0.09432116150856018, 0.06915013492107391, -0.08709201216697693, -0.04518961161375046, -0.010558699257671833, -0.10009440034627914, 0.011822876520454884, 0.06283053010702133, -0.06373314559459686, -0.053522851318120956, -0.1203235387802124, -0.08528787642717361, -0.03448574244976044, 0.03428417444229126, 0.026272619143128395, 0.06162256747484207, -0.0023702422622591257, -0.06231303513050079, -0.08317610621452332, -0.10535496473312378, 0.11956030875444412, 0.12441420555114746, 0.05640312284231186, -0.0617513544857502, -0.08052191883325577, 0.004244775045663118, 0.10495573282241821, 0.13716213405132294, 0.04900547116994858, 0.011365736834704876, -0.04165884852409363, -0.05457846820354462, 0.04195249825716019, 0.13984233140945435, -0.05913272872567177, 0.09949937462806702, 0.03380260989069939, -0.09238697588443756, 0.13388225436210632, 0.068368099629879, -0.017640555277466774, 0.04685783386230469, 0.02655067853629589, -0.10386645793914795, 0.14461266994476318, 0.0731251910328865, -0.01475301943719387, 0.06488485634326935, 0.05927775427699089, -0.1372387558221817, -0.08611353486776352, 0.10217607766389847, 0.04459227994084358, 0.04596569016575813, 0.09332828223705292, -0.017393004149198532, -0.010368934832513332, 0.02222543954849243, -0.14401985704898834, -0.05286559462547302, 0.11802014708518982, 0.03460565209388733, 0.08436291664838791, -0.04417961463332176, 0.008968626148998737, 0.09335194528102875, -0.03646927699446678, -0.060824766755104065, -0.11616634577512741, -0.011248582042753696, 0.047022782266139984], [0.06951501965522766, 0.004174322821199894, -0.05572403594851494, 0.021024610847234726, -0.03544735908508301, 0.01331037562340498, 0.09996919333934784, 0.10819070786237717, 0.03579198196530342, 0.06747735291719437, -0.017374835908412933, 0.06374634057283401, -0.03553449362516403, 0.029232624918222427, 0.0171048566699028, 0.0641845315694809, 0.01627572812139988, 0.017918823286890984, 0.08641095459461212, -0.09663309156894684, 0.07936345040798187, 0.04954477399587631, 0.059235088527202606, 0.09791145473718643, 0.03786812350153923, -0.045039910823106766, 0.08518604189157486, 0.05886141583323479, -0.0879487469792366, 0.05023440346121788, 0.10632450133562088, -0.06922773271799088, 0.058123040944337845, 0.10022694617509842, -0.05555904284119606, 0.018537351861596107, 0.1420295685529709, 0.04846640303730965, -0.06432202458381653, 0.12556129693984985, -0.012465164065361023, -0.13214349746704102, 0.12342161685228348, 0.11797021329402924, -0.011369786225259304, -0.039012566208839417, -0.06547140330076218, -0.12986543774604797, -0.021377088502049446, -0.00956143718212843, -0.09927436709403992, 0.06725118309259415, 0.04435155168175697, -0.15349619090557098, 0.026389189064502716, -0.04814240708947182, -0.04022520035505295, -0.10690347850322723, 0.05384858697652817, -0.16327641904354095, -0.0719766840338707, -0.0005203207838349044, 0.011088688857853413, 0.03349442780017853, -0.008355899713933468, 0.11081802099943161, -0.0909850224852562, 0.020748937502503395, -0.047650910913944244, -0.0779699981212616, 0.13954991102218628, 0.005429813638329506, 0.027587635442614555, 0.06178433820605278, -0.05502370372414589, -0.11728371679782867, 0.08399975299835205, 0.12727363407611847, 0.08188005536794662, -0.021359145641326904, 0.08996041864156723, 0.03098810277879238, 0.07844187319278717, 0.04854632914066315, 0.04569300264120102, -0.09744271636009216, 0.06914635747671127, 0.003299939213320613, 0.03271101415157318, 0.002715334529057145, 0.05081396549940109, 0.0018292026361450553, -0.006106952205300331, 0.03205835446715355, 0.07362353056669235, 0.05136056989431381, 0.046770982444286346, -0.05922370404005051, 0.021588411182165146, -0.12673649191856384, -0.09294852614402771, 0.03613085672259331, -0.029379822313785553, 0.02909170649945736, 0.0899123027920723, 0.016942232847213745, 0.036204610019922256, -0.1494179666042328, 0.04965822771191597, -0.0749838650226593, 0.060486286878585815, -0.03511428087949753, -0.08335378021001816, -0.022996805608272552, 0.03131531551480293, -0.056413110345602036, 0.07577089965343475, 0.005505973938852549, -0.05791417881846428, -0.03627666458487511], [-0.04225985333323479, 0.012523787096142769, -0.03887590765953064, -0.0806293711066246, -0.007346802856773138, 0.010819219052791595, -0.07655277848243713, -0.020250847563147545, -0.07954554259777069, 0.06820932030677795, -0.032273069024086, -0.05904234200716019, 0.0001973146281670779, -0.039749883115291595, -0.06720302253961563, 0.08451671898365021, 0.06193351373076439, 0.09335725009441376, -0.02122645266354084, 0.035936933010816574, -0.040453825145959854, 0.06340271979570389, -0.06996819376945496, 0.022567540407180786, 0.004583671223372221, 0.024396410211920738, 0.041871193796396255, 0.07992567121982574, 0.05855277553200722, 0.09203308075666428, -0.05097498372197151, -0.09464707225561142, -0.08457497507333755, 0.049366746097803116, 0.010413387790322304, 0.025687575340270996, -0.03863711282610893, -0.09369014203548431, -0.047686975449323654, -0.04644252359867096, -0.012419416569173336, -0.012490633875131607, -0.06063997372984886, 0.03393515944480896, -0.029738930985331535, 0.07857979089021683, -0.0386994406580925, 0.024507200345396996, -0.03419724106788635, 0.04487088695168495, 0.017652472481131554, -0.054207053035497665, -0.030371788889169693, -0.028804324567317963, 0.04347184672951698, 0.03282058984041214, 0.06283760070800781, -0.013121571391820908, 0.029061704874038696, -0.03267913684248924, 0.07305391132831573, 0.055024635046720505, -0.062190089374780655, 0.062292084097862244, -0.06397635489702225, 0.08893264830112457, -0.06096142530441284, -0.06030348688364029, -0.05386729910969734, -0.06155186519026756, 0.07437633723020554, 0.044769901782274246, -0.01839134842157364, 0.06226716190576553, 0.02128417044878006, -0.08204160630702972, -0.08362181484699249, -0.053108952939510345, 0.07397782057523727, 0.020258143544197083, 0.04438097029924393, 0.019384438171982765, -0.07210737466812134, -0.06822897493839264, -0.024837249889969826, 0.07890390604734421, 0.08246777951717377, 0.02610672079026699, 0.049179550260305405, -0.03238486871123314, -0.07434746623039246, 0.033196449279785156, -0.07867107540369034, -0.040970176458358765, -0.05342694744467735, 0.026456627994775772, 0.07495567202568054, -0.03153766691684723, 0.07314138859510422, 0.07411668449640274, -0.00508457887917757, 0.08557600528001785, -0.09021006524562836, 0.060168419033288956, -0.04681547358632088, -0.06532375514507294, -0.06975675374269485, -0.08138002455234528, -0.014706139452755451, -0.06968852877616882, -0.025345195084810257, 0.04596191272139549, -0.028732435777783394, -0.03789665549993515, 0.039594266563653946, 0.027028657495975494, 0.016605820506811142, 0.07751305401325226, 0.09112774580717087, 0.07791437953710556], [-0.02613346092402935, -0.05485828220844269, -0.05066973716020584, 0.01718827150762081, 0.041576653718948364, 0.009379860945045948, -0.045383285731077194, -0.0028214941266924143, -0.07951559126377106, -0.10503655672073364, 0.11575332283973694, 0.10023031383752823, -0.036305464804172516, -0.10038606822490692, 0.06707442551851273, -0.06569356471300125, 0.04901595786213875, 0.10325317829847336, 0.10578413307666779, -0.008207010105252266, 0.03660327568650246, 0.04863860085606575, -0.06190478056669235, 0.10095976293087006, -0.007227526046335697, 0.04794207587838173, -0.08759287744760513, 0.11507633328437805, 0.08878307789564133, -0.029758427292108536, -0.02354922890663147, -0.030436187982559204, 0.01765807718038559, 0.06474078446626663, -0.023623080924153328, 0.06715328246355057, 0.049875229597091675, -0.08737748861312866, -0.04749179631471634, 0.03452076390385628, -0.059374503791332245, -0.006075655110180378, 0.06891515105962753, -0.08236584812402725, -0.07425842434167862, -0.025836868211627007, 0.024614281952381134, -0.0271364264190197, -0.011640876531600952, 0.08346624672412872, -0.05458689108490944, 0.022528640925884247, -0.14509177207946777, 0.01654943823814392, 0.0895046591758728, -0.0481569804251194, -0.0735911950469017, -0.048078976571559906, -0.1324455738067627, 0.05656978487968445, -0.06775954365730286, -0.040872570127248764, -0.02433004416525364, -0.06174074113368988, -0.03509247303009033, 0.10460234433412552, 0.0881904661655426, 0.06531384587287903, -0.01380966417491436, -0.06710508465766907, -0.04054279252886772, 0.02484482154250145, 0.10543420165777206, 0.005201359745115042, 0.13666324317455292, -0.12374132871627808, 0.09518030285835266, -0.01917976140975952, 0.0829484686255455, 0.08595640957355499, 0.07251372933387756, -0.016392633318901062, -0.10955217480659485, -0.044148389250040054, 0.06991098821163177, 0.10860984772443771, -0.11646322906017303, -0.04716278985142708, 0.0010810642270371318, -0.018204523250460625, -0.040999073535203934, 0.13679762184619904, -0.10407237708568573, 0.06408268213272095, -0.05919581279158592, -0.02631695382297039, -0.0038576473016291857, 0.15830428898334503, -0.07987292855978012, -0.05674264580011368, -0.09477819502353668, -0.0739125907421112, 0.06298429518938065, 0.019690988585352898, -0.05256642401218414, -0.003338401671499014, 0.01173066534101963, 0.026383114978671074, -0.09467984735965729, 0.033457137644290924, -0.03400425612926483, -0.1061202809214592, -0.02475539594888687, 0.09430921077728271, 0.060664188116788864, 0.09977185726165771, 0.024355104193091393, 0.036649733781814575, 0.018414819613099098, -0.019793663173913956], [0.038191307336091995, -0.02532905898988247, -0.030400149524211884, 0.028176680207252502, -0.026972495019435883, 0.0004698724369518459, -0.005206132307648659, 0.055402275174856186, 0.05089336633682251, -0.06125554442405701, -0.006414133124053478, 0.06371181458234787, -0.009702134877443314, -0.05806751921772957, 0.08591336756944656, -0.07332193106412888, 0.08852647244930267, 0.08413302898406982, 0.02250612899661064, 0.01582915708422661, -0.06393488496541977, 0.05502331256866455, 0.06273110210895538, 0.07156099379062653, -0.06431763619184494, 0.06633887439966202, 0.07332743704319, 0.013298515230417252, -0.038872260600328445, -0.05785095691680908, -0.052174217998981476, -0.019148848950862885, 0.08847952634096146, -0.0715448409318924, 0.03405788168311119, -0.09628573060035706, 0.042673952877521515, -0.04200245067477226, 0.03813505545258522, -0.03374403715133667, -0.003224940737709403, 0.03134889528155327, -0.014970032498240471, -0.034060150384902954, 0.055720143020153046, 0.03581705689430237, 0.02280980721116066, 0.07121075689792633, 0.050071198493242264, -0.06212368234992027, 0.010773415677249432, 0.019041718915104866, 0.022919055074453354, 0.015398649498820305, -0.04164846986532211, -0.027042213827371597, 0.04003052040934563, -0.0011825710535049438, -0.08868778496980667, -0.08155474811792374, 0.05195074528455734, 0.05326808989048004, 0.07033577561378479, -0.08029284328222275, 0.08346489816904068, 0.06696347892284393, -0.08071079105138779, -0.016270723193883896, 0.0030852470081299543, 0.05798839405179024, 0.02707376703619957, 0.010638061910867691, 0.052849650382995605, 0.08899810910224915, 0.06526922434568405, -0.09605982899665833, 0.06059960275888443, 0.01429050974547863, -0.07796300947666168, -0.08077223598957062, 0.0038955386262387037, -0.019882144406437874, 0.08818762749433517, -0.06969702988862991, 0.033811841160058975, -0.05472744256258011, 0.008396303281188011, 0.020283641293644905, -0.07458864152431488, -0.009207076393067837, -0.09221483767032623, 0.07025974988937378, 0.01596253365278244, 0.07302488386631012, -0.07221118360757828, 0.05325084552168846, -0.050712697207927704, -0.04706960171461105, 0.03613681718707085, 0.0050575025379657745, -0.0907440036535263, -0.023499498143792152, -0.0213860422372818, -0.016369126737117767, 0.020520688965916634, -0.03576268255710602, 0.06075994297862053, 0.0715344250202179, -0.013550122268497944, -0.06703827530145645, 0.01092283520847559, 0.023714827373623848, -0.011054831556975842, 0.09654225409030914, -0.08472742140293121, -0.06789731979370117, -0.008793827146291733, 0.04854900389909744, 0.030656863003969193, 0.007337662857025862], [0.08311957865953445, -0.025040745735168457, 0.09404005110263824, -0.07755446434020996, -0.0815444067120552, -0.002538591856136918, -0.06685589253902435, -0.0501137301325798, 0.10920795798301697, 0.0686773732304573, 0.06569268554449081, -0.04857616871595383, 0.08215582370758057, -0.062146540731191635, -0.010825840756297112, 0.011325260624289513, 0.09611615538597107, -0.10028493404388428, -0.05413152649998665, -0.12789392471313477, -0.015312537550926208, 0.016502855345606804, 0.003428519004955888, -0.05777508765459061, 0.0012389363255351782, -0.11713075637817383, 0.11220669001340866, 0.08584635704755783, -0.023682618513703346, 0.06534793972969055, 0.019856106489896774, 0.027869991958141327, -0.048243265599012375, -0.01651052199304104, 0.017237475141882896, 0.06471962481737137, -0.02405213564634323, -0.03870671987533569, -0.059637464582920074, 0.0559384785592556, 0.03951120749115944, 0.07831857353448868, 0.08815694600343704, 0.04986579716205597, -0.1010052040219307, 0.07700784504413605, -0.10980822890996933, 0.011621859855949879, 0.014755761250853539, -0.05754535272717476, -0.1529681533575058, -0.04154948890209198, -0.052206847816705704, 0.08552172034978867, 0.06516110152006149, 0.053804561495780945, -0.018991218879818916, -0.10908851772546768, 0.03945307806134224, 0.06162317469716072, 0.06145185977220535, -0.06369688361883163, -0.02598865143954754, -0.08468473702669144, 0.031670548021793365, -0.031000174582004547, 0.03355599567294121, -0.10969532281160355, 0.1651846319437027, 0.028422830626368523, 0.04718313738703728, 0.036306001245975494, 0.0146934250369668, -0.07443331182003021, -0.005872809793800116, 0.0024609528481960297, 0.021827857941389084, -0.10810130089521408, 0.010886043310165405, -0.037012118846178055, -0.02909121662378311, 0.10309114307165146, -0.020580202341079712, -0.07408457249403, 0.054239220917224884, 0.11260990798473358, 0.00552710285410285, -0.022236090153455734, -0.018392547965049744, -0.05956900864839554, -0.0842917189002037, 0.037557452917099, -0.12337059527635574, 0.13493666052818298, 0.06362807005643845, -0.10490303486585617, 0.024407850578427315, 0.12352437525987625, 0.0347810760140419, 0.03988008201122284, 0.0027583474293351173, -0.06680243462324142, -0.035649821162223816, 0.039948608726263046, -0.13385505974292755, -0.007768766488879919, -0.05659731104969978, 0.053502701222896576, -0.07751365005970001, 0.1636955589056015, -0.0005174255929887295, -0.10543154925107956, 0.10690609365701675, -0.03141986206173897, -0.023940755054354668, 0.16048647463321686, -0.1086680144071579, -0.11151215434074402, 0.1209852397441864, 0.02499288320541382], [0.006280737463384867, -0.09316963702440262, 0.0064278398640453815, 0.07071055471897125, -0.045321621000766754, 0.0317731611430645, -0.07650642096996307, 0.031412821263074875, 0.052025966346263885, -0.005803192500025034, -0.024554558098316193, -0.09109505265951157, -0.05988229066133499, 0.034275978803634644, 0.0565430112183094, -0.02566215768456459, 0.022556524723768234, 0.01020849123597145, -0.07705254852771759, 0.015372374095022678, 0.059999097138643265, -0.045341599732637405, -0.050930194556713104, -0.03984232619404793, -0.012829726561903954, 0.04697469249367714, 0.07100222259759903, -0.07300270348787308, 0.05702514946460724, -0.032869063317775726, 0.021178293973207474, -0.052529726177453995, -0.014792420901358128, -0.04961888864636421, 0.057108037173748016, 0.07502345740795135, -0.046624958515167236, 0.06613331288099289, -0.03791576251387596, -0.07810359448194504, -0.05445684865117073, 0.08018457144498825, -0.06442590802907944, -0.06645052134990692, -0.06527003645896912, 0.08452574163675308, -0.03536117821931839, -0.09579852223396301, -0.02017105743288994, -0.011187929660081863, -0.023860953748226166, 0.09204599261283875, -0.07988984137773514, -0.10281223058700562, -0.05474654957652092, 0.006593556609004736, -0.049901802092790604, 0.10058852285146713, 0.07236535847187042, 0.007409002631902695, -0.00415932759642601, -0.06996765732765198, 0.031576234847307205, -0.01083458587527275, -0.09502370655536652, -0.04570324718952179, -0.018400590866804123, -0.027064593508839607, 0.06318499147891998, -0.014979057013988495, 0.07130089402198792, -0.05755339935421944, -0.02935325913131237, -0.0675235241651535, -0.06672513484954834, -0.09273722767829895, -0.023557595908641815, 0.023435065522789955, -0.0900123342871666, 0.0018313335021957755, -0.037187233567237854, -0.09590504318475723, 0.006859944202005863, -0.04430392384529114, 0.006362763233482838, -0.05458466708660126, 0.07923807203769684, 0.07653723657131195, 0.0855455994606018, -0.08165134489536285, -0.06746494770050049, 0.07406143844127655, -0.037215862423181534, -0.07006983458995819, 0.09567172080278397, -0.07960192114114761, -0.03478424251079559, -0.03932966664433479, -0.02439158968627453, 0.009601972065865993, 0.03496650606393814, 0.06557466834783554, 0.07720043510198593, -0.08469762653112411, -0.028019044548273087, 0.05272984132170677, 0.007220742758363485, 0.0005600709118880332, -0.038311704993247986, 0.0062662772834300995, -0.045442815870046616, 0.02735067717730999, 0.05132400989532471, -0.02824130654335022, -0.04144083708524704, 0.007030917331576347, -0.03709376975893974, 0.05246071517467499, 0.06381163746118546, 0.06970030069351196], [-0.012948240153491497, 0.0018862963188439608, -0.08902260661125183, 0.05366713926196098, -0.08829952031373978, -0.055420082062482834, 0.12117216736078262, 0.0019948813132941723, -0.07877498865127563, -0.08695806562900543, 0.019652653485536575, -0.06304465234279633, 0.11337639391422272, -0.06890372931957245, -0.08135459572076797, -0.08130714297294617, -0.013983060605823994, -0.05908971652388573, -0.012727909721434116, -0.02554200030863285, -0.12369557470083237, -0.03324078768491745, -0.0051922062411904335, 0.005808326415717602, 0.07834481447935104, 0.10688167810440063, -0.06699227541685104, -0.0024375237990170717, -0.05860697478055954, -0.03375586122274399, 0.050493273884058, 0.09876775741577148, 0.02997264266014099, -0.13083817064762115, -0.045113079249858856, 0.026541810482740402, 0.012842433527112007, -0.056679967790842056, 0.020445918664336205, -0.12474022805690765, -0.02598746493458748, 0.028183134272694588, -0.009545475244522095, -0.05825808271765709, 0.04404042288661003, -0.0761624351143837, -0.014905570074915886, 0.09227154403924942, 0.05149517208337784, -0.002683331025764346, 0.061833903193473816, 0.07577161490917206, -0.005803214386105537, 0.10837753862142563, 0.11846107989549637, -0.1435946375131607, 0.11054163426160812, 0.006268858443945646, 0.053126342594623566, 0.0806758850812912, -0.013980088755488396, 0.020627422258257866, 0.012011775746941566, 0.05563198775053024, -0.015623793005943298, -0.11082890629768372, 0.12507261335849762, -0.04086628928780556, 0.013142847456037998, 0.03660817816853523, 0.001978454878553748, 0.010678932070732117, 0.03636700659990311, 0.011798675172030926, -0.009400581009685993, -0.04150399565696716, -0.10479767620563507, -0.058389004319906235, -0.04893246665596962, 0.07525937259197235, -0.037632476538419724, -0.024342287331819534, -0.015660779550671577, -0.14068244397640228, 0.026858555153012276, 0.05131693556904793, 0.04267337918281555, -1.0088744602398947e-05, -0.00919564999639988, 0.04454251751303673, -0.07892792671918869, 0.07903880625963211, 0.1494077742099762, -0.0932733565568924, -0.10663103312253952, 0.00424968171864748, 0.04606790840625763, 0.11153946816921234, 0.08707272261381149, 0.023704931139945984, 0.057719528675079346, 0.07949378341436386, 0.04029290750622749, 0.09247501939535141, -0.08280829340219498, 0.017876358702778816, 0.06720391660928726, 0.02567516453564167, -0.048462916165590286, -0.091666080057621, -0.008862156420946121, -0.04839390888810158, 0.059084560722112656, 0.09377871453762054, 0.05459391325712204, -0.11612151563167572, -0.06804559379816055, -0.06726177036762238, -0.005749476607888937, -0.0032089133746922016], [0.05517756938934326, -0.1369529366493225, -0.03731878101825714, -0.0583549439907074, 0.041522372514009476, -0.08259414881467819, -0.025258833542466164, -0.012091604061424732, -0.021150564774870872, -0.08483851701021194, 0.0508422777056694, -0.05295799672603607, -0.009946472942829132, -0.08076237887144089, 0.01893206313252449, -0.006902889348566532, -0.1396460235118866, 0.01995721273124218, 0.013916444033384323, -0.03269517794251442, -0.025071725249290466, 0.10654573887586594, -0.11764075607061386, -0.006605240050703287, 0.017137235030531883, -0.013240006752312183, 0.04708059877157211, 0.06348983198404312, 0.02083910070359707, -0.07351680845022202, 0.0558759830892086, 0.009922284632921219, -0.03959077224135399, 0.035338394343853, -0.006056620739400387, -0.06083217263221741, -0.018437353894114494, -0.05639015510678291, -0.06316381692886353, -0.022846782580018044, -0.05829303339123726, -0.07273861765861511, -0.03343589976429939, -0.09380149841308594, -0.03795090317726135, -0.009631568565964699, -0.05439959838986397, -0.10895995795726776, -0.14537972211837769, 0.0209051463752985, -0.03415890410542488, 0.0759187564253807, -0.032969143241643906, 0.02118726633489132, -0.11098209768533707, 0.06250890344381332, 0.028617659583687782, -0.05201045796275139, -0.001153392600826919, -0.0008949671755544841, -0.06606733053922653, 0.12985488772392273, -0.029110882431268692, 0.012440359219908714, 0.001071403850801289, 0.07274779677391052, -0.08188371360301971, 0.027227897197008133, 0.0874330922961235, -0.027425939217209816, -0.06044469028711319, -0.03395286202430725, 0.04328036308288574, 0.06878838688135147, 0.13124290108680725, -0.07382803410291672, -0.05797950178384781, 0.1274280995130539, -0.07241453230381012, -0.07926005125045776, -0.0032465094700455666, 0.11133870482444763, 0.06805608421564102, 0.008057810366153717, 0.07639259099960327, -0.02071971446275711, -0.03789867088198662, 0.11313797533512115, 0.07069969177246094, 0.10518012195825577, 0.020557189360260963, -0.07277240604162216, 0.027966395020484924, 0.12414342164993286, 0.020112967118620872, 0.03370312228798866, 0.055272430181503296, -0.05614561587572098, 0.06882527470588684, -0.007109791040420532, -0.08924534916877747, -0.02569238282740116, -0.047764312475919724, -0.07361246645450592, 0.09470465034246445, -0.005657077766954899, 0.0032378551550209522, 0.0057178521528840065, 0.06838732212781906, 0.02594097889959812, 0.09851343929767609, 0.050907526165246964, -0.1394180804491043, -0.10609830170869827, 0.021193180233240128, 0.000345331325661391, 0.12720300257205963, 0.10658912360668182, 0.017641959711909294, -0.018576452508568764], [0.022292040288448334, -0.02782287448644638, 0.049793291836977005, -0.05007517710328102, -0.06807129830121994, 0.09046144038438797, -0.07198170572519302, -0.06148294359445572, -0.08653820306062698, 0.0037272803019732237, 0.029307734221220016, -0.09891507029533386, -0.048523541539907455, 0.0162859708070755, -0.12121326476335526, 0.0037387628108263016, -0.09813529253005981, 0.01970638521015644, -0.006076816003769636, 0.08336641639471054, 0.02813650853931904, -0.09575256705284119, -0.013150456361472607, 0.024556562304496765, -0.015183057636022568, 0.1021166667342186, -0.06680341064929962, -0.02062663435935974, -0.1838611364364624, -0.050096992403268814, -0.021364133805036545, 0.05378338322043419, -0.12227722257375717, -0.010526606813073158, -0.08102471381425858, -0.029758170247077942, -0.024777965620160103, 0.006890709046274424, 0.025180745869874954, -0.09950800240039825, 0.042755309492349625, 0.06088459864258766, -0.047563884407281876, 0.03489778935909271, -0.046898651868104935, -0.07541220635175705, 0.10374020040035248, -0.04664192348718643, 0.03016352280974388, -0.07786218076944351, 0.062450628727674484, -0.030401673167943954, 0.04418926686048508, 0.020412933081388474, -0.008581208065152168, 0.0006980425678193569, -0.007568599656224251, 0.038905028253793716, 0.018023543059825897, -0.04579170048236847, 0.06304311007261276, 0.003010156564414501, 0.12269160151481628, 0.005448827985674143, -0.15193670988082886, -0.04709983617067337, -0.046046629548072815, -0.07846906781196594, -0.011432855390012264, 0.01446372177451849, -0.0746614933013916, 0.015249552205204964, 0.05573076754808426, 0.035222847014665604, -0.06947790086269379, 0.1133660301566124, -0.12493585050106049, 0.018491849303245544, 0.04391863942146301, 0.07731780409812927, -0.12296434491872787, 0.10367210954427719, 0.07553882151842117, 0.10033413767814636, 0.022153807803988457, -0.003122089896351099, 0.005783056374639273, 0.05811694636940956, 0.06119786947965622, 0.07514176517724991, 0.08518514782190323, -0.04810722544789314, -0.12694354355335236, -0.02081378921866417, 0.006714190822094679, 0.01651855558156967, -0.036789942532777786, -0.056726183742284775, -0.04597483575344086, -0.006521940231323242, 0.14218196272850037, -0.024966558441519737, 0.00013251733616925776, -0.15841059386730194, -0.09513627737760544, 0.11817937344312668, 0.018780965358018875, 0.014586501754820347, 0.0619458369910717, -0.12457798421382904, -0.030734209343791008, -0.022197656333446503, 0.021737219765782356, -0.06172589212656021, 0.0804961770772934, -0.08045321702957153, 0.009563644416630268, 0.047023531049489975, 0.02116178721189499, -0.10644383728504181], [0.08599957823753357, -0.06677088141441345, -0.02483448013663292, 0.06445074826478958, -0.029831750318408012, 0.135896697640419, 0.04873694106936455, 0.02117673121392727, -0.0023561108391731977, 0.08774964511394501, -0.07260437309741974, 0.10759307444095612, 0.025358274579048157, 0.023827750235795975, 0.10846002399921417, 0.06489682197570801, -0.09761512279510498, -0.05395820736885071, 0.10459762066602707, 0.16279307007789612, -0.034193508327007294, -0.04350496083498001, 0.015388604253530502, -0.044076062738895416, -0.015994375571608543, 0.09396091103553772, -0.039076242595911026, -0.06009134277701378, -0.047083597630262375, -0.026620004326105118, 0.05272538214921951, -0.026632176712155342, -0.05963749438524246, 0.0188201442360878, 0.02025778964161873, 0.025315480306744576, -0.008646292611956596, -0.05766535922884941, 0.08842787146568298, -0.022264840081334114, -0.021076176315546036, 0.16051724553108215, 0.03463731333613396, -0.11972857266664505, 0.0683804377913475, -0.11215419322252274, 0.11215730756521225, 0.05981040373444557, -0.03289705887436867, -0.035603467375040054, 0.15784615278244019, 0.025393828749656677, 0.02866130881011486, 0.0963967889547348, 0.10087932646274567, -0.014326745644211769, 0.05817045643925667, 0.04266604781150818, 0.1559833288192749, -0.1053309515118599, 0.13085980713367462, -0.08151540160179138, 0.003599009942263365, 0.14301186800003052, 0.01728530041873455, -0.14546355605125427, 0.015378212556242943, -0.05621762573719025, -0.11141298711299896, -0.04055990278720856, -0.023089781403541565, -0.12806694209575653, -0.07038446515798569, 0.05930497497320175, -0.07419148832559586, -0.017909666523337364, -0.11775574088096619, 0.0012247547274455428, 0.011297361925244331, -0.14589454233646393, 0.017454665154218674, 0.009037686511874199, -0.09478116035461426, 0.028746338561177254, 0.06226837635040283, -0.06416502594947815, 0.09980066865682602, -0.007562312297523022, 0.06579175591468811, 0.11535623669624329, 0.12831377983093262, 0.004110807087272406, 0.05165359377861023, -0.15978072583675385, 0.020159270614385605, 0.12037505209445953, 0.12351622432470322, -0.10600413382053375, 0.040274523198604584, 0.04085727781057358, -0.07499236613512039, 0.003885549260303378, 0.06498042494058609, -0.11906570941209793, 0.0006998622557148337, -0.0671248733997345, 0.07668526470661163, 0.01900748535990715, 0.012825830839574337, 0.007005848456174135, -0.02282329462468624, 0.04385800659656525, -0.13978788256645203, -0.14363263547420502, 0.007374909706413746, -0.16457532346248627, -0.0492977574467659, 0.08312757313251495, -0.15874044597148895, -0.015721524134278297]], "fc1.bias": [-0.021376140415668488, 0.0666322261095047, 0.06467527151107788, -0.03949696943163872, 0.07578796148300171, -0.02622893825173378, 0.08655811846256256, 0.03133328631520271, -0.06529389321804047, -0.026616953313350677, 0.039499446749687195, -0.05251660197973251, 0.01891578547656536, 0.10053180158138275, 0.07719055563211441, 0.030835937708616257, -0.011486954987049103, -0.0641452819108963, 0.0732780396938324, -0.02508055977523327, 0.04613897204399109, 0.042628172785043716, -0.049441613256931305, -0.08416301012039185, -0.07627719640731812, 0.04794846102595329, 0.08122505992650986, 0.07715287059545517, -0.03485633060336113, -0.04519430175423622, -0.03421968221664429, 0.11946430802345276], "fc3.weight": [[0.15075650811195374, -0.14069992303848267, 0.10713629424571991, -7.37540831323713e-05, -0.23081201314926147, -0.15526345372200012, -0.011998195201158524, 0.07694323360919952, 0.06299041211605072, -0.05988426133990288, -0.02660318836569786, 0.1341572254896164, -0.03322221338748932, 0.13230599462985992, -0.2185528576374054, -0.18961641192436218, -0.00025518116308376193, 0.0519871860742569, 0.1992955356836319, -0.22360841929912567, -0.055081769824028015, -0.06897546350955963, 0.17025722563266754, -0.16087736189365387, -0.19250072538852692, -0.014966304413974285, -0.23794196546077728, -0.1449616551399231, -0.08685016632080078, 0.06394072622060776, -0.23773996531963348, -0.007197012193500996], [-0.0719175860285759, 0.004867270588874817, 0.003279084572568536, -0.08950025588274002, -0.13371792435646057, 0.08032457530498505, 0.1350298970937729, -0.09622853249311447, -0.18976499140262604, 0.07524856179952621, 0.12930980324745178, -0.04325084388256073, -0.245401069521904, -0.05884877219796181, -0.0064156376756727695, -0.006332889199256897, 0.07690180838108063, -0.03761155158281326, -0.09206728637218475, 0.07917017489671707, 0.12761247158050537, -0.11757966130971909, 0.054946351796388626, 0.16090427339076996, 0.21545852720737457, 0.138326495885849, 0.03062930516898632, 0.06401043385267258, -0.18507574498653412, 0.09515731781721115, -0.0803292766213417, -0.21911689639091492], [-0.07527080178260803, -0.16174809634685516, -0.05009977146983147, 0.17256145179271698, -0.06490416824817657, 0.025881731882691383, -0.11702682077884674, 0.10414665937423706, 0.0742146298289299, 0.09932038187980652, -0.08965905010700226, -0.04056061804294586, -0.037648364901542664, -0.15762141346931458, -0.273964524269104, 0.23509612679481506, -0.13741137087345123, -0.1613134890794754, 0.15006592869758606, -0.0436587929725647, 0.027009611949324608, -0.20436134934425354, -0.16710710525512695, 0.055387917906045914, -0.0765499621629715, 0.10989442467689514, -0.058714307844638824, 0.0830860510468483, 0.14414648711681366, 0.04383835941553116, -0.05607414245605469, 0.08563593029975891], [0.0719873234629631, 0.053368911147117615, -0.06363018602132797, -0.18620510399341583, 0.0031353505328297615, -0.17501303553581238, 0.05894789844751358, -0.132737934589386, -0.02145320177078247, 0.08033669739961624, 0.17882384359836578, 0.18061912059783936, 0.20458276569843292, 0.14813463389873505, -0.18249449133872986, 0.11130990833044052, 0.13848385214805603, 0.04684695228934288, -0.11017468571662903, -0.20935918390750885, -0.06536214798688889, -0.24752376973628998, 0.020922452211380005, -0.08602864295244217, -0.07518433779478073, 0.0037548376712948084, 0.20300401747226715, -0.07648250460624695, 0.008391402661800385, -0.1749120056629181, 0.0646367073059082, -0.14926818013191223], [0.1440882384777069, 0.12625165283679962, 0.06267138570547104, 0.18881855905056, -0.3343122601509094, -0.20222187042236328, -0.04471294954419136, -0.2316274791955948, -0.04187086597084999, 0.11159016191959381, -0.023816866800189018, -0.136370450258255, 0.11035478860139847, 0.0755152702331543, 0.008679275400936604, -0.1560840606689453, -0.09900064021348953, -0.12945282459259033, -0.08329758793115616, -0.03878941014409065, 0.06570030003786087, -0.2623027563095093, 0.006808360572904348, 0.04242144152522087, 0.016035644337534904, 0.10856369137763977, -0.1616842895746231, 0.13326221704483032, 0.0836453065276146, -0.12757094204425812, 0.1386389136314392, 0.08605177700519562], [-0.16226312518119812, -0.08538706600666046, 0.13344411551952362, -0.10207031667232513, 0.04697464033961296, -0.0404541902244091, 0.09020945429801941, -0.24192889034748077, -0.2451009750366211, -0.10081799328327179, 0.16828353703022003, -0.03262101113796234, -0.20263950526714325, -0.08436984568834305, 0.16158726811408997, -0.09466042369604111, -0.20738616585731506, -0.05731021985411644, -0.1981908082962036, -0.08454644680023193, -0.05734570696949959, -0.23688191175460815, -0.030489206314086914, -0.13782037794589996, -0.1296319216489792, -0.08836884796619415, -0.10627789050340652, -0.020073600113391876, 0.16970762610435486, -0.19082091748714447, 0.10285340249538422, 0.07234818488359451], [-0.024800308048725128, 0.09409834444522858, -0.015130466781556606, -0.03750413656234741, 0.14537106454372406, -0.22279225289821625, 0.014661603607237339, 0.10384885966777802, -0.18971626460552216, -0.043857552111148834, 0.00792494136840105, -0.059756070375442505, -0.13471151888370514, -0.21017883718013763, -0.0681726485490799, 0.04707331582903862, -0.28263622522354126, -0.2249244749546051, -0.018599679693579674, -0.2205471396446228, 0.14143876731395721, 0.011076396331191063, 0.21527180075645447, 0.07260247319936752, 0.1878701001405716, 0.014439351856708527, -0.2120330035686493, -0.033054009079933167, -0.11952933669090271, -0.20642350614070892, -0.13579843938350677, -0.17918239533901215], [0.04427124187350273, 0.005117282271385193, 0.1294742077589035, -0.03534543514251709, -0.23745766282081604, 0.11695226281881332, -0.08535963296890259, -0.06041080504655838, -0.1610797643661499, -0.0069578723050653934, 0.006676149554550648, 0.09009882062673569, 0.002807860728353262, 0.19646358489990234, -0.1941124051809311, -0.1333933025598526, 0.14960671961307526, -0.1014719009399414, 0.21331672370433807, 0.15181326866149902, 0.027483182027935982, -0.025376183912158012, -0.033058639615774155, 0.053538914769887924, -0.15120145678520203, 0.1421188861131668, 1.5741188690299168e-06, -0.09629295021295547, -0.03226792812347412, -0.13409970700740814, 0.06356006115674973, -0.1451171487569809], [0.11611439287662506, 0.04058614373207092, -0.06277981400489807, -0.15473830699920654, -0.1255064606666565, -0.16002370417118073, 0.019803887233138084, 0.10917234420776367, -0.23078244924545288, 0.11797869950532913, 0.18365813791751862, -0.2294510453939438, -0.1810217946767807, -0.1346595585346222, -0.18528003990650177, 0.15218253433704376, -0.1528223156929016, 0.08909176290035248, -0.0341310128569603, 0.1704081892967224, -0.10096199065446854, -0.004616199992597103, 0.061705123633146286, -0.12123733013868332, -0.17481528222560883, -0.1087133064866066, -0.22408318519592285, 0.052928052842617035, -0.01547219417989254, -0.16694490611553192, 0.014019905589520931, 0.12900906801223755], [0.020278222858905792, -0.09201265871524811, -0.05045730248093605, 0.18328367173671722, 0.10056575387716293, -0.1432141214609146, 0.002422897843644023, -0.15976062417030334, 0.049270134419202805, -0.08580005913972855, 0.06566526740789413, -0.19368340075016022, -0.2845034897327423, -0.1583956778049469, -0.020283615216612816, 0.11952642351388931, 0.20219911634922028, -0.2247629016637802, -0.0202980637550354, 0.08423873782157898, 0.015663163736462593, 0.0331578329205513, -0.20749081671237946, 0.09458430111408234, -0.09490726888179779, 0.034744273871183395, -0.19287492334842682, -0.10840851813554764, 0.12987229228019714, -0.004665235057473183, 0.12409277260303497, -0.08912958949804306], [-0.0555567666888237, -0.15764909982681274, 0.14657193422317505, 0.12166065722703934, -0.09214140474796295, -0.26666930317878723, -0.17494457960128784, 0.10421452671289444, -0.17824995517730713, 0.12910696864128113, -0.23608489334583282, -0.13949929177761078, -0.26283377408981323, 0.03845405578613281, 0.004838558379560709, -0.2066224366426468, -0.1285983771085739, -0.09348025172948837, 0.13920219242572784, -0.1422639638185501, 0.15514957904815674, 0.06089504435658455, 0.04209499806165695, 0.14569908380508423, 0.009762355126440525, 0.1569713056087494, 0.13422830402851105, -0.1184360533952713, 0.004404977895319462, 0.07660127431154251, -0.09684426337480545, -0.06403790414333344], [-0.10478141158819199, -0.08827309310436249, -0.12734848260879517, -0.23509910702705383, 0.021458188071846962, 0.054086148738861084, 0.17205141484737396, -0.21551966667175293, -0.02516177110373974, 0.11342901736497879, 0.05629902333021164, -0.11583865433931351, 0.10487765818834305, -0.2504633963108063, 0.042713262140750885, -0.05672779679298401, -0.1743745356798172, -0.12751011550426483, -0.21384848654270172, -0.027991963550448418, -0.13578397035598755, 0.04280861094594002, 0.1544523537158966, 0.08970405161380768, -0.21646147966384888, 0.12184368073940277, -0.307860404253006, 0.09822697192430496, -0.0535103939473629, 0.05579107999801636, -0.08154384046792984, -0.05683964118361473]], "fc3.bias": [-0.15695036947727203, 0.13537649810314178, 0.11707685887813568, -0.05860622599720955, -0.02319949120283127, -0.06109499931335449, 0.1334923803806305, -0.12304433435201645, 0.1064775288105011, -0.030228929594159126, -0.10947100073099136, 0.05817808955907822]}