{"fc1.weight": [[0.04633729159832001, -0.10127686709165573, -0.12893371284008026, 0.09870720654726028, 0.0548265315592289, 0.0030262998770922422, 0.018441520631313324, -0.09151609987020493, 0.03420042246580124, -0.006512980442494154, 0.08787834644317627, -0.02808178775012493, 0.12273746728897095, 0.0012762767728418112, 0.030171727761626244, -0.12595175206661224, 0.007169006392359734, -0.011178304441273212, 0.02964944578707218, -0.0920887216925621, -0.09953547269105911, -0.0818338394165039, 0.017468111589550972, -0.12397130578756332, 0.0733228474855423, -0.006926091853529215, -0.015262373723089695, -0.051251549273729324, 0.02708878554403782, -0.12392474710941315, -0.008961169049143791, 0.050859156996011734, 0.06799139082431793, -0.01577828824520111, -0.0941753014922142, 0.019478414207696915, 0.04524362459778786, 0.03592650964856148, -0.009255875833332539, -0.08199923485517502, -0.11798425763845444, -0.031396184116601944, -0.10380850732326508, 0.09234655648469925, 0.0919874757528305, -0.06128761172294617, -0.055032044649124146, -0.09196313470602036, -0.0628155991435051, -0.04510417580604553, 0.04976920410990715, 0.08347328007221222, 0.0209901612251997, 0.050179287791252136, 0.04482805356383324, 0.07087427377700806, 0.015713253989815712, 0.12917667627334595, -0.06308870762586594, -0.02486579306423664, -0.0650298222899437, 0.08935767412185669, 0.021733976900577545, 0.1067693680524826, 0.08454073965549469, -0.05684708431363106, 0.06970208138227463, 0.10681561380624771, -0.00785150472074747, -0.012788495048880577, 0.059867974370718, -0.05161496624350548, -0.014524167403578758, -0.042015496641397476, -0.10076596587896347, -0.003867493476718664, -0.03621421754360199, 0.0012786146253347397, 0.0484360009431839, 0.033375538885593414, -0.04583689942955971, -0.08171828091144562, 0.12911221385002136, 0.04123487323522568, 0.00033851724583655596, 0.03556866571307182, 0.024583695456385612, -0.09267854690551758, 0.04440685734152794, 0.05528295412659645, -0.07340257614850998, -0.10428295284509659, 0.07659176737070084, 0.03567655384540558, 0.04890286549925804, -0.007818954065442085, 0.000966871390119195, -0.12338393926620483, 0.051912710070610046, 0.0007464349619112909, 0.0482303649187088, -0.08036981523036957, 0.08750587701797485, -0.015029722824692726, 0.030315089970827103, 0.0691295862197876, 0.007407422177493572, 0.007312560919672251, 0.08765733987092972, -0.04906899854540825, -0.05312599986791611, 0.05723041668534279, 0.08687400817871094, 0.03252257779240608, 0.013981741853058338, -0.030099166557192802, 0.049556467682123184, 0.1415325105190277, -0.11135182529687881, 0.07218598574399948], [-0.07420215010643005, 0.07752373814582825, -0.07273642718791962, 0.006150063592940569, 0.09255646914243698, -0.014234242029488087, 0.0680084303021431, -0.07340846210718155, 0.029006538912653923, 0.01934337615966797, 0.1399507373571396, -0.06323616951704025, -0.03281513601541519, 0.049603670835494995, 0.0829019695520401, 0.10122603178024292, -0.08828361332416534, 0.0689888596534729, -0.018632782623171806, -0.06327443569898605, -0.07094576209783554, -0.05817906931042671, 0.022527875378727913, -0.05528357997536659, 0.06776385754346848, -0.13004466891288757, 0.058636173605918884, 0.09366615116596222, -0.02042289450764656, -0.01318737119436264, -0.045475274324417114, -0.06805941462516785, -0.0705157220363617, -0.01704496145248413, -0.01635599322617054, -0.04198947921395302, 0.0024258277844637632, -0.03096720390021801, -0.08267596364021301, -0.0725698173046112, 0.02849368378520012, 0.08944270759820938, -0.022889303043484688, 0.13258665800094604, -0.02362263761460781, 0.010990810580551624, -0.048178642988204956, -0.035383887588977814, 0.08279144018888474, 0.09217098355293274, -0.12134695053100586, -0.01964770443737507, 0.03021375648677349, -0.0848160833120346, 0.01533414050936699, 0.032935403287410736, -0.003727265866473317, 0.030843069776892662, -0.07005543261766434, -0.06435655057430267, 0.02191498689353466, -0.09923674166202545, 0.020474739372730255, 0.01988181285560131, 0.09921348839998245, -0.037628915160894394, -0.009789088740944862, -0.014098074287176132, -0.06212878227233887, -0.008974787779152393, 0.0735897347331047, -0.03681585192680359, -0.08662180602550507, -0.010857576504349709, -0.03179780766367912, 0.11143865436315536, 0.03804131597280502, -0.0089682936668396, -0.0026563159190118313, -0.13022971153259277, -0.12864108383655548, -0.009351875633001328, 0.08013997226953506, 0.09003347158432007, 0.032257672399282455, 0.006418672390282154, 0.015333633869886398, 0.05506832152605057, 0.03524508327245712, 0.06412936002016068, 0.039651092141866684, -0.07694187015295029, -0.06264316290616989, 0.06218419596552849, 0.11756619811058044, -0.029714083299040794, 0.05947409197688103, -0.09480959922075272, -0.060756098479032516, 0.04373743012547493, 0.013940817676484585, 0.054749663919210434, 0.03051988035440445, -0.11749856919050217, -0.025393757969141006, -0.0030795340426266193, 0.058106180280447006, 0.11511789262294769, -0.06152403727173805, -0.10525721311569214, -0.03996432200074196, 0.02566569857299328, 0.11180289089679718, 0.06041796877980232, -0.01691862940788269, -0.032674677670001984, -0.14728225767612457, -0.019071849063038826, 0.08569927513599396, -0.015850039198994637], [0.069301076233387, 0.024570384994149208, -0.07462825626134872, 0.06914979219436646, -0.08224613219499588, -0.08156970143318176, -0.08327482640743256, -0.07109954953193665, 0.0686836838722229, 0.055456191301345825, -0.007591720204800367, 0.018637679517269135, -0.07243120670318604, 0.0795360654592514, -0.055699944496154785, -0.07024427503347397, 0.03596355766057968, -0.08343275636434555, 0.06291311234235764, 0.079796701669693, 0.018681926652789116, -0.024302488192915916, 0.0588519312441349, 0.047581225633621216, -0.07169054448604584, -0.035824455320835114, 0.06524430960416794, 0.056569553911685944, -0.02157728187739849, 0.07893568277359009, 0.0687335655093193, 0.0024247244000434875, 0.029268572106957436, -0.042178913950920105, -0.036284346133470535, -0.01664106547832489, -0.044259440153837204, 0.07443100959062576, 0.02281702682375908, 0.0008670395473018289, 0.0362621434032917, 0.09007590264081955, -0.00655975891277194, -0.009863966144621372, -0.037450749427080154, -0.0777517780661583, -0.07038871943950653, -0.027815481647849083, -0.03955880552530289, -0.05690070986747742, -0.019183995202183723, 0.055689405649900436, 0.05081575736403465, -0.059638556092977524, 0.0761963427066803, -0.012129302136600018, 0.06470983475446701, 0.020176028832793236, 0.007031618617475033, -0.0071477643214166164, -0.08801916241645813, -0.04910373315215111, -0.0528094656765461, 0.06354653090238571, 0.04948641359806061, 0.011063660494983196, -0.049449216574430466, 0.06688721477985382, -0.0058504571206867695, 0.07198690623044968, 0.041783351451158524, -0.08840509504079819, 0.08237946033477783, 0.07220970839262009, 0.0682072713971138, 0.05612056702375412, -0.06685853749513626, 0.06977472454309464, -0.07773516327142715, 0.045650847256183624, 0.057212602347135544, 0.04100393131375313, 0.032514121383428574, 0.03439007326960564, 0.004448811523616314, 0.08026865124702454, -0.03069658949971199, -0.024851344525814056, -0.054867032915353775, -0.024798108264803886, -0.0490470826625824, 0.06350653618574142, 0.03989039361476898, 0.08264311403036118, -0.04408825561404228, -0.051871586591005325, -0.085264191031456, -0.04576042667031288, 0.06750261783599854, 0.0452403798699379, -0.014123551547527313, -0.006081513129174709, -0.06209488585591316, -0.0004661058774217963, -0.07857102155685425, -0.014559122733771801, 0.07368713617324829, 0.002063360530883074, 0.08132362365722656, 0.013622244819998741, 0.058438945561647415, 0.08575204014778137, 0.06476348638534546, -0.029708344489336014, -0.02697998844087124, -0.04514513909816742, -0.05518011003732681, -0.06430034339427948, -0.08988085389137268, 0.023481460288167], [-0.027300095185637474, -0.04944518208503723, -0.11633643507957458, -0.01912231370806694, 0.11589044332504272, -0.08917326480150223, -0.05962421000003815, -0.04695723578333855, -0.06397650390863419, -0.0004999805823899806, 0.12934498488903046, -0.04395633563399315, -0.08155294507741928, -0.05495525151491165, 0.061240602284669876, -0.035883188247680664, 0.03534017875790596, -0.09431172907352448, 0.03910810872912407, -0.1897035390138626, 0.10540429502725601, -0.06684896349906921, -0.09246554970741272, 0.03265562653541565, 0.025667419657111168, -0.17409095168113708, 0.04379858821630478, 0.009484926238656044, 0.02271023392677307, 0.09281522780656815, 0.045956309884786606, -0.13563133776187897, -0.030218565836548805, -0.05661171302199364, 0.045639730989933014, -0.033836256712675095, -0.08246268332004547, -0.15002958476543427, 0.0874287560582161, 0.014058108441531658, -0.06802090257406235, -0.1078043133020401, -0.10084598511457443, -0.051270194351673126, -0.09217814356088638, 0.1730242520570755, 0.0006701030069962144, -0.0921855941414833, -0.03218042105436325, 0.11119607836008072, 0.0014409933937713504, 0.10907424241304398, 0.06478670984506607, 0.011482992209494114, -0.029172617942094803, 0.05009523779153824, -0.061761677265167236, -0.046720217913389206, 0.11546351760625839, 0.024724271148443222, 0.028039537370204926, 0.05118072032928467, -0.153389111161232, 0.036591142416000366, 0.02617141604423523, 0.03253348171710968, 0.0632210522890091, -0.1461249142885208, -0.03313082829117775, -0.046683549880981445, 0.04877312481403351, 0.11088017374277115, -0.024306796491146088, -0.11278963088989258, 0.00416751392185688, -0.13317471742630005, 0.02042566053569317, 0.05548733472824097, 0.056467052549123764, -0.058790046721696854, -0.08292824029922485, -0.07537215203046799, -0.06758914142847061, -0.0310509093105793, -0.0067109907977283, -0.12021221965551376, 0.16463959217071533, -0.02543739043176174, 0.032635629177093506, -0.020391350612044334, 0.04364337772130966, -0.12019455432891846, 0.022857598960399628, -0.07640327513217926, -0.040769677609205246, -0.10242971777915955, 0.00171736313495785, -0.1060105562210083, -0.04238511994481087, -0.05589623376727104, -0.0787012055516243, -0.00415080925449729, -0.017057232558727264, -0.09636908769607544, 0.08288201689720154, 0.017198143526911736, -0.032483793795108795, -0.09110520035028458, 0.09196508675813675, 0.08815095573663712, -0.04751071706414223, 0.08170495182275772, 0.07911945134401321, 0.01812884770333767, 0.0006164186634123325, 0.006249692291021347, -0.07891897857189178, 0.16962015628814697, -0.05924999713897705, -0.09032777696847916], [0.08462642878293991, 0.02385074831545353, 0.058815330266952515, 0.07876221090555191, 0.03676904737949371, -0.017902493476867676, -0.03136903792619705, 0.025277918204665184, 0.0846991240978241, 0.05785912275314331, -0.025497853755950928, 0.11221499741077423, 0.01133144274353981, 0.0873485654592514, 0.09608680009841919, 0.12507766485214233, 0.056833188980817795, 0.054552555084228516, 0.05467600375413895, 0.10656658560037613, 0.09852201491594315, 0.023441754281520844, 0.07648247480392456, 0.10426060110330582, 0.053366463631391525, -0.07636744529008865, -0.04256691038608551, 0.046100448817014694, 0.08153036236763, 0.06211235001683235, 0.06160511076450348, 0.055049244314432144, -0.02772388979792595, 0.045198842883110046, -0.08690321445465088, -0.05090763419866562, 0.13863617181777954, -0.01582459546625614, 0.0808449536561966, -0.04470314458012581, -0.028301730751991272, -0.025046994909644127, 0.10397502779960632, -0.012500251643359661, 0.006861640606075525, -0.08844512701034546, -0.13027259707450867, -0.12977799773216248, 0.0010811627143993974, -0.013424497097730637, 0.11867677420377731, -0.04497193545103073, -0.038805313408374786, -0.1671658158302307, -0.10624720901250839, 0.12966269254684448, 0.11908259987831116, -0.06581895053386688, 0.017774831503629684, -0.09229357540607452, -0.058330513536930084, -0.03985761106014252, -0.019511185586452484, -0.11260738223791122, -0.03404053673148155, 0.04565594717860222, 0.03662042319774628, 0.02996385656297207, 0.10107828676700592, 0.06753573566675186, 0.06848665326833725, -0.005604741629213095, -0.03395632654428482, -0.08366730064153671, 0.09571535885334015, 0.056395985186100006, 0.1346372663974762, 0.01954450085759163, 0.01606237143278122, -0.07361500710248947, 0.0704343169927597, 0.05520971864461899, 0.020546767860651016, 0.16338057816028595, 0.039471302181482315, 0.010377258062362671, 0.046133752912282944, -0.01565808616578579, 0.04057787358760834, -0.06372315436601639, 0.031574562191963196, -0.04706526920199394, -0.021761875599622726, 0.12974023818969727, -0.003399695735424757, -0.019663814455270767, 0.01998015306890011, -0.0721869096159935, 0.12051330506801605, 0.08108969777822495, 0.03374219313263893, -0.0320432111620903, -0.04706078767776489, 0.07627861946821213, 0.13639123737812042, -0.08228369057178497, -0.09005843847990036, -0.09475870430469513, -0.037599656730890274, -0.09363479912281036, 0.08610618114471436, 0.016257043927907944, -0.06988264620304108, -0.1569383442401886, 0.04043512046337128, -0.022917181253433228, 0.1075931042432785, -0.021308235824108124, -0.1225823387503624, -0.035298388451337814], [0.007503756787627935, 0.10224641859531403, -0.07448099553585052, -0.03212001547217369, -0.03001008927822113, 0.005689737852662802, 0.03274679556488991, 0.1338789016008377, -0.12368560582399368, 0.04015083611011505, 0.08680761605501175, 0.04061659052968025, -0.027576910331845284, -0.031666357070207596, 0.060998398810625076, -0.009602143429219723, 0.12390885502099991, 0.013553810305893421, -0.008444089442491531, -0.09068705886602402, 6.02547952439636e-05, 0.06949592381715775, 0.1281353086233139, 0.04525837302207947, 0.06411557644605637, -0.031439561396837234, 0.08039120584726334, 0.08694891631603241, -0.0027387540321797132, 0.11412762850522995, 0.10696600377559662, -0.12582197785377502, 0.10723580420017242, -0.015751918777823448, -0.05551925301551819, 0.12574604153633118, 0.14521606266498566, -0.12233026325702667, 0.0892249047756195, 0.0225748959928751, -0.07024049013853073, 0.02718559093773365, 0.05121779069304466, 0.056519243866205215, 0.059950582683086395, 0.04848579689860344, -0.07832729816436768, -0.03092350624501705, 0.07687049359083176, -0.00031755102099850774, -0.029995664954185486, -0.000689081905875355, -0.040031157433986664, -0.00621463218703866, 0.0176320131868124, -0.08026500791311264, 0.0027043328154832125, 0.03673077002167702, 0.022702639922499657, -0.0031081647612154484, -0.03243967890739441, -0.0036215605214238167, -0.06159522756934166, 0.010688227601349354, 0.04835229739546776, 0.036826323717832565, 0.005027192644774914, -0.0960071012377739, -0.10586656630039215, -0.009404292330145836, 0.08635680377483368, 0.05923457443714142, -0.007879937998950481, -0.10575760155916214, -0.006870976183563471, -0.07002702355384827, 0.130039244890213, -0.0326668918132782, -0.050837885588407516, -0.029225479811429977, 0.06282518059015274, -0.04311607778072357, -0.019343333318829536, 0.03882920742034912, 0.026448581367731094, 0.014573984779417515, 0.02587198093533516, 0.03140121325850487, -0.010141118429601192, 0.003491166513413191, 0.0637776181101799, -0.019558502361178398, -0.00036411103792488575, -0.09010540693998337, -0.07080356776714325, 0.004081867169588804, -0.07547937333583832, 0.003918495960533619, -0.0447673536837101, -0.11012858152389526, -0.02406740002334118, -0.008190732449293137, -0.08129768073558807, -0.14456066489219666, 0.032946307212114334, -0.05773405358195305, -0.005237150937318802, 0.017087794840335846, 0.05086152255535126, -0.12562616169452667, -0.013668280094861984, -0.042524874210357666, -0.03566569462418556, -0.0007266816101036966, -0.060310401022434235, -0.11891712993383408, 0.05006120726466179, 0.04673340171575546, -0.01579054445028305, -0.06614077836275101], [-0.004938111174851656, -0.07640969008207321, -0.05458255484700203, -0.024129359051585197, -0.01234010886400938, 0.01784306764602661, 0.082289919257164, 0.007167876698076725, -0.09910090267658234, 0.0022264851722866297, 0.004050071816891432, 0.09720776230096817, 0.025003759190440178, 0.04645589366555214, -0.042827919125556946, 0.002083037281408906, -0.028547555208206177, 0.08924796432256699, 0.12401002645492554, 0.01340534258633852, -0.07310402393341064, -0.12009469419717789, -0.02086087316274643, 0.04507337883114815, 0.08571255207061768, 0.13961181044578552, -0.05340242013335228, -0.06716907024383545, -0.09059436619281769, -0.03361240401864052, 0.026190681383013725, 0.06665704399347305, 0.11017956584692001, -0.0013887380482628942, -0.029405727982521057, -0.07226800918579102, -0.013950224965810776, 0.02699904516339302, 0.05986899137496948, -0.12269159406423569, 0.1347702592611313, 0.07248988747596741, -0.015203382819890976, -0.05308835580945015, -0.0391499362885952, -0.050215523689985275, -0.03217184171080589, 0.06522058695554733, 0.01876949518918991, 0.0362347811460495, 0.13048137724399567, -0.01877720281481743, 0.08071211725473404, 0.08992896974086761, 0.09995654225349426, 0.03039427287876606, 0.023347929120063782, 0.047069668769836426, 0.019331246614456177, 0.06005178019404411, 0.0047159139066934586, -0.08050503581762314, 0.06684229522943497, 0.051862932741642, -0.13916173577308655, -0.062199030071496964, 0.009341651573777199, -0.044734466820955276, 0.04095467925071716, 0.09403227269649506, 0.01756235957145691, -0.10850503295660019, 0.042661119252443314, 0.0933181494474411, 0.07643520087003708, 0.011587089858949184, -0.034029461443424225, -0.10187643766403198, -0.042567476630210876, 0.015748122707009315, -0.03176829591393471, -0.07599268853664398, -0.07963961362838745, -0.048999983817338943, -0.036643315106630325, -0.0061470381915569305, -0.03419806808233261, 0.08933030068874359, 0.032130271196365356, -0.08632813394069672, 0.0338299386203289, 0.13248637318611145, -0.056871652603149414, 0.023982685059309006, -0.055657513439655304, -0.12456528097391129, 0.05698828026652336, 0.10714930295944214, 0.09255146235227585, 0.07434535771608353, 0.09849175810813904, -0.06203093007206917, 0.06055167689919472, 0.0656605139374733, -0.05078107491135597, -0.006099815480411053, 0.07118872553110123, 0.011887653730809689, 0.09096281975507736, 0.011690618470311165, -0.031832385808229446, -0.021386897191405296, -0.007824409753084183, 0.009114380925893784, 0.043399229645729065, -0.0005066954181529582, 0.02118603140115738, -0.028427952900528908, -0.04912985861301422, -0.018052753061056137], [0.05059599503874779, -0.15137606859207153, -0.06414271146059036, -0.1309545338153839, 0.007699023932218552, -0.13973574340343475, 0.041865747421979904, -0.1571984738111496, 0.0027311656158417463, 0.0719781145453453, 0.10193793475627899, -0.07213100790977478, -0.015928545966744423, 0.05338960886001587, -0.16497521102428436, -0.013731835409998894, 0.1508573740720749, 0.008679788559675217, -0.033607274293899536, 0.11218331754207611, -0.13287535309791565, -0.18650847673416138, 0.0758901983499527, -0.000717539747711271, 0.13406220078468323, -0.04846104606986046, 0.037059515714645386, -0.1329774707555771, -0.00578147079795599, 0.04702601581811905, 0.07920069247484207, -0.02011966146528721, -0.03368150815367699, -0.07248897105455399, 0.012765632942318916, -0.017053551971912384, 0.1003589853644371, -0.014462456107139587, -0.010291755199432373, -0.06778474152088165, 0.009876118041574955, -0.1566123068332672, 0.004300974775105715, -0.09170810133218765, 0.1827031522989273, -0.011543210595846176, -0.025959094986319542, -0.1499323695898056, 0.07102809846401215, -0.08162669837474823, 0.07538742572069168, -0.05519198998808861, -0.10620369762182236, -0.042501986026763916, -0.027113204821944237, 0.028813470155000687, 0.02290114387869835, 0.047519028186798096, 0.016151651740074158, -0.05068092420697212, -0.17677368223667145, -0.06952859461307526, 0.07152614742517471, 0.031455669552087784, -0.037199173122644424, 0.04381682351231575, -0.027607465162873268, 0.07824254035949707, 0.10582750290632248, 0.035816315561532974, 0.1393648236989975, -0.0034995859023183584, -0.03399502858519554, -0.02656298317015171, 0.003498076694086194, -0.0035115762148052454, 0.1503380686044693, 0.1263953298330307, -0.05910122022032738, -0.03595022112131119, 0.049546703696250916, 0.15276333689689636, 0.013263586908578873, 0.08774944394826889, 0.0012639887863770127, -0.01616065390408039, -0.024327149614691734, 0.04086406156420708, 0.03805071860551834, 0.07459191977977753, 0.09432146698236465, -0.04026732221245766, 0.021846190094947815, 0.07882184535264969, 0.11605867743492126, 0.04200797155499458, 0.059851694852113724, 0.05143235996365547, 0.04064614698290825, 0.10128679871559143, -0.001356478314846754, 0.03505178168416023, 0.13887271285057068, -0.023950127884745598, -0.03481333702802658, 0.10331766307353973, 0.05256183072924614, 0.06419432163238525, -0.04112682864069939, 0.026759779080748558, 0.014013940468430519, 0.0894119143486023, 0.03606683015823364, 0.06195274740457535, 0.03211973235011101, 0.0412479043006897, -0.10322190076112747, 0.09153760969638824, -0.017004581168293953, 0.000848605006467551], [-0.0036520620342344046, -0.029931090772151947, 0.06683332473039627, -0.16813363134860992, -0.01419631578028202, 0.10941298305988312, 0.06378530710935593, 0.0492733009159565, 0.15071554481983185, 0.1429046392440796, -0.08631563931703568, -0.030242791399359703, -0.036854423582553864, 0.02341572195291519, -0.036757636815309525, 0.04553581029176712, -0.11838880926370621, -0.011148154735565186, 0.0054450733587145805, -0.012730371206998825, 0.09987258911132812, 0.06676851212978363, -0.10353740304708481, -0.0888662114739418, 0.08634951710700989, 0.053611014038324356, 0.03763006255030632, 0.09599122405052185, -0.07724765688180923, -0.01927933469414711, -0.026441507041454315, 0.032049864530563354, -0.09691576659679413, 0.08440455794334412, -0.05660940334200859, -0.11507479101419449, 0.004514963366091251, 0.0580880306661129, -0.007872886024415493, 0.11854042857885361, -0.12275916337966919, -0.03967681899666786, 0.05472507327795029, 0.1078043207526207, -0.05728745460510254, -0.0868069976568222, -0.015527144074440002, -0.025404056534171104, -0.03674396127462387, 0.06742621213197708, -0.01943708397448063, -0.09794764220714569, -0.07369066029787064, -0.0038922412786632776, 0.04476740211248398, 0.11295571178197861, 0.03377147763967514, -0.09529826790094376, 0.066470205783844, -0.07505422830581665, 0.036495134234428406, -0.06286085397005081, 0.0642738789319992, -0.1052643284201622, 0.04629204049706459, 0.06847202777862549, -0.11676245182752609, -0.08707866072654724, 0.1363765448331833, -0.01933777518570423, -0.014055576175451279, 0.10119803994894028, -0.06554391235113144, 0.009404371492564678, 0.08591273427009583, 0.07822149991989136, -0.022944845259189606, 0.04484076052904129, -0.015250468626618385, 0.01586872525513172, -0.05147255212068558, 0.057690877467393875, 0.15898621082305908, 0.02846691571176052, 0.0880129411816597, -0.018992168828845024, -0.038637060672044754, 0.07735511660575867, 0.13786481320858002, 0.054679013788700104, 0.014535592868924141, 0.0043160743080079556, -0.06815177202224731, 0.05357744172215462, 0.15245293080806732, 0.20069696009159088, 0.1279006153345108, -0.031536027789115906, -0.009744729846715927, 0.10367289930582047, 0.07524432241916656, 0.021434657275676727, 0.0849824920296669, -0.039538655430078506, -0.06553498655557632, -0.007223498076200485, -0.04256322607398033, 0.002404542872682214, 0.08108441531658173, -0.012222480028867722, 0.042651403695344925, 0.09338755160570145, -0.060452669858932495, -0.07316508144140244, -0.0432157889008522, -0.03320484235882759, -0.10602204501628876, -0.007105816621333361, -0.1895095854997635, -0.0637991726398468], [-0.09934069961309433, 0.11779462546110153, 0.06265021860599518, -0.03343336284160614, -0.06973761320114136, -0.07176119089126587, -0.04990668594837189, 0.058775003999471664, -0.009261440485715866, 0.1177876815199852, 0.05231253430247307, -0.015627684071660042, -0.10223498940467834, 0.17411963641643524, 0.07394441217184067, 0.10222851485013962, -0.074290931224823, 0.034973930567502975, 0.06917548179626465, -0.010323329828679562, 0.09953440725803375, -0.012865418568253517, -0.08128601312637329, 0.14386411011219025, -0.07897819578647614, -0.08104917407035828, 0.019911641255021095, 0.08176843822002411, 0.0012581486953422427, 0.13131247460842133, 0.06968454271554947, 0.021449487656354904, 0.018487241119146347, 0.07600650936365128, 0.02582036703824997, 0.14609001576900482, 0.10725841671228409, 0.09479938447475433, -0.014633005484938622, 0.0006102878833189607, -0.09087728708982468, 0.04890407994389534, 0.017166918143630028, 0.04366910085082054, -0.030059846118092537, 0.021635567769408226, -0.02880929782986641, -0.009401344694197178, -0.04873794689774513, 0.02248395048081875, 0.02448439598083496, -0.043991319835186005, -0.01607840694487095, -0.05328572168946266, 0.006727106869220734, -0.03488663211464882, 0.04458554461598396, -0.13339963555335999, 0.10468918085098267, -0.09044057130813599, -0.038129497319459915, -0.01934688910841942, 0.05792367085814476, 0.020985085517168045, 0.03569316864013672, 0.067044198513031, 0.10764520615339279, -0.004461490083485842, -0.000650351052172482, -0.04499857872724533, -0.025970259681344032, 0.07184777408838272, 0.03840010240674019, -0.012292341329157352, -0.033995795994997025, 0.05039606988430023, -0.03699421137571335, 0.01301661692559719, -0.06489690393209457, -0.07393638044595718, -0.017362499609589577, -0.03349444642663002, -0.07771536707878113, 0.08467201888561249, 0.014011329039931297, -0.037360332906246185, -0.027816789224743843, -0.0785306766629219, -0.06028522551059723, 0.056040555238723755, 0.03492787107825279, -0.00951659120619297, -0.07468568533658981, 0.009213324636220932, -0.015137162990868092, 0.02007206529378891, 0.08773837983608246, -0.07168660312891006, 0.006938290316611528, 0.1122046634554863, 0.012118912301957607, 0.11044956743717194, -0.02071857452392578, 0.03276602178812027, -0.05823777616024017, 0.06419379264116287, -0.03315335884690285, 0.018480148166418076, -0.025908222422003746, -0.04741844907402992, 0.10002820938825607, 0.011472056619822979, 0.021850479766726494, -0.06212460622191429, 0.09660443663597107, -0.044863011687994, 0.03245077282190323, -0.059009160846471786, -0.005472170654684305, -0.16854353249073029], [-0.002116492483764887, 0.047021184116601944, -0.06341405212879181, 0.019267622381448746, -0.011912988498806953, 0.035646162927150726, 0.04954051598906517, 0.06641744077205658, 0.0845259353518486, 0.06786077469587326, -0.11873234808444977, -0.09795687347650528, 0.03446895629167557, 0.0766296237707138, 0.038731612265110016, 0.08750063925981522, -0.026551956310868263, 0.041917651891708374, -0.010481801815330982, 0.07688010483980179, -0.02975528873503208, -0.045663803815841675, -0.03183135762810707, 0.01896105334162712, 0.01402896735817194, 0.0710320919752121, 0.03963043540716171, 0.02071009948849678, -0.06297233700752258, -0.04985908418893814, -0.113444484770298, -0.03625380992889404, 0.02578323520720005, 0.05532962083816528, 0.04453708603978157, -0.03822290524840355, -0.10428300499916077, -0.037993911653757095, -0.11036785691976547, 0.07761476188898087, 0.04781392961740494, 0.024324433878064156, 0.027462128549814224, -0.05618627369403839, -0.039576563984155655, -0.09135936200618744, 0.08138594031333923, 0.14884765446186066, 0.12015920132398605, 0.08903545141220093, 0.037054937332868576, 0.03551695868372917, 0.06008132919669151, 0.14973461627960205, 0.022253796458244324, -0.03293589875102043, 0.08874143660068512, -0.0011180316796526313, 0.007688908372074366, 0.06269027292728424, 0.0648796334862709, -0.0022639709059149027, 0.04847107455134392, -0.03827957436442375, -0.04932694882154465, 0.018670115619897842, 0.018404362723231316, -0.011702040210366249, -0.02495107240974903, -0.04979372397065163, -0.0018524795304983854, -0.02089627832174301, -0.04184259846806526, -0.04594673216342926, 0.04721905291080475, -0.03889002278447151, -0.07167338579893112, -0.07200705260038376, -0.09081283956766129, -0.107281893491745, -0.06495693325996399, -0.09213132411241531, 0.06819276511669159, 0.07669630646705627, 0.03232410550117493, -0.06695093959569931, -0.06719466298818588, -0.007783202454447746, -0.06411391496658325, 0.043570421636104584, 0.041098352521657944, -0.1303282529115677, 0.029599612578749657, -0.05559796094894409, -0.0695515051484108, -0.0008169097709469497, 0.06206226348876953, -0.028267892077565193, 0.013116509653627872, 0.018633518368005753, 0.07472696900367737, 0.11289580911397934, -0.050857409834861755, -0.08825468271970749, 0.022663850337266922, -0.043229714035987854, 0.09926783293485641, -0.03751879930496216, -0.05523218214511871, -0.12340978533029556, -0.08907842636108398, 0.03060450218617916, 0.06056823581457138, -0.09697463363409042, -0.01626371406018734, -0.10974571853876114, 0.0313786156475544, 0.10772082209587097, 0.04742712900042534, -0.07654976844787598], [0.029576051980257034, -0.09482520073652267, -0.0452391691505909, -0.0943852961063385, -0.007617278024554253, -0.05971205234527588, 0.08595426380634308, -0.10657103359699249, -0.07736855745315552, -0.013593372888863087, 0.0037187510170042515, -0.09004121273756027, -0.04987054690718651, -0.026340169832110405, -0.04615689814090729, -0.049438804388046265, 0.0013675903901457787, -0.1143273115158081, 0.10564911365509033, -0.10718824714422226, 0.10047735273838043, 0.12742707133293152, -0.1007448211312294, -0.0877121314406395, 0.0794205367565155, -0.057995785027742386, 0.09849625825881958, -0.050801943987607956, -0.08024100959300995, 0.010574586689472198, -0.0384698212146759, -0.10357405990362167, 0.018563684076070786, -0.03377657011151314, -0.03729182481765747, -0.009885599836707115, -0.1125875860452652, -0.04458673670887947, 0.05281485617160797, 0.06940535455942154, -0.014858204871416092, 0.031860049813985825, 0.07710065692663193, -0.01475705299526453, -0.06682424992322922, -0.00037636153865605593, 0.12314236909151077, -0.005745395552366972, 0.020058482885360718, 0.039385393261909485, -0.07481574267148972, 0.041693903505802155, 0.06421360373497009, 0.09378694742918015, 0.0227262731641531, 0.05972116440534592, -0.1253993958234787, 0.022292859852313995, -0.03691742196679115, 0.0551484040915966, -0.013283944688737392, 0.042665865272283554, -0.14479157328605652, -0.024388693273067474, 0.041194718331098557, -0.0595395565032959, 0.01447932980954647, 0.09178154170513153, -0.004762134049087763, -0.11984947323799133, -0.11512187868356705, 0.029684919863939285, -0.08760816603899002, 0.049504492431879044, -0.021379416808485985, -0.039747919887304306, -0.04604259133338928, -0.01672659069299698, 0.02939978614449501, 0.008467775769531727, -0.12952834367752075, -0.10500849038362503, 0.0798032283782959, -0.009868516586720943, 0.031018592417240143, 0.02994566597044468, 0.09793385863304138, -0.06631460040807724, 0.041727304458618164, -0.03225323185324669, 0.07316578924655914, -0.024851741269230843, 0.10617823898792267, -0.10425832122564316, -0.048478346318006516, 0.05034785345196724, -0.04302148148417473, 0.00561144296079874, 0.040280867367982864, -0.0019022016786038876, -0.005443336442112923, 0.035895634442567825, -0.04981264844536781, -0.1420220285654068, 0.012404097244143486, 0.03484848141670227, 0.017004165798425674, 0.06608337163925171, 0.022741135209798813, -0.05408167839050293, 0.030990714207291603, 0.052811115980148315, -0.08176252245903015, -0.0711306557059288, 0.06620622426271439, 0.00010743194434326142, -0.05252906307578087, -0.037410080432891846, -0.007754452992230654, -0.10508918762207031], [0.05064058303833008, 0.02336622215807438, 0.03028399497270584, 0.16682405769824982, -0.06368143856525421, 0.03868914023041725, 0.05977391451597214, 0.12444496154785156, 0.031447310000658035, 0.0579945333302021, -0.09530528634786606, -0.08506175130605698, -0.052668508142232895, 0.02345173805952072, 0.04414430633187294, 0.0921502411365509, 0.06639879941940308, 0.054973021149635315, 0.031685635447502136, 0.06461692601442337, -0.13853174448013306, 0.06146535649895668, 0.12424519658088684, -0.030586380511522293, -0.021013274788856506, -0.07575294375419617, -0.15780331194400787, 0.013847322203218937, -0.019806208088994026, -0.030119681730866432, 0.12773001194000244, 0.11088116466999054, -0.030544130131602287, -0.019246065989136696, 0.02050625905394554, 0.06456401944160461, -0.012988210655748844, -0.025846706703305244, 0.0428885854780674, -0.12900540232658386, -0.07290229201316833, 0.010220129042863846, 0.06517576426267624, -0.0692862719297409, 0.11583665013313293, -0.08917731046676636, -0.10619248449802399, -0.10098559409379959, -0.02887614816427231, -0.1146225854754448, 0.11356940120458603, -0.0526849590241909, -0.14967118203639984, 0.03420102968811989, 0.05870654433965683, 0.003446243004873395, 0.11292057484388351, 0.14083166420459747, 0.046648137271404266, 0.014112208969891071, -0.0647776797413826, -0.07742911577224731, 0.02843722142279148, 0.15268589556217194, 0.024199385195970535, 0.010514773428440094, -0.006426239386200905, -0.026636198163032532, -0.09565285593271255, 0.12744463980197906, 0.16736626625061035, 0.030166858807206154, 0.09231569617986679, 0.0012323211412876844, -0.0776127278804779, -0.0009171889396384358, 0.06186297535896301, 0.04328981414437294, 0.15786248445510864, -0.1612672507762909, -0.13453377783298492, 0.012281233444809914, -0.04673556238412857, 0.0465259812772274, -0.031398214399814606, -0.04342956468462944, -0.06659197062253952, -0.03935950621962547, -0.019536806270480156, -0.09280824661254883, -0.021285928785800934, 0.02427895925939083, -0.009798897430300713, 0.07415132969617844, -0.05987377092242241, -0.02972262166440487, 0.07090572267770767, -0.07995744049549103, 0.005586551036685705, -0.05881546437740326, -0.01733703352510929, -0.07087958604097366, 0.02064870484173298, 0.06776547431945801, -0.01892807148396969, 0.03795582428574562, 0.06725217401981354, -0.03206059709191322, 0.0213183481246233, -0.007460782304406166, 0.03417501971125603, -0.04002548009157181, -0.028447935357689857, 0.0004973436589352787, -0.022676438093185425, 0.015761254355311394, -0.045527298003435135, -0.026869749650359154, 0.0008414373733103275, 0.08692236244678497], [0.016583507880568504, 0.029243141412734985, -0.008223038166761398, -0.02618449181318283, 0.09722324460744858, -0.0005279983161017299, -0.0027335991617292166, -0.03173607960343361, -0.06261150538921356, -0.020548587664961815, -0.03100309707224369, -0.16325733065605164, 0.030860701575875282, 0.05935969948768616, -0.02318621054291725, -0.05471773073077202, -0.13243317604064941, -0.15677189826965332, 0.10128311067819595, 0.032169159501791, -0.06934686750173569, 0.04040516912937164, -0.12943245470523834, -0.005830657202750444, -0.08109074831008911, -0.05355636775493622, 0.030602414160966873, -0.030392969027161598, -0.15555760264396667, -0.15798620879650116, 0.03563421592116356, 0.09119458496570587, 0.028124289587140083, 0.021415870636701584, -0.07329196482896805, -0.04856112226843834, -0.059319183230400085, -0.02510235086083412, -0.00033424387220293283, 0.053677622228860855, -0.06637470424175262, 0.07212547957897186, -0.07438574731349945, 0.1269901692867279, -0.06847470253705978, 0.08175045251846313, 0.03186259791254997, 0.05409455671906471, -0.11785697937011719, 0.0639304369688034, -0.09441150724887848, 0.04108966141939163, 0.07337841391563416, -0.06148729473352432, -0.14564159512519836, -0.029356954619288445, -0.015134898945689201, 0.04448440298438072, 0.058752868324518204, 0.07648370414972305, -0.0461442731320858, -0.10181158035993576, 0.04538336396217346, 0.10045389086008072, 0.10709580779075623, 0.09215056151151657, -0.04384852200746536, -0.023187672719359398, 0.09508994221687317, 0.03594052419066429, 0.031205035746097565, -0.03245281055569649, 0.006578048691153526, -0.02797112986445427, 0.057711537927389145, -0.010058614425361156, 0.04251760616898537, 0.11192633956670761, 0.07565261423587799, -0.15294857323169708, -0.08720000088214874, -0.06753326207399368, 0.002784792333841324, 0.08876459300518036, 0.05748295411467552, -0.014025216922163963, -0.026649415493011475, 0.027618955820798874, -0.09941434115171432, 0.030399205163121223, 0.042426276952028275, -0.04435613751411438, -0.008065859787166119, 0.02540619671344757, -0.036092422902584076, 0.058618925511837006, -0.039468880742788315, -0.17665545642375946, -0.15526136755943298, -0.011604180559515953, -0.04911297932267189, 0.1214880719780922, -0.03229447081685066, -0.12516847252845764, -0.03016655147075653, 0.015041403472423553, 0.05770046263933182, 0.14428669214248657, 0.11703301221132278, -0.10227180272340775, -0.04495137557387352, -0.006001377943903208, -0.1074410229921341, -0.04071517661213875, -0.06545441597700119, -0.042703744024038315, 0.03462132811546326, 0.054465401917696, -0.015623987652361393, -0.14625811576843262], [0.026103556156158447, -0.012145494110882282, 0.01584821566939354, 0.0006911408854648471, -0.059199441224336624, 0.00985038187354803, -0.037941284477710724, -0.08570653945207596, 0.05020022392272949, -0.042999397963285446, 0.05522671714425087, -0.0005200621671974659, 0.0037463789340108633, -0.012364068999886513, -0.05271466076374054, -0.06514934450387955, -0.0662754476070404, 0.0345788411796093, -0.07935556769371033, -0.02001768723130226, 0.014072185382246971, -0.041653022170066833, -0.07929728180170059, 0.040516071021556854, -0.011181063018739223, -0.05809354782104492, -0.0922003835439682, 0.043777476996183395, 0.024610182270407677, 0.03496582806110382, -0.02447589859366417, 0.11112163960933685, -0.02577073685824871, -0.025064930319786072, 0.0488167405128479, 0.022622011601924896, 0.06053381785750389, 0.11257442086935043, -0.05845518037676811, 0.019814765080809593, 0.07943616062402725, 0.07308430224657059, 0.03640501946210861, 0.040366221219301224, 0.014609821140766144, -0.059981901198625565, 0.06051100417971611, 0.08428797870874405, -0.0619630366563797, -0.1079043596982956, -0.00985968578606844, 0.047499675303697586, 0.09109518676996231, 0.06796817481517792, -0.02497696503996849, 0.029107311740517616, 0.03099498525261879, -0.0645855963230133, -0.07582630962133408, 0.009998699650168419, -0.050971612334251404, -0.019405242055654526, 0.1362375169992447, 0.05322174355387688, 0.04691813886165619, -0.059714507311582565, 0.0702134370803833, 0.07932133227586746, 0.08085589855909348, 0.052281565964221954, -0.05038266256451607, -0.01622839644551277, 0.018953736871480942, 0.09421535581350327, -0.11025962233543396, 0.06348077952861786, -0.017527097836136818, -0.005994613282382488, 0.01652303896844387, 0.053403668105602264, -0.04769835248589516, 0.07416888326406479, 0.0557919405400753, 0.034707628190517426, 0.05844815820455551, 0.09797871112823486, 0.038353126496076584, -0.06592606753110886, -0.06132522225379944, 0.07737994939088821, -0.010970311239361763, -0.04101910442113876, -0.0690252035856247, -0.008780642412602901, 0.02693410962820053, 0.0030961669981479645, -0.06662300229072571, 0.010977234691381454, -0.018925772979855537, -0.004964729771018028, 0.046692121773958206, 0.03683571517467499, -0.06963564455509186, -0.04424167424440384, -0.021352116018533707, 0.011690955609083176, 0.0013475220184773207, 0.09476276487112045, -0.04558310657739639, 0.0238282959908247, 0.016057461500167847, 0.0637013167142868, -0.0993720293045044, -0.031555626541376114, -0.027282550930976868, -0.0660562664270401, 0.029629047960042953, -0.023845361545681953, -0.039823900908231735, 0.045879583805799484], [0.0017653246177360415, 0.10239749401807785, 0.024940215051174164, -0.04543111100792885, 0.04847399890422821, 0.01908978819847107, -0.06957262754440308, -0.07083973288536072, -0.08526486158370972, 0.04659087955951691, 0.004463315941393375, 0.11613336205482483, -0.04154655709862709, -0.06461535394191742, 0.04931923747062683, 0.034225836396217346, -0.055966101586818695, -0.028359893709421158, 0.09460961818695068, 0.024737199768424034, -0.10026097297668457, -0.07702391594648361, 0.0518629290163517, -0.012751386500895023, -0.014041195623576641, 0.04053441435098648, -0.03485625982284546, 0.0020244650077074766, -0.045009419322013855, -0.08325418829917908, 0.005469177383929491, -0.011428480967879295, 0.025267940014600754, -0.12611818313598633, -0.040406953543424606, -0.09380245208740234, 0.06813441216945648, 0.03692323714494705, -0.046572696417570114, -0.151222363114357, 0.05179689824581146, -0.04753441736102104, -0.028088953346014023, 0.0019916286692023277, -0.013125594705343246, -0.09286349266767502, -0.03221922367811203, 0.005922077223658562, 0.048557575792074203, -0.030208824202418327, 0.14577791094779968, 0.0215506162494421, -0.04856862127780914, 0.006790090352296829, -0.01901431754231453, -0.08582839369773865, 0.10058292746543884, 0.11629566550254822, 0.057631976902484894, 0.04644688218832016, -0.027671514078974724, 0.010161763057112694, 0.07487378269433975, 0.11914850771427155, 0.034122534096241, 0.03987818956375122, 0.014791055582463741, -0.05441228300333023, -0.038759876042604446, 0.12774842977523804, 0.04656645655632019, 0.01942942850291729, 0.0005485955043695867, 0.040707238018512726, -0.0425509512424469, -0.028380006551742554, -0.08045285940170288, 0.026721281930804253, 0.0863775983452797, 0.11882612854242325, -0.01646515540778637, 0.06766502559185028, 0.07772450149059296, 0.014091500081121922, -0.052653245627880096, -0.04989408329129219, -0.08928722888231277, 0.05571204423904419, 0.09998364001512527, 0.020037995651364326, -0.008190346881747246, 0.02780165709555149, 0.03163694962859154, 0.06289133429527283, 0.020584816113114357, -0.07322575896978378, -0.003269616514444351, -0.060172609984874725, -0.10012947767972946, 0.03647301718592644, 0.09944465756416321, -0.03875492513179779, 0.048317644745111465, -0.02361161634325981, -0.006555208005011082, -0.07001353055238724, -0.04456794634461403, -0.058038223534822464, -0.03301694244146347, 0.04578647017478943, -0.07089833915233612, 0.03365175798535347, 0.04742306098341942, -0.011292999610304832, -0.019246716052293777, -0.01826351508498192, 0.008917717263102531, 0.021875804290175438, 0.11778842657804489, 0.1267062872648239], [0.1089911237359047, -0.085069939494133, -0.03144314885139465, -0.04148684814572334, 0.11851602047681808, 0.09864059090614319, -0.03493720293045044, -0.0707743912935257, -0.11128605157136917, -0.046907227486371994, 0.08052832633256912, 0.05079857259988785, 0.08991991728544235, 0.01566355675458908, 0.03735240548849106, -0.04802623391151428, 0.06158454716205597, 0.08290239423513412, 0.023063456639647484, 0.012712806463241577, 0.05010206252336502, 0.009980950504541397, 0.058406852185726166, 0.056227169930934906, -0.005704079754650593, -0.02010207064449787, 0.11692402511835098, -0.0545215979218483, -0.002571412129327655, 0.027409320697188377, 0.05401782691478729, -0.11881227046251297, 0.004801142495125532, -0.026546433568000793, -0.10549429059028625, -0.050215501338243484, -0.05157753452658653, 0.026640230789780617, -0.0015495120314881206, 0.051482945680618286, -0.13833007216453552, -0.1362169235944748, 0.022728586569428444, 0.1243547722697258, 0.008227524347603321, -0.001305150450207293, -0.10121336579322815, -0.04153084754943848, -0.0667211040854454, -0.0055296411737799644, 0.06457484513521194, -0.0905645489692688, 0.017461640760302544, -0.09447480738162994, -0.019680988043546677, 0.11779003590345383, -0.01732194423675537, 0.029996288940310478, 0.008932388387620449, 0.042622946202754974, 0.07588747888803482, -0.0011698585003614426, -0.10274738818407059, 0.04678421467542648, -0.001002496457658708, 0.01169735100120306, -0.010919158346951008, -0.008379981853067875, -0.02417774312198162, 0.02353758178651333, 0.11004499346017838, 0.022269511595368385, 0.06241382285952568, 0.07183772325515747, 0.018447143957018852, -0.05385340750217438, 0.025644607841968536, 0.09020727872848511, 0.06455815583467484, 0.023413285613059998, 0.08275091648101807, -0.03157816827297211, 0.10312312841415405, 0.06170845031738281, 0.09122519940137863, 0.025629118084907532, 0.11476930230855942, -0.06372841447591782, 0.038122836500406265, -0.01618766598403454, 0.055543676018714905, -0.0421389676630497, 0.11010290682315826, -0.10903844237327576, -0.10941101610660553, -0.037707120180130005, 0.08341024816036224, -0.12534932792186737, 0.04452743008732796, -0.05439786612987518, -0.015813549980521202, -0.006220827344805002, 0.08615274727344513, -0.0032238473650068045, 0.01637009158730507, 0.0034408895298838615, -0.08203490078449249, -0.13901449739933014, -0.029340488836169243, 0.061983268707990646, 0.132229745388031, -0.037590913474559784, 0.014052043668925762, -0.10079161077737808, -0.03446703031659126, 0.019776372238993645, 0.14212898910045624, 0.12696363031864166, 0.05190588906407356, -0.10477429628372192], [0.028536127880215645, -0.05483301356434822, 0.07535143941640854, 0.019581230357289314, -0.0797557458281517, 0.05677501857280731, 0.058403268456459045, -0.06636226922273636, 0.05408091843128204, -0.02164253406226635, 0.06784079223871231, 0.05655452236533165, -0.05690477415919304, 0.03577533736824989, 0.04114653170108795, 0.12030687928199768, -0.09619492292404175, -0.09319433569908142, -0.03699447214603424, -0.00419941870495677, 0.10532103478908539, 0.14608249068260193, -0.03709809482097626, -0.02555098943412304, 0.0633171796798706, -0.10129547119140625, 0.14812332391738892, 0.10129298269748688, 0.005665024276822805, -0.011944739148020744, 0.0016011166153475642, -0.10093699395656586, -0.004269818309694529, 0.08170890063047409, -0.11780072003602982, 0.018866321071982384, -0.024711906909942627, -0.0672263652086258, 0.05158642306923866, 0.08046521991491318, -0.011105562560260296, -0.0342845618724823, -0.06263233721256256, -0.026164675131440163, 0.0077730705961585045, 0.02919788658618927, 0.07306602597236633, -0.07200748473405838, -0.07742432504892349, 0.027590928599238396, -0.04258931428194046, 0.05374272167682648, -0.006302193272858858, 0.0488537959754467, -0.018351051956415176, 0.028315318748354912, 0.030588097870349884, -0.10696490854024887, -0.08300574868917465, 0.015941303223371506, 0.00952099822461605, -0.0015880437567830086, -0.06434208899736404, -0.03825089707970619, -0.04392401501536369, -0.06265250593423843, -0.006601032335311174, 0.0027866223827004433, 0.07373994588851929, -0.09326452016830444, 0.05262502282857895, -0.01444267202168703, -0.02837427332997322, -0.04316137731075287, 0.12271180748939514, -0.06379350274801254, 0.04898079112172127, 0.017545640468597412, 0.05205728858709335, -0.01938553899526596, 0.08830580115318298, -0.03764496371150017, 0.02064409665763378, 0.11041946709156036, 0.06511654704809189, -0.03160546347498894, 0.011288516223430634, -0.019938062876462936, 0.028610842302441597, 0.09290564060211182, -0.05538513511419296, 0.1009950190782547, 0.03240090608596802, 0.03582025691866875, -0.007028590422123671, 0.1538068950176239, 0.06963780522346497, -0.04898328706622124, 0.10230232775211334, -0.026211325079202652, -0.02790648117661476, -0.019803067669272423, 0.01238337904214859, -0.008716351352632046, 0.12274619191884995, 0.016113262623548508, -0.09107938408851624, 0.1522374153137207, 0.08040864020586014, -0.08804673701524734, 0.07826346158981323, 0.007686137687414885, -0.00310892122797668, -0.046300023794174194, 0.06372924894094467, -0.04734988510608673, 0.05908244848251343, -0.021119263023138046, -0.010619060136377811, 0.02472262643277645], [0.004437498282641172, -0.03582654520869255, 0.01405283622443676, -0.010626956820487976, 0.0549679659307003, 0.04353971406817436, -0.011399129405617714, 0.03870301693677902, -0.08613777905702591, -0.011345320381224155, 0.14519003033638, 0.04844173416495323, -0.0035308937076479197, -0.0071358392015099525, 0.024736391380429268, -0.02417077124118805, 0.05692489072680473, 0.003700097557157278, -0.021712051704525948, -0.1342562884092331, -0.07313036173582077, 0.012076579965651035, 0.048905324190855026, 0.15507307648658752, -0.05939183756709099, -0.0598786361515522, -0.002423472935333848, 0.039386454969644547, 0.003378054825589061, 0.10518692433834076, 0.005860958714038134, -0.09208505600690842, -0.10548326373100281, 0.1063685342669487, 0.02495872788131237, 0.0739692822098732, -0.022162655368447304, 0.04396272078156471, -0.019379997625947, -0.061028193682432175, -0.040139634162187576, 0.09967614710330963, 0.07866564393043518, -0.11652965843677521, -0.015375275164842606, 0.03743038326501846, -0.0062023657374084, -0.0247616209089756, 0.022893408313393593, -0.14338204264640808, 0.02724331244826317, -0.10454335063695908, 0.09852566570043564, 0.07995077222585678, -0.047530099749565125, -0.054772503674030304, -0.01615053601562977, -0.06273306906223297, -0.005463351029902697, -0.041111793369054794, 0.021372243762016296, -0.013917838223278522, 0.03764498978853226, -0.06428387016057968, 0.015656812116503716, -0.059868521988391876, 0.12778127193450928, 0.018104910850524902, 0.08468017727136612, 0.02404821664094925, -0.08694513142108917, -0.09264115989208221, 0.1354512721300125, -0.08715395629405975, -0.01760553941130638, 0.10470137000083923, 0.060870882123708725, -0.14127710461616516, -0.025061780586838722, -0.056460775434970856, -0.04067475348711014, 0.05173753947019577, -0.08554159849882126, -0.15212489664554596, 0.045962944626808167, 0.12282193452119827, -0.10884223878383636, -0.04301173612475395, 0.017965318635106087, -0.030557023361325264, 0.03178441897034645, 0.11812877655029297, -0.11457459628582001, 0.003975825384259224, -0.04726013168692589, -0.1389128863811493, -0.10100237280130386, 0.04914208501577377, -0.10150820761919022, 0.03895942494273186, -0.01985195092856884, -0.13582926988601685, -0.007848156616091728, 0.03635657951235771, -0.06392461806535721, -0.05434790253639221, -0.02706104703247547, -0.04890172928571701, 0.02666904404759407, 0.07391046732664108, -0.06447713822126389, 0.025757016614079475, 0.10108842700719833, -0.07922859489917755, 0.06715797632932663, 0.11359145492315292, -0.020819809287786484, -0.015074203722178936, 0.12999622523784637, 0.035935208201408386], [0.06268661469221115, -0.004259996581822634, 0.15513703227043152, 0.02052985318005085, -0.009542981162667274, -0.0856667011976242, -0.07025767862796783, 0.07925188541412354, 0.027182096615433693, 0.05457274615764618, -0.008905665948987007, -0.13072426617145538, 0.018731752410531044, -0.060764070600271225, 0.1110345721244812, 0.05474727973341942, -0.06603805720806122, -0.04620281979441643, 0.045506782829761505, 0.0010851097758859396, 0.10465240478515625, 0.08911199867725372, -0.03963984549045563, -0.0448564738035202, -0.03072742000222206, -0.06470894068479538, 0.0869835838675499, 0.01061753649264574, 0.018619559705257416, 0.023184005171060562, 0.02780323289334774, 0.0995972752571106, -0.0020206510089337826, 0.08594267070293427, 0.009699061512947083, -0.0006793599459342659, -0.003053434658795595, 0.1399986892938614, 0.0015515488339588046, -0.11686151474714279, 0.0040542958304286, -0.13334724307060242, 0.05629698932170868, 0.13814209401607513, -0.11377109587192535, -0.08431238681077957, -0.14000257849693298, -0.04404674842953682, 0.08567846566438675, 0.08024325966835022, 0.054617125540971756, 0.01432476844638586, -0.07125528156757355, -0.022769803181290627, 0.039727430790662766, -0.006316539831459522, -0.05330262705683708, 0.004049936309456825, -0.07499851286411285, -0.020679570734500885, 0.02314777299761772, -0.09019690006971359, 0.11266161501407623, 0.04487844556570053, -0.03153514862060547, 0.06374844163656235, -0.052395012229681015, -0.1251879185438156, 0.07438069581985474, 0.08997753262519836, 0.10854779928922653, 0.08966971933841705, -0.08619561791419983, -0.017288299277424812, 0.05037788301706314, 0.07739859819412231, 0.00651487335562706, 0.15046168863773346, -0.052786391228437424, -0.09521032124757767, 0.07493414729833603, 0.03866345062851906, -0.10499782860279083, 0.07556381076574326, -0.03727971762418747, -0.044749002903699875, -0.01433770451694727, 0.056623268872499466, -0.06420481204986572, -0.015318891033530235, 0.06255016475915909, 0.05236910283565521, -0.10000069439411163, 0.09517904371023178, 0.07148288935422897, -0.027043906971812248, -0.024837829172611237, -0.11606822162866592, -0.05454780533909798, 0.16107508540153503, 0.049180589616298676, 0.11945987492799759, -0.011752908118069172, -0.12330377101898193, 0.025554919615387917, 0.09438499063253403, -0.04068088158965111, 0.10762859135866165, -0.010380910709500313, -0.10633577406406403, -0.05173178389668465, 0.04804939031600952, -0.02576611563563347, 0.05385793745517731, 0.0495663546025753, -0.012593590654432774, 0.027812067419290543, 0.01639653369784355, -0.038379423320293427, -0.06224903091788292], [0.059567905962467194, -0.018562108278274536, 0.043106406927108765, 0.09436417371034622, -0.06954891979694366, 0.0064665814861655235, 0.08924881368875504, -0.06139111891388893, 0.04441395774483681, -0.04269206151366234, -0.02571246027946472, -0.022912919521331787, -0.03474221006035805, 0.0052165742963552475, -0.10786261409521103, -0.06558213382959366, -0.014227310195565224, -0.01491518784314394, 0.11987513303756714, 0.0020513786002993584, -0.09853918850421906, -0.042898088693618774, 0.04025546833872795, 0.02307010069489479, 0.05527448654174805, 0.10058391094207764, -0.05505604296922684, -0.06467953324317932, -0.03478604927659035, 0.037352219223976135, -0.06784886121749878, -0.030663151293992996, 0.01749156415462494, -0.1398114114999771, 0.08528624475002289, -0.05526724457740784, 0.007437604945152998, -0.17018727958202362, -0.006399413105100393, -0.1373666524887085, 0.13618242740631104, 0.03223888576030731, 0.0075685749761760235, -0.16454502940177917, 0.009257055819034576, -0.012261249125003815, -0.0017167532350867987, 0.08083505928516388, 0.031995099037885666, -0.010945446789264679, 0.13635200262069702, 0.009467420168220997, 0.0029600041452795267, 0.026305947452783585, 0.12175789475440979, -0.14235225319862366, 0.11196975409984589, 0.1552402228116989, -0.10183347761631012, -0.007454484701156616, -0.011620120145380497, -0.08728983253240585, -0.016675826162099838, 0.09728708118200302, -0.05402893200516701, -0.03956957533955574, -0.015141787938773632, -0.08386746048927307, 0.01980406977236271, 0.0419180691242218, -0.09001024812459946, -0.07283569127321243, -0.0045270174741744995, 0.042366523295640945, 0.03289325535297394, 0.10031774640083313, -0.00858750194311142, -0.14822044968605042, -0.0485709048807621, 0.0836847573518753, -0.0907169058918953, 0.08971194177865982, -0.010544934310019016, -0.012451021000742912, 0.050934143364429474, 0.03159676492214203, -0.12757711112499237, 0.0013898371253162622, -0.048757027834653854, 0.13094758987426758, -0.022698204964399338, -0.03316774219274521, -0.13452306389808655, 0.05614447593688965, 0.058099739253520966, 0.005817967001348734, 0.07191445678472519, 0.01592962071299553, -0.11708704382181168, 0.08088669180870056, 0.050012197345495224, 0.07737645506858826, -0.024412138387560844, 0.01256019901484251, -0.10876400023698807, -0.005592366214841604, 0.10341321676969528, -0.014458908699452877, 0.006858442910015583, -0.02143380045890808, -0.14986971020698547, -0.06272055953741074, -0.051060959696769714, -0.07287982106208801, 0.1309855729341507, -0.10342284291982651, 0.00797009002417326, -0.03551220893859863, 0.05996910482645035, -0.0007893761503510177], [-0.035606592893600464, 0.07437106221914291, -0.034755393862724304, 0.001622786745429039, 0.15935540199279785, -0.011259776540100574, -0.01757354661822319, 0.13417871296405792, -0.07895037531852722, 0.07087200880050659, 0.08426490426063538, -0.009305300191044807, 0.005014129914343357, 0.1572231948375702, -0.0775337889790535, -0.05448652058839798, 0.04863792657852173, 0.15398110449314117, -0.0023236609995365143, -0.08355490863323212, 0.13319681584835052, 0.028474871069192886, 0.019465278834104538, 0.10069796442985535, 0.09643445909023285, -0.1511874794960022, 0.055823780596256256, 0.09362936019897461, -0.03533533588051796, 0.1718716323375702, 0.0532430037856102, 0.021554652601480484, -0.06643296033143997, 0.16061614453792572, 0.07741523534059525, 0.11983691155910492, 0.002859678352251649, 0.009064857847988605, -0.08233972638845444, 0.1534879207611084, -0.06106278672814369, -0.03189392387866974, 0.08457651734352112, -0.05686035752296448, 0.0029563314747065306, 0.04018291085958481, -0.15237650275230408, 0.11405599862337112, 0.042393457144498825, -0.0913471132516861, -0.16726061701774597, -0.0012642221990972757, -0.10733401030302048, 0.08017081022262573, 0.11327505111694336, -0.02132883295416832, -0.07309150695800781, -0.09731613844633102, -0.10292529314756393, 0.07378138601779938, 0.07144064456224442, -0.06790874898433685, 0.053785938769578934, -0.0967419221997261, -0.018022529780864716, -0.06797235459089279, 0.056450460106134415, -0.04414195939898491, -0.06612034142017365, -0.038606856018304825, 0.021007854491472244, 0.058108460158109665, 0.12226079404354095, 0.016410039737820625, -0.001674261991865933, -0.13502638041973114, 0.04037192091345787, -0.10300702601671219, 0.12274371832609177, -0.05345210060477257, 0.07463867217302322, 0.019458917900919914, -0.08902093768119812, -0.10763882100582123, 0.007532995194196701, -0.026395460590720177, -0.11295369267463684, -0.030711550265550613, -0.12898941338062286, -0.08077993988990784, -0.0879785493016243, 0.0044736554846167564, 0.011387313716113567, -0.0045067318715155125, -0.0026339434552937746, -0.06488195061683655, -0.026476794853806496, 0.0742248147726059, 0.009849634021520615, -0.0005565155297517776, 0.10161063075065613, -0.19448089599609375, -0.05599112808704376, 0.1134762167930603, -0.06203632801771164, -0.13477550446987152, 0.049313489347696304, -0.09411320090293884, -0.03401309624314308, 0.1562437266111374, 0.025976859033107758, 0.013782169669866562, 0.12160394340753555, 0.06669644266366959, 0.07464936375617981, 0.14435029029846191, -0.023040002211928368, -0.029574984684586525, 0.04963622987270355, 0.018886150792241096], [-0.037341102957725525, 0.06793610006570816, -0.018527792766690254, -0.11082925647497177, 0.06578809767961502, -0.019201619550585747, -0.03503485769033432, 0.04003148898482323, 0.017267882823944092, -0.04214416444301605, 0.1415495127439499, 0.07299613207578659, -0.0787060335278511, -0.017424503341317177, 0.006172089837491512, -0.07969076931476593, 0.11405182629823685, 0.023404711857438087, -0.014459267258644104, 0.06299174576997757, 0.05404934659600258, -0.07493558526039124, 0.1172143891453743, 0.1694115549325943, 0.05680380016565323, 0.02542746253311634, 0.043185487389564514, 0.009959548711776733, 0.07468897849321365, 0.036571115255355835, 0.08287731558084488, -0.15490344166755676, -0.007772285491228104, 0.13419713079929352, 0.11039584130048752, -0.005700372159481049, 0.00870501808822155, -0.06945578008890152, -0.025086548179388046, 0.13001179695129395, -0.00527778547257185, 0.023405296728014946, 0.0925864428281784, -0.023099001497030258, -0.008457275107502937, 0.06692737340927124, -0.02764567732810974, -0.060439709573984146, -0.035396985709667206, -0.006308555603027344, 0.008058402687311172, 0.090477854013443, 0.0038312403485178947, -0.13088393211364746, -0.059931930154561996, -0.017563845962285995, -0.11905747652053833, -0.0802658349275589, -0.061091098934412, -0.12378337979316711, 0.053167086094617844, -0.030094219371676445, -0.06422441452741623, -0.08077137172222137, 0.11552877724170685, -0.029761716723442078, -0.10097052156925201, -0.00479731522500515, -0.04748953878879547, -0.1163904070854187, 0.14564025402069092, -0.052556272596120834, -0.07956946641206741, -0.005460123531520367, 0.008316661231219769, -0.10678490251302719, 0.005654432345181704, 0.027255404740571976, -0.036880169063806534, -0.04154833406209946, -0.08110444992780685, -0.19512373208999634, 0.12703944742679596, -0.06849294900894165, -0.053220927715301514, -0.100294329226017, 0.16958749294281006, -0.10773099213838577, 0.008326404727995396, 0.04700705409049988, 0.0012248823186382651, -0.017110561951994896, 0.15362918376922607, -0.1235504224896431, -0.001136560458689928, 0.08030086010694504, 0.057404957711696625, -0.03509679436683655, 0.16890083253383636, -0.17487454414367676, -0.0158041100949049, 0.03567098081111908, -0.022647235542535782, -0.04238159954547882, 0.0037513996940106153, -0.0332387238740921, -0.14870506525039673, -0.08310282230377197, 0.014078819192945957, -0.0016810771776363254, 0.1191665455698967, 0.1222136840224266, -0.01795831508934498, -0.13286635279655457, 0.07418955117464066, -0.09978622943162918, 0.000190054124686867, 0.013214096426963806, -0.13485762476921082, -0.03449808433651924], [-0.00787731260061264, 0.03877604007720947, 0.06718327105045319, -0.06136302649974823, -0.0007436491432599723, -0.0027467410545796156, -0.07670160382986069, -0.05460302531719208, -0.048077717423439026, -0.027587581425905228, 0.038753606379032135, 0.024495353922247887, 0.054572612047195435, -0.09745929390192032, 0.03301331400871277, 0.02666451595723629, 0.03024197742342949, -0.023856038227677345, 0.03768513724207878, -0.03447708487510681, -0.021030085161328316, 0.03626859560608864, -0.07487665861845016, -0.09279047697782516, 0.06490548700094223, -0.07196348160505295, 0.04442792385816574, 0.01948232389986515, -0.04777112603187561, -0.10503271967172623, -0.09203611314296722, -0.08332409709692001, -0.040320005267858505, -0.031563472002744675, -0.11473184823989868, -0.12986105680465698, 0.04952816665172577, -0.019455617293715477, -0.05329413712024689, -0.027915941551327705, -0.04271997883915901, 0.013440626673400402, -0.0729520246386528, 0.03108467347919941, 0.06515965610742569, 0.06111963838338852, 0.08158592879772186, 0.09339669346809387, 0.08515141904354095, 0.09487175196409225, -0.12809161841869354, 0.03805325925350189, 0.029604122042655945, 0.10429602116346359, 0.022251103073358536, -0.03347637876868248, -0.09947139769792557, 0.06685929745435715, -0.06370813399553299, 0.011669459752738476, -0.03165266290307045, 0.003638871479779482, 0.04968663677573204, -0.10053437948226929, -0.07926637679338455, -0.1000932976603508, -0.07861745357513428, -0.008851593360304832, -0.0013988438295200467, -0.12561142444610596, -0.023277394473552704, 0.037807922810316086, 0.01145525649189949, -0.01737562194466591, -0.04659303277730942, 0.056604575365781784, 0.03335215523838997, -0.08718010783195496, -0.1103484258055687, 0.012823113240301609, 0.028349829837679863, -0.064299575984478, 0.058156486600637436, 0.015836255624890327, -0.04019574075937271, 0.03582919389009476, -0.005072604399174452, 0.083381786942482, 0.018308525905013084, 0.10439266264438629, 0.0015100566670298576, 0.049700018018484116, 0.04289434850215912, -0.03157705068588257, 0.026892269030213356, 0.02864960953593254, 0.06228703632950783, -0.04244425520300865, -0.0687963142991066, 0.045122209936380386, -0.023164620622992516, -0.02704000473022461, 0.08747129142284393, 0.0798414796590805, -0.09140227735042572, -0.07643633335828781, 0.008699508383870125, 0.009507854469120502, -0.0043263365514576435, -0.01401559542864561, 0.00215430767275393, -0.04415600374341011, 0.0878944993019104, -0.03201230987906456, 0.013588303700089455, -0.039121586829423904, -0.12090247869491577, -0.0362638495862484, -0.04633140563964844, -0.07862064987421036], [0.01948065683245659, -0.11563239246606827, -0.06187722831964493, 0.07361364364624023, 0.06572597473859787, 0.13382384181022644, 0.09568728506565094, -0.21803531050682068, -0.025475824251770973, -0.058604564517736435, 0.09481140971183777, 0.016992151737213135, 0.15062056481838226, -0.07514002919197083, 0.054875750094652176, 0.04681463912129402, -0.1207280233502388, -0.0512973889708519, -0.013297131285071373, -0.025458618998527527, 0.061300840228796005, 0.13820254802703857, -0.1477212756872177, -0.1164318397641182, 0.035745371133089066, -0.11957072466611862, 0.030496567487716675, 0.05369124561548233, -0.09986425191164017, -0.020505988970398903, -0.04421916604042053, -0.08093328028917313, 0.05605882406234741, 0.01575164683163166, -0.007717347238212824, -0.08541618287563324, -0.12389595806598663, 0.030171042308211327, 0.040670134127140045, 0.06893755495548248, 0.006627399008721113, -0.025606827810406685, -0.10499705374240875, 0.05838697776198387, -0.02554650418460369, -0.10198405385017395, 0.11926500499248505, 0.11313412338495255, 0.011539245024323463, -0.03633522987365723, 0.04891211912035942, -0.13104067742824554, 0.061993081122636795, 0.1131899282336235, 0.014899780973792076, 0.019835656508803368, 0.05591805279254913, 0.0759347602725029, -0.043773163110017776, 0.09358714520931244, 0.1352643519639969, 0.029268018901348114, -0.03599881753325462, -0.05442053824663162, 0.05635397136211395, -0.048427559435367584, -0.0701049193739891, 0.07696458697319031, -0.10485927760601044, -0.1415172666311264, 0.091817706823349, -0.09410851448774338, -0.07574257254600525, -0.14127708971500397, -0.08054008334875107, -0.0970516949892044, 0.0415789894759655, -0.05114981532096863, -0.07687699049711227, -0.08401535451412201, -0.01228498574346304, -0.12343862652778625, 0.0496632382273674, 0.05328521132469177, 0.039271753281354904, -0.12868519127368927, 0.05741921067237854, -0.14103177189826965, 0.031276602298021317, 0.12672895193099976, 0.04016527906060219, -0.07818188518285751, -0.036632489413022995, -0.0538489855825901, -0.033702485263347626, 0.07790354639291763, 0.030080240219831467, -0.20039963722229004, -0.03804949298501015, 0.00912904180586338, 0.034979790449142456, 0.08256198465824127, 0.04587095230817795, -0.12419687956571579, -0.023000922054052353, 0.06207374110817909, 0.04782424122095108, 0.0646604523062706, 0.12023048102855682, -0.1316704899072647, -0.033719148486852646, 0.12452781945466995, -0.09414877742528915, -0.15972809493541718, -0.009268486872315407, -0.11481638997793198, 0.032161492854356766, 0.11026390641927719, -0.12129545956850052, -0.1002362072467804], [-0.06284360587596893, 0.0030933693051338196, 0.07743673771619797, 0.06866347789764404, -0.03513513505458832, -0.05379660427570343, -0.1100541278719902, -0.0038166050799191, -0.004436202347278595, -0.04182051494717598, 0.01753103919327259, -0.0567743293941021, 0.008737144991755486, 0.06650985777378082, 0.03647639974951744, 0.05791742727160454, 0.06847113370895386, 0.09581834077835083, -0.057144615799188614, -0.01928810216486454, -0.026160074397921562, -0.02268405072391033, -0.05012262240052223, -0.048294905573129654, 0.00903243012726307, 0.05259309336543083, 0.08604677766561508, 0.1349271982908249, 0.07638942450284958, -0.08160653710365295, 0.026315096765756607, 0.0552951954305172, 0.06793256849050522, 0.11121290922164917, 0.009441939182579517, -0.03828977793455124, -0.02320002019405365, 0.055554818361997604, -0.020205821841955185, 0.10340164601802826, 0.12600775063037872, 0.030140962451696396, 0.10235270112752914, -0.08269170671701431, 0.007943418808281422, 0.028744276612997055, 0.054718017578125, 0.02150045707821846, 0.022848719730973244, 0.05445491522550583, 0.022222481667995453, -0.04695556312799454, 0.13863684237003326, 0.02699592150747776, -0.024956881999969482, -0.04787879437208176, -0.021399764344096184, 0.031564850360155106, 0.027610307559370995, -0.022310638800263405, 0.033209770917892456, 0.04372388869524002, 0.059690192341804504, -0.08349860459566116, 0.015742987394332886, -0.12351511418819427, 0.009680621325969696, 0.010668115690350533, 0.03392643854022026, -0.0006889578653499484, -0.08848170191049576, -0.053143471479415894, 0.030989546328783035, 0.011260433122515678, -0.0005451269098557532, -0.08092275261878967, -0.03210556507110596, 0.03833954781293869, 0.059900589287281036, -0.03406110033392906, 0.08307986706495285, -0.05405100807547569, 0.05210588872432709, 0.054614629596471786, 0.06310580670833588, 0.07305903732776642, -0.0376773402094841, -0.05519729480147362, -0.045771025121212006, 0.15298205614089966, 0.06773985922336578, -0.08584851771593094, -0.04714571312069893, 0.008414039388298988, -0.0066181062720716, 0.024598686024546623, 0.09644897282123566, -0.0602889209985733, -0.02685633674263954, 0.11409011483192444, -0.07698485255241394, 0.08226968348026276, 0.09095127880573273, -0.09930645674467087, 0.11820074915885925, -0.0502404049038887, -0.08007251471281052, 0.10011053085327148, -0.042393993586301804, -0.1472734659910202, 0.12604287266731262, 0.08212492614984512, -0.0600716732442379, -0.08356735855340958, -0.04792293906211853, -0.10947944968938828, 0.0102170929312706, -0.06486532092094421, 0.012014700099825859, -0.07343152165412903], [0.0659007877111435, -0.09008852392435074, -0.07712505757808685, 0.03652200102806091, -0.006744289770722389, -0.023356638848781586, -0.037512220442295074, 0.017987513914704323, 0.023591941222548485, 0.0035500763915479183, 0.04604470357298851, -0.1149158626794815, 0.06842400133609772, 0.04720047861337662, 0.030959194526076317, -0.07592198252677917, -0.08109023422002792, 0.08206790685653687, -0.030035894364118576, -0.052682314068078995, -0.045831821858882904, 0.060895808041095734, -0.0395834743976593, 0.0016397008439525962, -0.019121194258332253, 0.044588714838027954, -0.09604478627443314, -0.01590512879192829, 0.021013149991631508, -0.06440456211566925, -0.027810994535684586, 0.08541001379489899, -0.11093317717313766, 0.04861076548695564, -0.04391084611415863, -0.08540494740009308, -0.012567964382469654, 0.08221326768398285, -0.009533235803246498, -0.07964006811380386, -0.11984957009553909, -0.004711909219622612, -0.08733360469341278, 0.040065325796604156, -0.08905656635761261, -0.022498829290270805, -0.06875061988830566, -0.12188030034303665, 0.050456635653972626, -0.0639314353466034, 0.00846215058118105, -0.046403124928474426, -0.04513929784297943, 0.025596491992473602, 0.029821431264281273, -0.08469876646995544, 0.09426870942115784, -0.024703316390514374, -0.025963809341192245, 0.09355892241001129, -0.029321637004613876, 0.017184820026159286, -0.037804484367370605, 0.06486232578754425, -0.018053211271762848, -0.0028507132083177567, -0.07493412494659424, -0.09500160068273544, 0.006336558610200882, 0.04396047815680504, -0.08605798333883286, 0.09364752471446991, 0.009609401226043701, 0.013240860775113106, -0.03749990835785866, 0.0753045305609703, -0.09154047816991806, -0.04649464040994644, -0.01695474237203598, 0.09367690235376358, -0.09117373079061508, -0.018390506505966187, -0.05810080096125603, 0.08417670428752899, 0.027794113382697105, 0.047844357788562775, -0.08027210831642151, 0.05033070221543312, -0.08323639631271362, -0.10977830737829208, 0.06954913586378098, 0.12391609698534012, -0.07352673262357712, 0.12795723974704742, 0.005640587769448757, -0.005806044675409794, -0.06153428182005882, 0.06612862646579742, -0.04792747274041176, 0.13773058354854584, 0.10203199088573456, -0.019937196746468544, -0.018119657412171364, -0.05726683884859085, 0.015615378506481647, 0.030070481821894646, 0.05703001841902733, 0.04874628409743309, 0.07083980739116669, -0.07100630551576614, -0.040481213480234146, 0.008025369606912136, 0.004748571198433638, 0.02388068661093712, -0.08794394880533218, -0.12456930428743362, -0.03553716838359833, -0.05143505334854126, 0.06901617348194122, 0.01789899170398712], [-0.05160042271018028, 0.05393311381340027, -0.0863192230463028, 0.04310926795005798, -0.008169330656528473, -0.04110638052225113, -0.06904193758964539, -0.02554813027381897, -0.03229520097374916, 0.08938141167163849, -0.06366465985774994, -0.08520699292421341, -0.01611541211605072, -0.02600833773612976, 0.0510682612657547, 0.017620861530303955, 0.07767632603645325, -0.029088851064443588, 0.042623370885849, -0.009294994175434113, -0.08437526971101761, -0.007142595946788788, 0.005033031105995178, -0.08651921898126602, 0.0702241063117981, 0.03506578505039215, -0.051137372851371765, -0.019037432968616486, 0.05051031708717346, -0.03235209360718727, -0.051806140691041946, -0.07830099761486053, 0.043533504009246826, 0.09113459289073944, 0.02366650104522705, 0.083326056599617, -0.07315812259912491, 0.01883573830127716, 0.03888876736164093, 0.05301579833030701, 0.033285707235336304, 0.05962885916233063, -0.0798029899597168, 0.013281427323818207, 0.08728909492492676, 0.08659601211547852, 0.07056787610054016, 0.015533886849880219, -0.04197149723768234, -0.008079662919044495, 0.012320287525653839, -0.02387293428182602, 0.027320273220539093, 0.09071668982505798, -0.03748612105846405, 0.08434909582138062, -0.03333909437060356, -0.0831470638513565, 0.09006400406360626, 0.07362520694732666, 0.028006605803966522, 0.0729587972164154, 0.079045370221138, 0.045879825949668884, -0.09020577371120453, 0.06124201416969299, -0.019570663571357727, 0.03652945160865784, 0.046179741621017456, 0.05652642250061035, -0.04390985891222954, -0.058987416326999664, -0.039201319217681885, 0.00489681214094162, 0.05978144705295563, -0.004365734755992889, 0.03452189266681671, 0.06334391236305237, 0.008503176271915436, -0.006872326135635376, 0.038861438632011414, -0.061479926109313965, -0.05074591562151909, -0.028272822499275208, -0.055648986250162125, 0.0900702029466629, -0.006233669817447662, -0.0048108696937561035, -0.07492396980524063, -0.08837932348251343, 0.018781565129756927, 0.05478176474571228, 0.07567451894283295, 0.053440555930137634, 0.0233476459980011, 0.015511289238929749, -0.010699436068534851, -0.06993982195854187, 0.05726809799671173, -0.0834127888083458, 0.046193018555641174, -0.07111804187297821, 0.0725620687007904, -0.02430105209350586, 0.016685478389263153, 0.0700511783361435, 0.06971684098243713, -0.04304663464426994, -0.014876075088977814, -0.052357230335474014, -0.08519924432039261, -0.08481112122535706, 0.04851892590522766, -0.02267678827047348, -0.02543971687555313, 0.007789678871631622, -0.07302486151456833, -0.02676761895418167, -0.0698012039065361, 0.03568342328071594], [0.07219788432121277, -0.04243752732872963, 0.1592898666858673, -0.007121069822460413, 0.03582867234945297, 0.05447094142436981, 0.12601831555366516, 0.030477479100227356, 0.12682560086250305, -0.14349041879177094, -0.026466188952326775, -0.06392832100391388, 0.07836207747459412, 0.11142314970493317, 0.10798443853855133, -0.03882654756307602, -0.10526082664728165, -0.11582088470458984, 0.010363306850194931, 0.09093289077281952, 0.10021784901618958, 0.10510926693677902, -0.07310612499713898, -0.04080188274383545, 0.07123247534036636, 0.015196050517261028, 0.04268326610326767, 0.10421814769506454, 0.10297442972660065, -0.039491668343544006, 0.011636906303465366, -0.05921395495533943, 0.017494870349764824, -0.005361741874366999, -0.032630015164613724, -0.01969953067600727, 0.04286642372608185, -0.06065019220113754, -0.05452300235629082, -0.03024553507566452, 0.05923767760396004, 0.11424464732408524, -0.05491695553064346, 0.017041431739926338, 0.021378137171268463, 0.11141511797904968, 0.004868228919804096, 0.11293873190879822, 0.01513800211250782, -0.08474203199148178, -0.14017480611801147, -0.021765418350696564, 0.07496128976345062, 0.11246246844530106, 0.07713542133569717, -0.026972327381372452, -0.017264675348997116, -0.1091253012418747, -0.07061458379030228, 0.07877277582883835, -0.0225581806153059, -0.11470404267311096, -0.010924860835075378, -0.12684597074985504, -0.08538250625133514, -0.055354565382003784, 0.05504772812128067, -0.11548309028148651, -0.015872107818722725, -0.08333587646484375, -0.06732282787561417, -0.10437542200088501, 0.06824246793985367, 0.054113470017910004, 0.08761945366859436, 0.04586535319685936, 0.021742017939686775, -0.11039441078901291, 0.05104683339595795, 0.048761580139398575, 0.06352584809064865, -0.011183429509401321, -0.11992809921503067, -0.06272212415933609, -0.09155716747045517, 0.053291767835617065, 0.09578464925289154, -0.045523807406425476, 0.0269000343978405, -0.031447771936655045, 0.0634947195649147, 0.06543019413948059, 0.015542256645858288, 0.09274183958768845, -0.051108717918395996, 0.0791214182972908, -0.07781017571687698, -0.01064339093863964, 0.010677016340196133, 0.0150778628885746, 0.05161022022366524, 0.04118235409259796, 0.1132422611117363, 0.08547767251729965, 0.015214841812849045, -0.03826267272233963, -0.08352705091238022, 0.016454463824629784, 0.06866619735956192, 0.06690967082977295, 0.06318586319684982, -0.09882691502571106, -0.10195974260568619, -0.06197347864508629, 0.021771125495433807, 0.11313952505588531, 0.030269434675574303, -0.005126303061842918, -0.07739613205194473, 0.088907890021801], [-0.06863714009523392, -0.09352891147136688, -0.08636393398046494, 0.06031641364097595, 0.025273166596889496, 0.0574556440114975, -0.05642867088317871, -0.08997540175914764, -0.006341532338410616, 0.004846206866204739, -0.08721067756414413, -0.1753760129213333, 0.11542721837759018, 0.022347813472151756, -0.1169053465127945, -0.07259564101696014, -0.08196135610342026, -0.06617238372564316, 0.04624754562973976, 0.06707192957401276, -0.008672865107655525, -0.12153859436511993, -0.002595204394310713, 0.03298645094037056, 0.015384700149297714, 0.06177226081490517, -0.10215231776237488, -0.0922560766339302, -0.02092345617711544, -0.07839719951152802, -0.01463550329208374, 0.02125101163983345, -0.11069446057081223, -0.15822769701480865, -0.02698323130607605, -0.08277177810668945, -0.01838173158466816, 0.030307525768876076, 0.0596027709543705, -0.1213008314371109, 0.06140526756644249, -0.08215928822755814, -0.07085850089788437, -0.007005060091614723, 0.048938002437353134, -0.026217909529805183, 0.00697887409478426, -0.0768323466181755, -0.05184308812022209, -0.05499039217829704, 0.13734392821788788, -0.0001746310736052692, 0.02191341482102871, -0.03927994892001152, -0.04608534649014473, -0.04742831736803055, 0.131663516163826, 0.0017372388392686844, 0.011985698714852333, 0.030167577788233757, -0.05634631961584091, 0.040092241019010544, 0.06428156793117523, -0.003902188502252102, 0.0465950109064579, 0.033251967281103134, 0.09835714846849442, 0.013869601301848888, -0.14683569967746735, 0.16741864383220673, 0.1493525207042694, 0.08184868842363358, -0.05357455462217331, 0.052603211253881454, -0.08054614812135696, -0.01148756593465805, -0.05623568221926689, 0.11677178740501404, -0.04080352932214737, -0.014538669027388096, -0.07319255918264389, -0.10857921093702316, -0.09073766320943832, -0.02671312354505062, 0.0089619355276227, 0.04025639221072197, -0.05889048054814339, -0.09191115200519562, -0.01352978777140379, -0.06739690899848938, 0.06786642223596573, -0.050520043820142746, 0.11937161535024643, -0.024280548095703125, -0.12304853647947311, -0.05546833574771881, -0.07200280576944351, -0.10568887740373611, 0.0777226984500885, 0.014481671154499054, -0.008851071819663048, -0.030739018693566322, 0.06932948529720306, -0.05941782891750336, 0.0686228796839714, -0.045938197523355484, -0.16801711916923523, -0.0575508214533329, 0.10028807073831558, 0.05278611555695534, -0.045237988233566284, -0.11834964901208878, 0.011184307746589184, 0.04618038982152939, 0.004055264871567488, -0.08600838482379913, -0.009216630831360817, 0.04568053409457207, -0.07295909523963928, 0.03835674747824669], [-0.04874137043952942, -0.08423472940921783, 0.04001110792160034, 0.08007514476776123, -0.07921470701694489, -0.07118154317140579, 0.017323821783065796, -0.061040446162223816, 0.06901167333126068, -0.0021262764930725098, -0.05225221812725067, 0.08139273524284363, -0.09053502976894379, 0.024621807038784027, 0.06708770990371704, -0.06722599267959595, -0.04309426620602608, -0.0893946960568428, 0.018747970461845398, -0.07610542327165604, -0.029288016259670258, 0.029940836131572723, 0.03981286287307739, -0.046674944460392, 0.0670999139547348, -0.004543140530586243, 0.03478129208087921, 0.004575647413730621, -0.08447384089231491, -0.018505364656448364, -0.0029462650418281555, -0.005030669271945953, -0.07040543854236603, 0.05695100128650665, 0.06258760392665863, 0.0908377468585968, -0.02408420294523239, -0.03850918263196945, -0.04973455145955086, 0.023140884935855865, -0.016538240015506744, 0.04998771846294403, -0.03199075907468796, 0.0025270283222198486, -0.038956739008426666, -0.006847396492958069, 0.04953731596469879, -0.06894737482070923, -0.002188839018344879, 0.028749510645866394, 0.05811358988285065, 0.045998990535736084, 0.022538140416145325, 0.04748907685279846, -0.03728457912802696, 0.0675332099199295, -0.0024278759956359863, -0.08073636144399643, -0.02530929446220398, 0.009044669568538666, -0.07086288928985596, 0.008600637316703796, -0.019944928586483, -0.017626479268074036, -0.0833742693066597, 0.05597624182701111, -0.07641236484050751, 0.007589951157569885, -0.007514879107475281, 0.041547223925590515, 0.0030389726161956787, -0.026327408850193024, 0.06611387431621552, 0.08037303388118744, 0.07772369682788849, -0.044452860951423645, 0.09048542380332947, -0.04921126365661621, 0.0032692179083824158, -0.0007471442222595215, -0.042576584964990616, -0.015260174870491028, -0.06122288480401039, -0.027996726334095, -0.07544884085655212, -0.01881811022758484, 0.06672215461730957, -0.059227924793958664, 0.08962328732013702, 0.06347917020320892, -0.08392274379730225, -0.04212982580065727, -0.04804430529475212, 0.00019776076078414917, 0.0813332051038742, 0.048475682735443115, 0.031226083636283875, -0.0538993775844574, 0.04083940386772156, -0.0890163853764534, 0.03577102720737457, -0.036276642233133316, -0.06680194288492203, -0.07517638802528381, 0.04485040903091431, 0.06355845928192139, -0.03329893946647644, 0.05187763273715973, 0.0025294646620750427, 0.0526350736618042, 0.07793839275836945, 0.015343621373176575, 0.05324093997478485, 0.026891052722930908, -0.06891573965549469, 0.07383255660533905, 0.053308308124542236, 0.029251836240291595, 0.03831148147583008, 0.049656420946121216], [-0.041854601353406906, 0.06890499591827393, 0.014905638992786407, -0.05371849238872528, -0.05781916156411171, 0.0852634459733963, -0.07275229692459106, -0.08632469177246094, 0.007741011679172516, 0.055397406220436096, 0.07180275022983551, 0.07729348540306091, 0.014549009501934052, 0.08994272351264954, -0.009087063372135162, 0.002845853567123413, -0.03592164069414139, 0.046579450368881226, 0.0895392894744873, -0.01250099390745163, 0.06031958758831024, 0.08382472395896912, 0.050270289182662964, 0.05781523883342743, 0.02083926647901535, 0.07892310619354248, -0.0689043179154396, -0.016034990549087524, -0.06654961407184601, 0.0428447425365448, -0.006601564586162567, -0.007274173200130463, 0.009598694741725922, -0.059793390333652496, -0.07638315856456757, -0.04727039113640785, -0.029675621539354324, -0.039395011961460114, -0.05622271075844765, -0.022089384496212006, 0.0010720565915107727, -0.051964327692985535, 0.04260072112083435, 0.04601846635341644, -0.0908811166882515, -0.040949784219264984, 0.05651107430458069, 0.011220879852771759, 0.06293198466300964, -0.04125773161649704, -0.024451948702335358, -0.061616137623786926, -0.036397434771060944, 0.07197403907775879, -0.08744537830352783, 0.09089016914367676, -0.009565114974975586, -0.00041943788528442383, -0.018095530569553375, 0.03447069227695465, -0.0773213729262352, 0.029457196593284607, 0.07042807340621948, 0.025458134710788727, -0.006341718137264252, 0.041956961154937744, 0.05036269128322601, 0.001734212040901184, -0.01205252856016159, -0.0049743205308914185, -0.014109984040260315, 0.013979092240333557, -0.011772207915782928, 0.005276300013065338, 0.05962219834327698, -0.058474503457546234, -0.054336149245500565, -0.07933036983013153, -0.01855608820915222, -0.0856110081076622, -0.06707233190536499, 0.07552473247051239, 0.04116007685661316, -0.026630230247974396, -0.07763691991567612, -0.07191444933414459, 0.050262778997421265, -0.06314761936664581, 0.0018657445907592773, 0.047335535287857056, -0.05676129460334778, -0.08592772483825684, 0.01358698308467865, -0.06061980128288269, 0.040353938937187195, 0.059240296483039856, -0.04843815416097641, -0.06334245949983597, 0.01874985545873642, -0.06966929882764816, -0.05748443305492401, -0.08852492272853851, -0.06225551664829254, 0.007067590951919556, 0.07674019038677216, -0.06359241157770157, 0.010931424796581268, -0.037200331687927246, -0.07656784355640411, 0.011107206344604492, 0.07425481081008911, 0.03391610085964203, -0.032089103013277054, -0.051032911986112595, -0.051611751317977905, 0.07089321315288544, 0.020568743348121643, -0.03586896136403084, -0.0783625915646553, 0.003099597990512848]], "fc1.bias": [-0.07361125200986862, 0.021602125838398933, 0.016708968207240105, -0.008502365089952946, -0.043343715369701385, 0.05011727288365364, -0.0153076546266675, -0.03607126325368881, 0.028209887444972992, 0.009129141457378864, 0.01634601689875126, 0.028769349679350853, -0.043108537793159485, 0.010345055721700191, -0.07839923352003098, -0.07987746596336365, 0.08466922491788864, -0.05863259732723236, -0.048735033720731735, 0.06891931593418121, 0.07203669100999832, 0.10344871133565903, 0.009575528092682362, -0.08172614127397537, 0.08325732499361038, -0.024987751618027687, -0.017635369673371315, 0.0412866473197937, 0.027879836037755013, -0.0722804069519043, -0.03450392186641693, -0.051295261830091476], "fc3.weight": [[-0.17106305062770844, -0.08323950320482254, 0.09686164557933807, 0.024918630719184875, 0.05487769469618797, 0.1948419213294983, -0.014058164320886135, -0.04982384294271469, -0.04302845895290375, 0.18021368980407715, -0.16770993173122406, 0.015548067167401314, -0.2676922082901001, 0.05176592990756035, -0.11851200461387634, 0.046105969697237015, 0.049637045711278915, 0.10381566733121872, -0.0888257771730423, -0.14545634388923645, -0.21318219602108002, -0.0387716218829155, 0.26484379172325134, -0.21328073740005493, -0.2348007708787918, 0.16885410249233246, -0.034202344715595245, -0.002404645085334778, 0.0690537840127945, 0.06734053790569305, -0.11891001462936401, -0.12572124600410461], [-0.1422397643327713, -0.2564007639884949, 0.004186252132058144, -0.2841005325317383, 0.17455504834651947, -0.13771414756774902, 0.10958036780357361, 0.03937545791268349, 0.1337750107049942, 0.06964666396379471, -0.21557556092739105, -0.06009791046380997, -0.1267460584640503, -0.02925083413720131, 0.07339569181203842, 0.05599625036120415, 0.0626811757683754, 0.20492173731327057, -0.2523063123226166, 0.15614093840122223, -0.1103706955909729, -0.09896036237478256, -0.1345924735069275, -0.22757068276405334, -0.207014799118042, 0.09030388295650482, 0.0018894769018515944, 0.13063062727451324, 0.1773296743631363, -0.11128251254558563, -0.13171853125095367, -0.04008091986179352], [-0.15607279539108276, -0.23478451371192932, 0.08758117258548737, -0.13536877930164337, -0.22795364260673523, -0.02765503153204918, 0.215630441904068, -0.2209056168794632, -0.16163958609104156, -0.33321356773376465, 0.06787613034248352, -0.15897327661514282, 0.12432093173265457, 0.02771136350929737, 0.10558053851127625, -0.12240002304315567, -0.20561441779136658, -0.06066495180130005, 0.029285775497555733, -0.03180687129497528, 0.15820036828517914, 0.06407278031110764, 0.03392060473561287, -0.24065923690795898, 0.05839339643716812, 0.14018402993679047, -0.1594807207584381, 0.051042333245277405, 0.2114030122756958, -0.23612220585346222, -0.08902131021022797, -0.14339356124401093], [-0.014689984731376171, 0.07320438325405121, -0.06330517679452896, 0.14495018124580383, -0.23361793160438538, 0.11399566382169724, -0.16387000679969788, -0.11102671176195145, -0.1011960506439209, -0.20498040318489075, -0.06422413885593414, 0.2314029484987259, -0.05472628027200699, -0.10078128427267075, 0.0016535462345927954, -0.11107540130615234, 0.05041613429784775, 0.1756867915391922, 0.09870564937591553, 0.06331624835729599, 0.010239257477223873, -0.006527654826641083, 0.07094588875770569, 0.039533667266368866, 0.10385695099830627, -0.02007734403014183, -0.18327629566192627, 0.028365477919578552, 0.11896783858537674, -0.15862531960010529, 0.10570396482944489, -0.018996194005012512], [0.055777616798877716, 0.051254626363515854, -0.14002671837806702, -0.03843022510409355, 0.048597898334264755, -0.08973971754312515, 0.15880925953388214, -0.18982861936092377, -0.06456850469112396, 0.07179860770702362, 0.1847923994064331, 0.11048310250043869, -0.283161997795105, -0.0315820574760437, 0.09265179187059402, 0.07520642131567001, -0.054827731102705, 0.12458144873380661, -0.1684168428182602, -0.16122248768806458, 0.12549947202205658, -0.14930535852909088, 0.05019155144691467, 0.23072181642055511, 0.1887957751750946, 0.1150490865111351, 0.016459926962852478, -0.11106198281049728, -0.0050014411099255085, -0.2239917516708374, 0.031547680497169495, -0.11544904112815857], [0.16691040992736816, 0.029197435826063156, -0.10650951415300369, -0.15929318964481354, -0.15352845191955566, -0.1397799700498581, 0.022076208144426346, -0.06033794954419136, -0.1837688535451889, 0.0063226185739040375, 0.12553109228610992, 0.06370094418525696, 0.11720307916402817, -0.25671839714050293, -0.0018731052987277508, 0.1381901502609253, 0.19026848673820496, -0.16746832430362701, -0.13144929707050323, -0.16568711400032043, -0.0845290869474411, -0.22432444989681244, -0.004737770184874535, -0.017597874626517296, 0.24005718529224396, -0.1257026195526123, 0.08387517929077148, 0.0212525874376297, -0.01163734495639801, 0.10521207749843597, -0.10166213661432266, 0.05681698024272919], [0.03904086351394653, 0.036787260323762894, -0.15717925131320953, 0.04438423365354538, 0.13035587966442108, 0.2111075073480606, 0.08233549445867538, 0.01075475849211216, -0.2865656018257141, -0.05526638776063919, 0.1258203089237213, -0.11853934079408646, 0.07291138917207718, -0.227854922413826, -0.07088404893875122, 0.073393814265728, 0.16358718276023865, -0.09710681438446045, 0.0017632750095799565, -0.11526036262512207, -0.23543377220630646, 0.13013377785682678, 0.013711316511034966, 0.0903494656085968, 0.04006214067339897, -0.18574771285057068, 0.14399729669094086, 0.09753076732158661, -0.1600249856710434, -0.09085118770599365, -0.022845715284347534, -0.08961233496665955], [-0.017338503152132034, 0.17627352476119995, 0.1592768281698227, -0.244981050491333, -0.10894980281591415, 0.11913685500621796, -0.16305607557296753, -0.23518534004688263, 0.13978180289268494, 0.1691722720861435, 0.08170837163925171, -0.07970905303955078, 0.06255143880844116, 0.1362232118844986, 0.07056619971990585, 0.1704629510641098, -0.24767866730690002, 0.015453769825398922, -0.04925016686320305, 0.12840785086154938, -0.07443678379058838, 0.009971017949283123, -0.20048893988132477, -0.10035105049610138, -0.14979638159275055, 0.13417303562164307, 0.14091812074184418, 0.1592542976140976, -0.008846515789628029, 0.01553131639957428, 0.11928482353687286, -0.0009014010429382324], [-0.09289994090795517, 0.10232377052307129, 0.166875958442688, -0.20670412480831146, 0.14051784574985504, 0.18081419169902802, -0.05299929156899452, 0.03912334889173508, 0.005380934104323387, 0.1826540231704712, 0.2189437597990036, -0.12527093291282654, 0.1472916156053543, -0.16443698108196259, -0.15812541544437408, 0.058764584362506866, -0.1635209321975708, -0.09613491594791412, -0.15142779052257538, 0.17222720384597778, 0.06768140941858292, -0.23831656575202942, -0.27042680978775024, -0.05828288942575455, 0.056241024285554886, 0.10702737420797348, -0.04363354668021202, 0.0020611435174942017, -0.126381054520607, -0.04885745793581009, -0.031526416540145874, -0.03741961717605591], [-0.041495513170957565, -0.15835438668727875, -0.15586896240711212, -0.12647151947021484, -0.14831577241420746, -0.11871618032455444, 0.13293097913265228, 0.1410522311925888, -0.12635566294193268, -0.18056301772594452, -0.11744578927755356, -0.010508614592254162, 0.03281593322753906, -0.1446196287870407, 0.04836714267730713, 0.22753316164016724, -0.08604439347982407, 0.09677644073963165, 0.014716962352395058, 0.1137157678604126, 0.1423177570104599, -0.17927615344524384, 0.07469533383846283, 0.03509744629263878, -0.1367381513118744, -0.08433366566896439, 0.20372962951660156, 0.08119224011898041, 0.06821650266647339, 0.01638600416481495, -0.08005867153406143, 0.13351525366306305], [-0.1863069236278534, 0.03534170985221863, -0.08778243511915207, -0.18168087303638458, -0.15583890676498413, 0.03980809450149536, -0.18441446125507355, -0.19604626297950745, 8.53213423397392e-05, 0.12889154255390167, -0.002582864835858345, -0.04653160646557808, 0.04116106033325195, -0.3186369836330414, -0.05073976144194603, -0.17679496109485626, -0.2471190243959427, 0.003098204731941223, 0.2038695067167282, -0.026955576613545418, -0.11720697581768036, 0.21169130504131317, -0.033118270337581635, -0.1764608770608902, -0.12079517543315887, -0.10511569678783417, 0.06052727252244949, -0.12371796369552612, 0.1839478313922882, 0.06816474348306656, 0.1571023017168045, -0.11948743462562561], [0.1267830729484558, 0.20272961258888245, -0.14761380851268768, 0.14172592759132385, 0.05097321793437004, 0.12317289412021637, 0.034681741148233414, 0.20127864181995392, 0.14163130521774292, -0.1997644156217575, -0.12044928967952728, -0.04645456746220589, -0.06549832224845886, 0.2157031148672104, 0.08092411607503891, -0.1538516879081726, 0.09873659163713455, 0.16159243881702423, -0.2641127407550812, 0.05282439664006233, -0.08057557046413422, -0.28335070610046387, 0.07483399659395218, 0.05753009021282196, 0.11996845155954361, -0.04603051766753197, -0.17118211090564728, -0.05691465735435486, -0.1314743608236313, -0.07271208614110947, -0.14862491190433502, -0.017828643321990967]], "fc3.bias": [-0.0388326458632946, 0.09374400973320007, 0.06935424357652664, -0.19947367906570435, 0.04448432847857475, -0.10475172847509384, -0.031921617686748505, 0.09264882653951645, 0.06894650310277939, 0.07571565359830856, -0.023605888709425926, -0.11064194142818451]}